<?xml version="1.0"?>
<opencv_storage>
<cascade>
  <stageType>BOOST</stageType>
  <featureType>LBP</featureType>
  <height>30</height>
  <width>50</width>
  <stageParams>
    <boostType>GAB</boostType>
    <minHitRate>9.9900001287460327e-01</minHitRate>
    <maxFalseAlarm>5.0000000000000000e-01</maxFalseAlarm>
    <weightTrimRate>9.4999999999999996e-01</weightTrimRate>
    <maxDepth>1</maxDepth>
    <maxWeakCount>100</maxWeakCount></stageParams>
  <featureParams>
    <maxCatCount>256</maxCatCount>
    <featSize>1</featSize></featureParams>
  <stageNum>15</stageNum>
  <stages>
    <!-- stage 0 -->
    <_>
      <maxWeakCount>2</maxWeakCount>
      <stageThreshold>-2.2563773393630981e-01</stageThreshold>
      <weakClassifiers>
        <_>
          <internalNodes>
            0 -1 2 -276828417 176867263 -1056268194 -276040357
            -985141161 4743367 -386144040 -536871937</internalNodes>
          <leafValues>
            -8.5307240486145020e-01 8.1618654727935791e-01</leafValues></_>
        <_>
          <internalNodes>
            0 -1 14 -134217814 1910221207 -850851958 -11017777 -52713473
            1364978079 -112489477 2147480575</internalNodes>
          <leafValues>
            -9.5529174804687500e-01 6.2743467092514038e-01</leafValues></_></weakClassifiers></_>
    <!-- stage 1 -->
    <_>
      <maxWeakCount>5</maxWeakCount>
      <stageThreshold>-1.0430897474288940e+00</stageThreshold>
      <weakClassifiers>
        <_>
          <internalNodes>
            0 -1 18 -1048611 -1140852737 -1599411267 -1412457089
            -573571107 -1147437105 -1025 -268435457</internalNodes>
          <leafValues>
            -7.3703336715698242e-01 7.3854315280914307e-01</leafValues></_>
        <_>
          <internalNodes>
            0 -1 62 -800066870 1086704396 33685504 1363661831
            -1064910429 16961665 15144615 -176160769</internalNodes>
          <leafValues>
            -7.5995320081710815e-01 6.2723785638809204e-01</leafValues></_>
        <_>
          <internalNodes>
            0 -1 23 889197020 -551593772 492541439 1058087196 581488636
            -3437636 -1615799297 -1426578708</internalNodes>
          <leafValues>
            -7.6800954341888428e-01 6.2785160541534424e-01</leafValues></_>
        <_>
          <internalNodes>
            0 -1 47 -498605438 1896087371 -799178614 -71051057
            1078319498 442371 635955334 1090518503</internalNodes>
          <leafValues>
            -7.9973220825195312e-01 5.7106792926788330e-01</leafValues></_>
        <_>
          <internalNodes>
            0 -1 46 -1137419267 -6727471 -687475753 -14995112
            -1149191937 -101858327 -1430484513 -1430779524</internalNodes>
          <leafValues>
            -7.2124993801116943e-01 6.5083849430084229e-01</leafValues></_></weakClassifiers></_>
    <!-- stage 2 -->
    <_>
      <maxWeakCount>3</maxWeakCount>
      <stageThreshold>-1.0811744928359985e+00</stageThreshold>
      <weakClassifiers>
        <_>
          <internalNodes>
            0 -1 16 -294654417 -53543201 -274477353 -288624929 -28835841
            -99278133 -103814145 -16781569</internalNodes>
          <leafValues>
            -8.0366301536560059e-01 6.3037973642349243e-01</leafValues></_>
        <_>
          <internalNodes>
            0 -1 67 -25165986 1914139943 -594092068 -53218353 1919119623
            352800007 -397447586 2071986047</internalNodes>
          <leafValues>
            -8.5210841894149780e-01 5.0239789485931396e-01</leafValues></_>
        <_>
          <internalNodes>
            0 -1 55 -255073622 165144591 -2111586304 -340557693
            1103360399 1342300571 -538446933 -203957281</internalNodes>
          <leafValues>
            -7.0531785488128662e-01 5.7459688186645508e-01</leafValues></_></weakClassifiers></_>
    <!-- stage 3 -->
    <_>
      <maxWeakCount>5</maxWeakCount>
      <stageThreshold>-1.1698242425918579e+00</stageThreshold>
      <weakClassifiers>
        <_>
          <internalNodes>
            0 -1 17 -18874561 -19991049 -298588161 -269484305 -6554113
            -553610 -73675009 -263169</internalNodes>
          <leafValues>
            -7.0254009962081909e-01 6.6508537530899048e-01</leafValues></_>
        <_>
          <internalNodes>
            0 -1 22 385880540 -125505 529675773 1060249626 2065717692
            -14721065 -1312564225 1069157054</internalNodes>
          <leafValues>
            -8.5592019557952881e-01 4.9295845627784729e-01</leafValues></_>
        <_>
          <internalNodes>
            0 -1 7 -419434769 -25167395 -1005854817 -270535922 7858927
            1804068847 1096282934 -143130793</internalNodes>
          <leafValues>
            -6.4494097232818604e-01 6.5755724906921387e-01</leafValues></_>
        <_>
          <internalNodes>
            0 -1 8 2011166574 1976816999 -9314913 -135049816 -192358482
            -6691339 2046356910 1743780622</internalNodes>
          <leafValues>
            -8.4217411279678345e-01 4.8869845271110535e-01</leafValues></_>
        <_>
          <internalNodes>
            0 -1 35 -1877937712 -1688579823 -1118794241 1060573531
            1676054522 -1078294372 -1103558006 -1382338373</internalNodes>
          <leafValues>
            -7.4202388525009155e-01 5.4487860202789307e-01</leafValues></_></weakClassifiers></_>
    <!-- stage 4 -->
    <_>
      <maxWeakCount>5</maxWeakCount>
      <stageThreshold>-1.1265649795532227e+00</stageThreshold>
      <weakClassifiers>
        <_>
          <internalNodes>
            0 -1 41 -235412982 -740558969 -749733346 -101720293
            1359471247 1359328985 -1690834422 -681061525</internalNodes>
          <leafValues>
            -7.5375378131866455e-01 5.3694581985473633e-01</leafValues></_>
        <_>
          <internalNodes>
            0 -1 10 -293605825 -1235364897 -211681281 -34623395
            1756081151 -40119077 -364184897 -453018089</internalNodes>
          <leafValues>
            -7.2246891260147095e-01 5.1554584503173828e-01</leafValues></_>
        <_>
          <internalNodes>
            0 -1 45 278927128 -35881508 -546299969 -4311119 -1448627717
            -222802 732833465 -1145304788</internalNodes>
          <leafValues>
            -7.1052360534667969e-01 5.4528719186782837e-01</leafValues></_>
        <_>
          <internalNodes>
            0 -1 4 -831524881 1185130280 2014242458 -9242096 5203063
            1083134639 -103860489 -789545</internalNodes>
          <leafValues>
            -7.7198654413223267e-01 5.1581001281738281e-01</leafValues></_>
        <_>
          <internalNodes>
            0 -1 59 -41693045 352706579 -1947500542 -1252535893
            1354883982 1347011457 579469450 -757596289</internalNodes>
          <leafValues>
            -6.6165769100189209e-01 6.1478638648986816e-01</leafValues></_></weakClassifiers></_>
    <!-- stage 5 -->
    <_>
      <maxWeakCount>5</maxWeakCount>
      <stageThreshold>-1.1354774236679077e+00</stageThreshold>
      <weakClassifiers>
        <_>
          <internalNodes>
            0 -1 25 -68158467 -11018313 -1576349108 -1414671265 -1092137
            -1156619690 -67113569 -2105345</internalNodes>
          <leafValues>
            -6.9653695821762085e-01 5.4414963722229004e-01</leafValues></_>
        <_>
          <internalNodes>
            0 -1 39 36705660 1603298269 -80192003 -141836 -1075920968
            -537069347 1072303288 1065879552</internalNodes>
          <leafValues>
            -8.5342484712600708e-01 4.1149121522903442e-01</leafValues></_>
        <_>
          <internalNodes>
            0 -1 69 -290197745 -532030 2008532669 -1040188786 1145192462
            -2113345 323163435 -3147030</internalNodes>
          <leafValues>
            -6.7022311687469482e-01 5.4399883747100830e-01</leafValues></_>
        <_>
          <internalNodes>
            0 -1 24 956307576 -547597992 -548089443 -44230352
            -1474769926 -10745697 193564591 428343304</internalNodes>
          <leafValues>
            -7.6444035768508911e-01 5.1002430915832520e-01</leafValues></_>
        <_>
          <internalNodes>
            0 -1 51 -520098013 -1573994234 -2063941627 -171502773
            -1609967901 -1023757463 -1060083707 -445121181</internalNodes>
          <leafValues>
            -6.0576069355010986e-01 6.4883458614349365e-01</leafValues></_></weakClassifiers></_>
    <!-- stage 6 -->
    <_>
      <maxWeakCount>5</maxWeakCount>
      <stageThreshold>-1.1184740066528320e+00</stageThreshold>
      <weakClassifiers>
        <_>
          <internalNodes>
            0 -1 26 -608174145 456916991 -1442054275 -1145044997
            -5505083 -610544229 -136056103 -4097</internalNodes>
          <leafValues>
            -6.3886165618896484e-01 6.1331373453140259e-01</leafValues></_>
        <_>
          <internalNodes>
            0 -1 19 -2768908 2136773902 1434715548 -12594241 -73803777
            2089064620 -1625686017 -1074930689</internalNodes>
          <leafValues>
            -7.7108371257781982e-01 4.6327558159828186e-01</leafValues></_>
        <_>
          <internalNodes>
            0 -1 0 -521244753 -168325266 -140946945 -138943834
            -1309705025 -5838113 -169891121 1743218023</internalNodes>
          <leafValues>
            -7.2276413440704346e-01 5.1962590217590332e-01</leafValues></_>
        <_>
          <internalNodes>
            0 -1 49 -230166902 1431829439 -356014022 -907028797
            1950704539 1414779210 871878283 1465374587</internalNodes>
          <leafValues>
            -7.1256351470947266e-01 5.0413936376571655e-01</leafValues></_>
        <_>
          <internalNodes>
            0 -1 70 -1372031119 -6433963 -712794113 -537249098
            -386204177 -6697999 -269353285 -1078983920</internalNodes>
          <leafValues>
            -7.2426325082778931e-01 5.2495634555816650e-01</leafValues></_></weakClassifiers></_>
    <!-- stage 7 -->
    <_>
      <maxWeakCount>5</maxWeakCount>
      <stageThreshold>-1.0002635717391968e+00</stageThreshold>
      <weakClassifiers>
        <_>
          <internalNodes>
            0 -1 44 -41946113 -67896321 -168689705 -539103240 -252137302
            -67436552 -10618913 -257</internalNodes>
          <leafValues>
            -5.5249571800231934e-01 7.5960344076156616e-01</leafValues></_>
        <_>
          <internalNodes>
            0 -1 28 -612893010 -36702481 -826872768 -268570969
            2138570719 -704946219 -68428525 -570425353</internalNodes>
          <leafValues>
            -6.9216543436050415e-01 5.1997596025466919e-01</leafValues></_>
        <_>
          <internalNodes>
            0 -1 1 -269506769 -419448837 -7938194 -287309841 -553812155
            1995952079 -156 -185077833</internalNodes>
          <leafValues>
            -6.8690180778503418e-01 4.8465704917907715e-01</leafValues></_>
        <_>
          <internalNodes>
            0 -1 60 -437263606 1976525060 1678165536 1911247703
            -1333026618 1140900104 -395982641 -688390305</internalNodes>
          <leafValues>
            -6.8474769592285156e-01 4.9110117554664612e-01</leafValues></_>
        <_>
          <internalNodes>
            0 -1 15 -1105134219 -1082621971 -205808809 -2294785
            -70321171 -3560737 -1087984195 -1092080132</internalNodes>
          <leafValues>
            -7.3136055469512939e-01 5.0750815868377686e-01</leafValues></_></weakClassifiers></_>
    <!-- stage 8 -->
    <_>
      <maxWeakCount>5</maxWeakCount>
      <stageThreshold>-1.1530754566192627e+00</stageThreshold>
      <weakClassifiers>
        <_>
          <internalNodes>
            0 -1 9 1610518014 -1020322 231863805 1066020030 2087196157
            -526917 -6586657 -67404804</internalNodes>
          <leafValues>
            -7.1223562955856323e-01 4.8368677496910095e-01</leafValues></_>
        <_>
          <internalNodes>
            0 -1 52 -353375413 1539304399 -625742046 -135070258
            335503598 1089464299 -190844739 -503578637</internalNodes>
          <leafValues>
            -7.0342260599136353e-01 4.8525652289390564e-01</leafValues></_>
        <_>
          <internalNodes>
            0 -1 38 -35782896 502567929 -203694275 -2359331 -274268260
            -1363428613 1002374200 -1460859975</internalNodes>
          <leafValues>
            -7.3619550466537476e-01 4.3923893570899963e-01</leafValues></_>
        <_>
          <internalNodes>
            0 -1 75 -470286589 594789959 -1047273183 -484251854
            -604504107 -552079353 -138682236 -958922889</internalNodes>
          <leafValues>
            -5.9796059131622314e-01 5.7649075984954834e-01</leafValues></_>
        <_>
          <internalNodes>
            0 -1 54 -362808922 -756026370 1105781512 -588363354
            1191443946 1989550517 -295638833 112191207</internalNodes>
          <leafValues>
            -7.5314688682556152e-01 4.7035235166549683e-01</leafValues></_></weakClassifiers></_>
    <!-- stage 9 -->
    <_>
      <maxWeakCount>5</maxWeakCount>
      <stageThreshold>-9.1186875104904175e-01</stageThreshold>
      <weakClassifiers>
        <_>
          <internalNodes>
            0 -1 42 -107180 2145352543 -142618641 -2105361 -71411593
            -202687847 -2162689 -21331969</internalNodes>
          <leafValues>
            -6.8201130628585815e-01 5.3866434097290039e-01</leafValues></_>
        <_>
          <internalNodes>
            0 -1 40 1024482813 -42174499 -4342273 -6351651 -1112494082
            -1074796354 -5320705 958926108</internalNodes>
          <leafValues>
            -7.5304061174392700e-01 4.0800482034683228e-01</leafValues></_>
        <_>
          <internalNodes>
            0 -1 5 -68485126 -6781638 -669846306 -1074351170 1404206591
            1039812862 1252731834 -4195409</internalNodes>
          <leafValues>
            -6.4547187089920044e-01 4.9949112534523010e-01</leafValues></_>
        <_>
          <internalNodes>
            0 -1 53 -319295737 -530219253 -1125393376 -622694849
            82113749 75489087 -722078603 -973864965</internalNodes>
          <leafValues>
            -5.5446988344192505e-01 6.2332206964492798e-01</leafValues></_>
        <_>
          <internalNodes>
            0 -1 21 1031323605 -78149739 -1367525377 527958053
            -132056804 -401273 -1074191219 -1157935373</internalNodes>
          <leafValues>
            -5.8288347721099854e-01 6.0443550348281860e-01</leafValues></_></weakClassifiers></_>
    <!-- stage 10 -->
    <_>
      <maxWeakCount>6</maxWeakCount>
      <stageThreshold>-1.5611084699630737e+00</stageThreshold>
      <weakClassifiers>
        <_>
          <internalNodes>
            0 -1 29 -193 -4385 -269553793 -268439553 -536871177
            -143130637 -1076109317 -268435457</internalNodes>
          <leafValues>
            -6.0763454437255859e-01 6.5231090784072876e-01</leafValues></_>
        <_>
          <internalNodes>
            0 -1 12 1940914158 -135277107 -206447636 -203439157
            -1193938449 2006765523 -185733013 -9329</internalNodes>
          <leafValues>
            -8.0498558282852173e-01 4.2124864459037781e-01</leafValues></_>
        <_>
          <internalNodes>
            0 -1 48 -685813225 1561567067 -550648806 -536942346
            -525635424 -306460510 -7881831 -17892161</internalNodes>
          <leafValues>
            -5.6422084569931030e-01 5.3424209356307983e-01</leafValues></_>
        <_>
          <internalNodes>
            0 -1 3 -287314113 -1709910030 -1470635909 -11288126
            1081566015 -294927733 553607893 -822613193</internalNodes>
          <leafValues>
            -5.5386584997177124e-01 5.7404232025146484e-01</leafValues></_>
        <_>
          <internalNodes>
            0 -1 64 -270010454 -1855954778 1618231434 1140806926
            1079148878 729090 -1878533509 1156047871</internalNodes>
          <leafValues>
            -6.9268977642059326e-01 4.7826388478279114e-01</leafValues></_>
        <_>
          <internalNodes>
            0 -1 73 1141370371 303033319 -8553729 -267081 -357569037
            -6322465 -503580310 -993598938</internalNodes>
          <leafValues>
            -6.3657373189926147e-01 5.1382708549499512e-01</leafValues></_></weakClassifiers></_>
    <!-- stage 11 -->
    <_>
      <maxWeakCount>6</maxWeakCount>
      <stageThreshold>-1.5734058618545532e+00</stageThreshold>
      <weakClassifiers>
        <_>
          <internalNodes>
            0 -1 34 1323190910 2146905047 -196609 -1080119305 -1442961
            -9192101 -918548 -8913969</internalNodes>
          <leafValues>
            -6.6871166229248047e-01 4.9506226181983948e-01</leafValues></_>
        <_>
          <internalNodes>
            0 -1 66 1843920679 1610594807 -318122659 1876895351
            -1180181571 -70531841 -22573189 -453513437</internalNodes>
          <leafValues>
            -5.8665031194686890e-01 5.1980876922607422e-01</leafValues></_>
        <_>
          <internalNodes>
            0 -1 27 386407804 -49699 -1218578497 -1076161123 -1343692818
            -7618580 -1416187905 -1633014636</internalNodes>
          <leafValues>
            -6.5895706415176392e-01 4.7576427459716797e-01</leafValues></_>
        <_>
          <internalNodes>
            0 -1 56 -521149718 1470600106 1080954378 -134241890
            1351088956 1348293013 1978649359 -184549409</internalNodes>
          <leafValues>
            -6.5218746662139893e-01 4.4862121343612671e-01</leafValues></_>
        <_>
          <internalNodes>
            0 -1 72 -144183513 588497699 -79610025 -9256601 -67129425
            925604279 -303051968 -709101577</internalNodes>
          <leafValues>
            -5.4828524589538574e-01 5.5158644914627075e-01</leafValues></_>
        <_>
          <internalNodes>
            0 -1 36 500701621 -1075162700 -70125601 -636931 -1146159105
            -67464819 -1967591745 -1413608264</internalNodes>
          <leafValues>
            -6.6588187217712402e-01 4.5463329553604126e-01</leafValues></_></weakClassifiers></_>
    <!-- stage 12 -->
    <_>
      <maxWeakCount>7</maxWeakCount>
      <stageThreshold>-1.0919154882431030e+00</stageThreshold>
      <weakClassifiers>
        <_>
          <internalNodes>
            0 -1 33 -68158529 -264459 -1431371777 -276827151 -340787287
            -1107296777 -1892679681 -2049</internalNodes>
          <leafValues>
            -5.4914653301239014e-01 6.8507635593414307e-01</leafValues></_>
        <_>
          <internalNodes>
            0 -1 6 -322681553 -183164017 -191799809 2112865183
            -1361350917 -108295140 -140300949 1693960487</internalNodes>
          <leafValues>
            -7.5510632991790771e-01 4.1166236996650696e-01</leafValues></_>
        <_>
          <internalNodes>
            0 -1 11 -463000049 2001730335 -174878570 -271005392
            -454431297 -134225782 -159136211 -252382249</internalNodes>
          <leafValues>
            -6.3601672649383545e-01 4.7355526685714722e-01</leafValues></_>
        <_>
          <internalNodes>
            0 -1 65 -185868797 1074252352 -55849407 -358170624 552242499
            -1009074923 -2069728223 -1510803585</internalNodes>
          <leafValues>
            -5.9714436531066895e-01 5.3068846464157104e-01</leafValues></_>
        <_>
          <internalNodes>
            0 -1 32 -872419446 -676566454 -973133470 -1778391874
            931140579 76556350 2074036794 1932523519</internalNodes>
          <leafValues>
            -6.7793732881546021e-01 4.6358680725097656e-01</leafValues></_>
        <_>
          <internalNodes>
            0 -1 13 -1413533825 -1369459207 -699934737 -285280851
            -117479041 -590743137 -429170799 -923526796</internalNodes>
          <leafValues>
            -6.7394942045211792e-01 4.7218069434165955e-01</leafValues></_>
        <_>
          <internalNodes>
            0 -1 31 -1444628227 -2977895 -24250977 998965540 -1602713124
            -542517094 111354043 -1615915849</internalNodes>
          <leafValues>
            -5.8154374361038208e-01 5.6101620197296143e-01</leafValues></_></weakClassifiers></_>
    <!-- stage 13 -->
    <_>
      <maxWeakCount>7</maxWeakCount>
      <stageThreshold>-1.2697496414184570e+00</stageThreshold>
      <weakClassifiers>
        <_>
          <internalNodes>
            0 -1 48 -146844833 -548160681 -12627681 -39917436 -525651795
            -302777982 -116704102 -54798173</internalNodes>
          <leafValues>
            -6.0786843299865723e-01 5.9279638528823853e-01</leafValues></_>
        <_>
          <internalNodes>
            0 -1 30 106841887 115284927 -57216131 674296538 -1399221899
            -270540286 -55641478 -268439694</internalNodes>
          <leafValues>
            -6.8668699264526367e-01 4.2456707358360291e-01</leafValues></_>
        <_>
          <internalNodes>
            0 -1 57 -20063532 529859861 1493520476 1002472400
            -1165976840 -1182169045 -779583284 -2144036</internalNodes>
          <leafValues>
            -6.3745528459548950e-01 4.5925015211105347e-01</leafValues></_>
        <_>
          <internalNodes>
            0 -1 61 -227286038 286512195 -551188262 -211308817
            1104753792 281223594 1188604075 2097146239</internalNodes>
          <leafValues>
            -7.2841060161590576e-01 4.1059482097625732e-01</leafValues></_>
        <_>
          <internalNodes>
            0 -1 71 -1605077643 -1324782631 -1843207713 -348931425
            -607268866 -1656616337 -1064564289 -1461699280</internalNodes>
          <leafValues>
            -7.0172560214996338e-01 4.2298418283462524e-01</leafValues></_>
        <_>
          <internalNodes>
            0 -1 63 -139472017 -1249909203 -1536696315 1657708303
            -1796411798 1152417760 -755536133 -136849409</internalNodes>
          <leafValues>
            -5.3980028629302979e-01 6.6254818439483643e-01</leafValues></_>
        <_>
          <internalNodes>
            0 -1 37 -685513776 -1661629230 1360903895 1559455754
            883150067 -787316728 587287313 333404795</internalNodes>
          <leafValues>
            -7.2822308540344238e-01 4.8724702000617981e-01</leafValues></_></weakClassifiers></_>
    <!-- stage 14 -->
    <_>
      <maxWeakCount>6</maxWeakCount>
      <stageThreshold>-1.1811127662658691e+00</stageThreshold>
      <weakClassifiers>
        <_>
          <internalNodes>
            0 -1 43 -42515593 275886866 -779796321 -737442806 -536665382
            -937863806 -234691222 -807477709</internalNodes>
          <leafValues>
            -6.3324707746505737e-01 6.2649405002593994e-01</leafValues></_>
        <_>
          <internalNodes>
            0 -1 74 -244350176 85038390 -2137570047 -581776624
            -1597906405 -1557925685 -354178940 -962901581</internalNodes>
          <leafValues>
            -6.6447913646697998e-01 4.9480170011520386e-01</leafValues></_>
        <_>
          <internalNodes>
            0 -1 58 -16786261 -1615934106 -1565887942 581091491
            351984307 612130655 -1161895790 -520628106</internalNodes>
          <leafValues>
            -5.3719156980514526e-01 6.8101906776428223e-01</leafValues></_>
        <_>
          <internalNodes>
            0 -1 20 798962486 -1538133093 -2076671613 174778642
            146303559 -60954623 -108518255 -522937007</internalNodes>
          <leafValues>
            -6.6928690671920776e-01 5.1564884185791016e-01</leafValues></_>
        <_>
          <internalNodes>
            0 -1 50 -287329373 33301 704808224 -1073348602 1073870225
            268697602 -1073233663 -1047540981</internalNodes>
          <leafValues>
            -5.1043146848678589e-01 7.2759860754013062e-01</leafValues></_>
        <_>
          <internalNodes>
            0 -1 68 -1040720069 -1566163060 -1364476376 -1892750422
            -1980611279 1149106971 472040789 -436999385</internalNodes>
          <leafValues>
            -5.1069313287734985e-01 7.4493247270584106e-01</leafValues></_></weakClassifiers></_></stages>
  <features>
    <_>
      <rect>
        0 2 4 3</rect></_>
    <_>
      <rect>
        0 6 2 2</rect></_>
    <_>
      <rect>
        0 6 7 6</rect></_>
    <_>
      <rect>
        0 8 3 6</rect></_>
    <_>
      <rect>
        0 8 6 5</rect></_>
    <_>
      <rect>
        0 12 7 6</rect></_>
    <_>
      <rect>
        1 1 5 4</rect></_>
    <_>
      <rect>
        2 10 3 4</rect></_>
    <_>
      <rect>
        4 0 14 5</rect></_>
    <_>
      <rect>
        4 13 8 1</rect></_>
    <_>
      <rect>
        5 1 5 4</rect></_>
    <_>
      <rect>
        5 8 3 5</rect></_>
    <_>
      <rect>
        6 5 13 3</rect></_>
    <_>
      <rect>
        6 6 2 2</rect></_>
    <_>
      <rect>
        6 7 13 3</rect></_>
    <_>
      <rect>
        7 0 2 2</rect></_>
    <_>
      <rect>
        7 5 5 3</rect></_>
    <_>
      <rect>
        7 8 5 2</rect></_>
    <_>
      <rect>
        8 6 4 4</rect></_>
    <_>
      <rect>
        8 6 12 8</rect></_>
    <_>
      <rect>
        8 7 2 2</rect></_>
    <_>
      <rect>
        8 12 7 2</rect></_>
    <_>
      <rect>
        8 13 8 1</rect></_>
    <_>
      <rect>
        8 14 8 1</rect></_>
    <_>
      <rect>
        8 24 11 1</rect></_>
    <_>
      <rect>
        9 6 4 4</rect></_>
    <_>
      <rect>
        9 7 3 4</rect></_>
    <_>
      <rect>
        9 14 8 1</rect></_>
    <_>
      <rect>
        10 6 4 2</rect></_>
    <_>
      <rect>
        10 8 3 2</rect></_>
    <_>
      <rect>
        10 12 2 1</rect></_>
    <_>
      <rect>
        11 12 7 2</rect></_>
    <_>
      <rect>
        11 16 2 3</rect></_>
    <_>
      <rect>
        12 7 3 3</rect></_>
    <_>
      <rect>
        12 11 2 1</rect></_>
    <_>
      <rect>
        12 13 8 2</rect></_>
    <_>
      <rect>
        13 26 3 1</rect></_>
    <_>
      <rect>
        14 5 3 2</rect></_>
    <_>
      <rect>
        14 12 10 1</rect></_>
    <_>
      <rect>
        14 13 8 1</rect></_>
    <_>
      <rect>
        15 25 5 1</rect></_>
    <_>
      <rect>
        16 3 2 6</rect></_>
    <_>
      <rect>
        16 8 1 1</rect></_>
    <_>
      <rect>
        16 8 3 2</rect></_>
    <_>
      <rect>
        16 9 3 2</rect></_>
    <_>
      <rect>
        16 14 8 1</rect></_>
    <_>
      <rect>
        16 25 5 1</rect></_>
    <_>
      <rect>
        17 4 2 7</rect></_>
    <_>
      <rect>
        17 8 3 2</rect></_>
    <_>
      <rect>
        18 3 2 7</rect></_>
    <_>
      <rect>
        18 6 1 6</rect></_>
    <_>
      <rect>
        18 10 1 4</rect></_>
    <_>
      <rect>
        18 10 2 1</rect></_>
    <_>
      <rect>
        19 6 1 6</rect></_>
    <_>
      <rect>
        19 15 2 3</rect></_>
    <_>
      <rect>
        20 5 2 6</rect></_>
    <_>
      <rect>
        20 5 2 7</rect></_>
    <_>
      <rect>
        20 18 10 4</rect></_>
    <_>
      <rect>
        21 10 1 3</rect></_>
    <_>
      <rect>
        22 6 2 5</rect></_>
    <_>
      <rect>
        22 7 2 6</rect></_>
    <_>
      <rect>
        24 6 2 4</rect></_>
    <_>
      <rect>
        24 6 2 6</rect></_>
    <_>
      <rect>
        24 7 2 6</rect></_>
    <_>
      <rect>
        25 7 2 6</rect></_>
    <_>
      <rect>
        25 9 1 4</rect></_>
    <_>
      <rect>
        29 1 6 4</rect></_>
    <_>
      <rect>
        29 5 7 6</rect></_>
    <_>
      <rect>
        29 6 1 6</rect></_>
    <_>
      <rect>
        30 10 4 4</rect></_>
    <_>
      <rect>
        34 1 3 2</rect></_>
    <_>
      <rect>
        37 2 2 2</rect></_>
    <_>
      <rect>
        37 8 4 5</rect></_>
    <_>
      <rect>
        38 10 2 4</rect></_>
    <_>
      <rect>
        38 11 4 3</rect></_>
    <_>
      <rect>
        41 6 3 6</rect></_></features></cascade>
</opencv_storage>
