<?xml version="1.0"?>
<opencv_storage>
<cascade>
  <stageType>BOOST</stageType>
  <featureType>LBP</featureType>
  <height>15</height>
  <width>45</width>
  <stageParams>
    <boostType>GAB</boostType>
    <minHitRate>9.9900001287460327e-01</minHitRate>
    <maxFalseAlarm>5.0000000000000000e-01</maxFalseAlarm>
    <weightTrimRate>9.4999999999999996e-01</weightTrimRate>
    <maxDepth>1</maxDepth>
    <maxWeakCount>100</maxWeakCount></stageParams>
  <featureParams>
    <maxCatCount>256</maxCatCount>
    <featSize>1</featSize></featureParams>
  <stageNum>12</stageNum>
  <stages>
    <!-- stage 0 -->
    <_>
      <maxWeakCount>3</maxWeakCount>
      <stageThreshold>-9.7556960582733154e-01</stageThreshold>
      <weakClassifiers>
        <_>
          <internalNodes>
            0 -1 16 1431361788 -33729320 2063719935 -1076296688
            -106910721 -1114110824 -1702822917 168296456</internalNodes>
          <leafValues>
            -8.4089100360870361e-01 5.6366342306137085e-01</leafValues></_>
        <_>
          <internalNodes>
            0 -1 20 1372082388 -576896827 428400095 498794527 -373102402
            -37551953 537058223 197068059</internalNodes>
          <leafValues>
            -7.9677951335906982e-01 5.4400408267974854e-01</leafValues></_>
        <_>
          <internalNodes>
            0 -1 33 -12788227 -706765319 -1145021475 -1076161584
            -350420993 -4226311 -1718985729 -1145562696</internalNodes>
          <leafValues>
            -6.5380054712295532e-01 6.6210091114044189e-01</leafValues></_></weakClassifiers></_>
    <!-- stage 1 -->
    <_>
      <maxWeakCount>5</maxWeakCount>
      <stageThreshold>-9.4053679704666138e-01</stageThreshold>
      <weakClassifiers>
        <_>
          <internalNodes>
            0 -1 1 -993006866 -656686369 -872168370 -823666081
            1076084772 1347403935 1181204519 -402654113</internalNodes>
          <leafValues>
            -7.6023828983306885e-01 5.7358789443969727e-01</leafValues></_>
        <_>
          <internalNodes>
            0 -1 23 -1719626468 -34254775 85024255 500760981 -1343569921
            -4650581 466325183 804989499</internalNodes>
          <leafValues>
            -6.7155724763870239e-01 5.6022912263870239e-01</leafValues></_>
        <_>
          <internalNodes>
            0 -1 3 -1048793 -529543553 -286335038 -487587841 -403177723
            1450702711 -268440064 -184549897</internalNodes>
          <leafValues>
            -5.3926521539688110e-01 7.1407049894332886e-01</leafValues></_>
        <_>
          <internalNodes>
            0 -1 39 -49488936 -43478567 -708799080 530530637 -540754040
            -1197614645 -1953784280 1072638618</internalNodes>
          <leafValues>
            -6.9269013404846191e-01 5.8125412464141846e-01</leafValues></_>
        <_>
          <internalNodes>
            0 -1 35 1007713500 -1824556587 -116220003 -4954211
            -1148522498 -422566 -1632072769 -1934881348</internalNodes>
          <leafValues>
            -7.6190799474716187e-01 5.2532345056533813e-01</leafValues></_></weakClassifiers></_>
    <!-- stage 2 -->
    <_>
      <maxWeakCount>6</maxWeakCount>
      <stageThreshold>-1.6615701913833618e+00</stageThreshold>
      <weakClassifiers>
        <_>
          <internalNodes>
            0 -1 8 -492319601 -201338945 -2561 -134746129 -419434753
            -16781377 -33558529 -990395353</internalNodes>
          <leafValues>
            -5.7251441478729248e-01 6.7137622833251953e-01</leafValues></_>
        <_>
          <internalNodes>
            0 -1 24 -276499800 -1866420012 1237353884 -1916260612
            -72846358 896532954 1804429247 -5272321</internalNodes>
          <leafValues>
            -7.1045178174972534e-01 4.8682048916816711e-01</leafValues></_>
        <_>
          <internalNodes>
            0 -1 50 -1155736067 -671744035 -3680289 -500897 -40043527
            -2127883 -1950695489 -1347940932</internalNodes>
          <leafValues>
            -6.5762513875961304e-01 5.1906156539916992e-01</leafValues></_>
        <_>
          <internalNodes>
            0 -1 68 -1033376256 -171712217 -594552321 1743252303
            -433065035 -92803909 -482088657 1080295203</internalNodes>
          <leafValues>
            -6.9052153825759888e-01 5.0942140817642212e-01</leafValues></_>
        <_>
          <internalNodes>
            0 -1 32 -712997672 -542030440 931155069 535758042
            -1465869910 -256173384 19106351 469705883</internalNodes>
          <leafValues>
            -7.1822005510330200e-01 4.8752349615097046e-01</leafValues></_>
        <_>
          <internalNodes>
            0 -1 2 -269488373 -1363167329 -50338298 -353702997
            2008511847 1651992943 -607914476 -252193802</internalNodes>
          <leafValues>
            -6.9466745853424072e-01 5.0431734323501587e-01</leafValues></_></weakClassifiers></_>
    <!-- stage 3 -->
    <_>
      <maxWeakCount>6</maxWeakCount>
      <stageThreshold>-1.6108554601669312e+00</stageThreshold>
      <weakClassifiers>
        <_>
          <internalNodes>
            0 -1 54 1398264576 2071454978 -781586569 -4734625 -73400853
            -287325285 -368312401 -352338021</internalNodes>
          <leafValues>
            -6.5339910984039307e-01 5.3155440092086792e-01</leafValues></_>
        <_>
          <internalNodes>
            0 -1 43 -1082630147 -1076346881 -207652993 -4620291
            -1426128899 -6579713 -1082474755 -1073981252</internalNodes>
          <leafValues>
            -6.8965810537338257e-01 5.1456606388092041e-01</leafValues></_>
        <_>
          <internalNodes>
            0 -1 73 -301994225 -2097164825 -36702046 -423690786
            -69505193 1367079723 -21039295 -453574665</internalNodes>
          <leafValues>
            -5.9970265626907349e-01 5.5567604303359985e-01</leafValues></_>
        <_>
          <internalNodes>
            0 -1 66 -966265022 -525408525 -1169757376 -285279382
            -151559337 1694483441 -269228217 -403178633</internalNodes>
          <leafValues>
            -5.6454372406005859e-01 5.9029006958007812e-01</leafValues></_>
        <_>
          <internalNodes>
            0 -1 22 1347422232 -49187112 758100443 -10351716 -893727010
            -4666136 690490367 252315660</internalNodes>
          <leafValues>
            -7.7305603027343750e-01 4.9617528915405273e-01</leafValues></_>
        <_>
          <internalNodes>
            0 -1 9 -338690133 -825033617 -823198006 -285355038
            1945492245 1723650951 1734604645 -422070281</internalNodes>
          <leafValues>
            -6.6457325220108032e-01 4.6528005599975586e-01</leafValues></_></weakClassifiers></_>
    <!-- stage 4 -->
    <_>
      <maxWeakCount>6</maxWeakCount>
      <stageThreshold>-8.9764958620071411e-01</stageThreshold>
      <weakClassifiers>
        <_>
          <internalNodes>
            0 -1 17 201332956 -539672336 1062699007 1597706611
            -1960269062 -12612903 -1346651137 1060650239</internalNodes>
          <leafValues>
            -8.1291550397872925e-01 3.5940530896186829e-01</leafValues></_>
        <_>
          <internalNodes>
            0 -1 5 -1048913 -520171045 -949827382 -420288290 -209980601
            1179738967 -408424892 1148713959</internalNodes>
          <leafValues>
            -7.5906646251678467e-01 4.0281888842582703e-01</leafValues></_>
        <_>
          <internalNodes>
            0 -1 47 -642195976 -7005988 -38216323 2105283005 999604222
            -1073802568 -1893139462 799541256</internalNodes>
          <leafValues>
            -7.9841667413711548e-01 3.8104674220085144e-01</leafValues></_>
        <_>
          <internalNodes>
            0 -1 28 -13051393 -114076488 -1788944385 427506105 -80740359
            -1079527238 -1659347457 -1364718420</internalNodes>
          <leafValues>
            -6.1832481622695923e-01 4.9360412359237671e-01</leafValues></_>
        <_>
          <internalNodes>
            0 -1 25 -268379692 290480213 1615047547 25101339 -1300062038
            -1694383949 33795499 736570923</internalNodes>
          <leafValues>
            -7.2046154737472534e-01 4.2150485515594482e-01</leafValues></_>
        <_>
          <internalNodes>
            0 -1 64 -456145914 -957422872 -895303168 -1515330351
            1386725683 1151591075 -1805401017 -503846089</internalNodes>
          <leafValues>
            -5.7845479249954224e-01 5.3772109746932983e-01</leafValues></_></weakClassifiers></_>
    <!-- stage 5 -->
    <_>
      <maxWeakCount>7</maxWeakCount>
      <stageThreshold>-9.0727227926254272e-01</stageThreshold>
      <weakClassifiers>
        <_>
          <internalNodes>
            0 -1 69 -403439869 -1575081 -16777345 -286785689 -5 -4105
            -201855037 -521668829</internalNodes>
          <leafValues>
            -5.2941179275512695e-01 5.9249609708786011e-01</leafValues></_>
        <_>
          <internalNodes>
            0 -1 14 -541392902 -1223653478 -1735616610 -1073990850
            -1294679617 -1079907947 2077317887 -139265</internalNodes>
          <leafValues>
            -5.6814622879028320e-01 4.9757310748100281e-01</leafValues></_>
        <_>
          <internalNodes>
            0 -1 4 -1054937 -1460801633 -45102354 -356605249 2130444115
            1735583263 -1051068 -453511429</internalNodes>
          <leafValues>
            -5.6723302602767944e-01 5.1052433252334595e-01</leafValues></_>
        <_>
          <internalNodes>
            0 -1 53 352326928 -5038644 -1621942915 -134260387
            -1389650951 -1409553349 -1220952593 1035480369</internalNodes>
          <leafValues>
            -8.2610267400741577e-01 3.4992608428001404e-01</leafValues></_>
        <_>
          <internalNodes>
            0 -1 46 -8388609 2012774396 -1073980420 1073397756
            2138849276 1056227325 -1073856580 -1</internalNodes>
          <leafValues>
            -4.4353780150413513e-01 6.7576146125793457e-01</leafValues></_>
        <_>
          <internalNodes>
            0 -1 34 -1073496062 1391446927 -504114185 1989125055
            1701820923 -409214741 -773327937 -2141215837</internalNodes>
          <leafValues>
            -6.0278677940368652e-01 5.0166779756546021e-01</leafValues></_>
        <_>
          <internalNodes>
            0 -1 70 -268439797 653744471 -461636318 -354754274
            2085571140 1196813747 -306743452 -520949904</internalNodes>
          <leafValues>
            -6.1798530817031860e-01 4.7498986124992371e-01</leafValues></_></weakClassifiers></_>
    <!-- stage 6 -->
    <_>
      <maxWeakCount>7</maxWeakCount>
      <stageThreshold>-1.0893380641937256e+00</stageThreshold>
      <weakClassifiers>
        <_>
          <internalNodes>
            0 -1 31 -1342431235 -536922117 -5243425 -272427 -2572561
            -9797 -266245 -1078436312</internalNodes>
          <leafValues>
            -6.7148596048355103e-01 3.9557194709777832e-01</leafValues></_>
        <_>
          <internalNodes>
            0 -1 36 1110435586 2136187430 1350620423 -213132901
            -1308626501 -336079937 1925966079 -201326657</internalNodes>
          <leafValues>
            -5.9273135662078857e-01 4.5413532853126526e-01</leafValues></_>
        <_>
          <internalNodes>
            0 -1 27 -1118145027 -131203 -76029953 -2335527 -86180929
            -69547521 -1098336257 -1095234051</internalNodes>
          <leafValues>
            -5.7810688018798828e-01 4.6629455685615540e-01</leafValues></_>
        <_>
          <internalNodes>
            0 -1 74 -813697297 -1427378177 -1052696 -520425730 -32769
            -940048394 -536871002 -184615049</internalNodes>
          <leafValues>
            -4.6692988276481628e-01 5.6907463073730469e-01</leafValues></_>
        <_>
          <internalNodes>
            0 -1 45 -532492786 -1042097262 1756028104 -2104764338
            -19139379 31879273 2042363667 1207944951</internalNodes>
          <leafValues>
            -6.7177855968475342e-01 4.3226280808448792e-01</leafValues></_>
        <_>
          <internalNodes>
            0 -1 57 -1058019762 -777847822 -359928056 -352845953
            1987518887 1424860113 1678495438 -437258377</internalNodes>
          <leafValues>
            -5.5840009450912476e-01 4.7499218583106995e-01</leafValues></_>
        <_>
          <internalNodes>
            0 -1 21 -1130561572 -1110355727 -510388237 -1089378019
            -1443311938 -1154159158 464002715 194513145</internalNodes>
          <leafValues>
            -6.7717790603637695e-01 4.3779170513153076e-01</leafValues></_></weakClassifiers></_>
    <!-- stage 7 -->
    <_>
      <maxWeakCount>7</maxWeakCount>
      <stageThreshold>-9.6175241470336914e-01</stageThreshold>
      <weakClassifiers>
        <_>
          <internalNodes>
            0 -1 65 -823138489 -4097 -1 -129 -805306385 -1 -51380257
            -488116477</internalNodes>
          <leafValues>
            -4.6742209792137146e-01 6.2874251604080200e-01</leafValues></_>
        <_>
          <internalNodes>
            0 -1 62 1060904957 -4302889 -1148239873 -36131 -1077116995
            -17583171 -1141307911 -1380434656</internalNodes>
          <leafValues>
            -6.7547297477722168e-01 3.9861714839935303e-01</leafValues></_>
        <_>
          <internalNodes>
            0 -1 29 -17373762 1425406929 -1150641698 -1073826978
            1939134975 1944189391 -100997442 -257</internalNodes>
          <leafValues>
            -5.2027976512908936e-01 5.0931698083877563e-01</leafValues></_>
        <_>
          <internalNodes>
            0 -1 51 -1087348867 -65579 -134484001 -1078048261 -315819009
            -17959 -1140932611 -1345845827</internalNodes>
          <leafValues>
            -6.0376805067062378e-01 4.2033937573432922e-01</leafValues></_>
        <_>
          <internalNodes>
            0 -1 59 -67109190 2050459346 -720015088 1001781821
            -726686704 -2146384376 -318117064 -109052045</internalNodes>
          <leafValues>
            -5.3360885381698608e-01 5.0854086875915527e-01</leafValues></_>
        <_>
          <internalNodes>
            0 -1 12 -990916094 -57287777 1167577309 2073286279
            -1761610769 -72755047 1408717311 -492317789</internalNodes>
          <leafValues>
            -5.4778498411178589e-01 4.8222953081130981e-01</leafValues></_>
        <_>
          <internalNodes>
            0 -1 30 -1652531984 -705015666 -132526625 1295320287
            -1696436741 -88379825 857394047 733678251</internalNodes>
          <leafValues>
            -7.0926958322525024e-01 3.7190982699394226e-01</leafValues></_></weakClassifiers></_>
    <!-- stage 8 -->
    <_>
      <maxWeakCount>7</maxWeakCount>
      <stageThreshold>-1.1590378284454346e+00</stageThreshold>
      <weakClassifiers>
        <_>
          <internalNodes>
            0 -1 67 -269488250 -834738466 -53485788 -1402549677
            2003260276 278311743 -538216587 1979709303</internalNodes>
          <leafValues>
            -6.9857990741729736e-01 3.0659595131874084e-01</leafValues></_>
        <_>
          <internalNodes>
            0 -1 7 -308346913 -170246180 -1785430177 -1112014344
            1454660077 2133350392 -26834002 -1088258189</internalNodes>
          <leafValues>
            -5.4879397153854370e-01 4.6086975932121277e-01</leafValues></_>
        <_>
          <internalNodes>
            0 -1 38 -4182 42910702 1748397696 916454630 1976914884
            1708254391 -136096202 -168296459</internalNodes>
          <leafValues>
            -5.5346053838729858e-01 4.5732620358467102e-01</leafValues></_>
        <_>
          <internalNodes>
            0 -1 72 -276824213 -1025351666 -1424762104 -859514154
            1496050613 820111879 -637799739 -520689676</internalNodes>
          <leafValues>
            -5.3520667552947998e-01 5.1544713973999023e-01</leafValues></_>
        <_>
          <internalNodes>
            0 -1 52 1031804372 -67829257 -1653604903 -1076027503
            -1079838789 -21423745 710392255 -1414976530</internalNodes>
          <leafValues>
            -6.4450418949127197e-01 4.0318033099174500e-01</leafValues></_>
        <_>
          <internalNodes>
            0 -1 42 -1003492861 -103943785 -1852337265 -7341361
            -1365257297 -770993193 -909647937 1612177923</internalNodes>
          <leafValues>
            -5.6657099723815918e-01 4.4010931253433228e-01</leafValues></_>
        <_>
          <internalNodes>
            0 -1 40 127931773 -1620167660 -6613537 -1086573691
            -1853173313 -67645989 -1181159681 -1884148955</internalNodes>
          <leafValues>
            -6.3344156742095947e-01 4.2908012866973877e-01</leafValues></_></weakClassifiers></_>
    <!-- stage 9 -->
    <_>
      <maxWeakCount>7</maxWeakCount>
      <stageThreshold>-1.8666361570358276e+00</stageThreshold>
      <weakClassifiers>
        <_>
          <internalNodes>
            0 -1 49 -8388609 965783884 -1073823748 -1141334018
            1260654044 1062490927 -1073790980 -1</internalNodes>
          <leafValues>
            -4.7952520847320557e-01 5.5519127845764160e-01</leafValues></_>
        <_>
          <internalNodes>
            0 -1 19 1073501661 -1076223875 -106955809 -543774311
            -811008065 -14956121 -10950931 -1346880003</internalNodes>
          <leafValues>
            -6.4305806159973145e-01 4.1209051012992859e-01</leafValues></_>
        <_>
          <internalNodes>
            0 -1 13 -536884658 -19401481 -974467858 -285283617
            -972102778 1347809421 1332137038 -151523329</internalNodes>
          <leafValues>
            -5.6973189115524292e-01 4.3358337879180908e-01</leafValues></_>
        <_>
          <internalNodes>
            0 -1 41 -403702774 72142319 -89464408 -222392690 1639010944
            938973641 -1292227980 -189267977</internalNodes>
          <leafValues>
            -5.3871428966522217e-01 4.4293269515037537e-01</leafValues></_>
        <_>
          <internalNodes>
            0 -1 0 -869486610 -572420107 -35595297 -1651635235
            1699112871 -52739011 -74030153 1200048119</internalNodes>
          <leafValues>
            -6.0941165685653687e-01 4.2130577564239502e-01</leafValues></_>
        <_>
          <internalNodes>
            0 -1 60 -152043998 -1515457028 -1249391274 -2117161412
            1140409517 1085924919 -1090898635 -437004297</internalNodes>
          <leafValues>
            -5.3053265810012817e-01 4.7618252038955688e-01</leafValues></_>
        <_>
          <internalNodes>
            0 -1 15 -678364008 -539649575 633388505 -1611029547
            -341001218 185821659 959097018 -1081605976</internalNodes>
          <leafValues>
            -5.5752617120742798e-01 4.6519958972930908e-01</leafValues></_></weakClassifiers></_>
    <!-- stage 10 -->
    <_>
      <maxWeakCount>7</maxWeakCount>
      <stageThreshold>-1.0590767860412598e+00</stageThreshold>
      <weakClassifiers>
        <_>
          <internalNodes>
            0 -1 63 -529545726 -15473 -407640065 -2622761 -303562881
            -725114157 -4194337 -499653113</internalNodes>
          <leafValues>
            -5.3888505697250366e-01 4.2109853029251099e-01</leafValues></_>
        <_>
          <internalNodes>
            0 -1 11 -100667393 -1370454018 -902133732 -1410156806
            1827623807 1232357391 -610194610 1864883775</internalNodes>
          <leafValues>
            -5.3035551309585571e-01 4.3594834208488464e-01</leafValues></_>
        <_>
          <internalNodes>
            0 -1 58 -65799661 -2140323 -527606209 -142874831 1656381119
            -36386141 1589672509 3634967</internalNodes>
          <leafValues>
            -5.7315498590469360e-01 4.0381926298141479e-01</leafValues></_>
        <_>
          <internalNodes>
            0 -1 71 -268441809 578779775 2030032354 -520291858
            -136399067 134193783 -269484080 -520683564</internalNodes>
          <leafValues>
            -5.6705558300018311e-01 4.3258452415466309e-01</leafValues></_>
        <_>
          <internalNodes>
            0 -1 37 -134479874 467438382 -376917772 -7044950 1322517196
            971557216 1004323036 -131073</internalNodes>
          <leafValues>
            -5.1161384582519531e-01 4.8011541366577148e-01</leafValues></_>
        <_>
          <internalNodes>
            0 -1 18 2145131928 2140624287 1408326111 -1619064328
            -376773190 2139867822 990104506 707461131</internalNodes>
          <leafValues>
            -6.0174733400344849e-01 4.0889111161231995e-01</leafValues></_>
        <_>
          <internalNodes>
            0 -1 55 -374344218 -252165272 -2083813340 -1371749060
            336925172 540075459 -1817885180 1722540391</internalNodes>
          <leafValues>
            -6.3952612876892090e-01 3.9679345488548279e-01</leafValues></_></weakClassifiers></_>
    <!-- stage 11 -->
    <_>
      <maxWeakCount>7</maxWeakCount>
      <stageThreshold>-1.2205598354339600e+00</stageThreshold>
      <weakClassifiers>
        <_>
          <internalNodes>
            0 -1 44 -2138569220 -1073787408 -8353 -1241761 -1098989569
            -269333 -1081361409 -1078064197</internalNodes>
          <leafValues>
            -6.4017468690872192e-01 2.9759448766708374e-01</leafValues></_>
        <_>
          <internalNodes>
            0 -1 6 -465 -1225021441 -1359722774 -83892497 -18090425
            1182235511 -172507292 -185272328</internalNodes>
          <leafValues>
            -5.3620564937591553e-01 3.9406487345695496e-01</leafValues></_>
        <_>
          <internalNodes>
            0 -1 48 -458234105 -1048641 -33558529 -8388737 -268435457 -1
            -1879050257 -995956957</internalNodes>
          <leafValues>
            -4.1352000832557678e-01 5.3383439779281616e-01</leafValues></_>
        <_>
          <internalNodes>
            0 -1 56 -16898 -1082121284 -1074207168 -1188240292
            -1801946132 1410429495 1446854644 1979580415</internalNodes>
          <leafValues>
            -6.1140692234039307e-01 3.7666633725166321e-01</leafValues></_>
        <_>
          <internalNodes>
            0 -1 10 -1922896774 -605385386 1326894566 -1421984780
            -1013548815 -347440123 1668488127 1610576895</internalNodes>
          <leafValues>
            -6.3933324813842773e-01 3.4973329305648804e-01</leafValues></_>
        <_>
          <internalNodes>
            0 -1 26 -31433352 2138263953 -109578411 -546499187
            -1427309572 -37809445 1838025535 804915343</internalNodes>
          <leafValues>
            -6.1480343341827393e-01 3.3892083168029785e-01</leafValues></_>
        <_>
          <internalNodes>
            0 -1 61 -1050714814 -1175202420 -2142974706 -1213948972
            1991571340 1999685023 -209455576 2003304439</internalNodes>
          <leafValues>
            -6.3817727565765381e-01 3.7425693869590759e-01</leafValues></_></weakClassifiers></_></stages>
  <features>
    <_>
      <rect>
        0 2 3 1</rect></_>
    <_>
      <rect>
        0 3 3 2</rect></_>
    <_>
      <rect>
        0 4 1 1</rect></_>
    <_>
      <rect>
        0 4 1 2</rect></_>
    <_>
      <rect>
        0 5 1 1</rect></_>
    <_>
      <rect>
        0 5 2 2</rect></_>
    <_>
      <rect>
        0 6 1 1</rect></_>
    <_>
      <rect>
        0 9 2 2</rect></_>
    <_>
      <rect>
        1 0 2 3</rect></_>
    <_>
      <rect>
        1 4 1 1</rect></_>
    <_>
      <rect>
        1 6 4 2</rect></_>
    <_>
      <rect>
        1 7 2 2</rect></_>
    <_>
      <rect>
        2 2 2 2</rect></_>
    <_>
      <rect>
        2 4 2 2</rect></_>
    <_>
      <rect>
        2 6 5 2</rect></_>
    <_>
      <rect>
        2 8 14 1</rect></_>
    <_>
      <rect>
        2 9 12 1</rect></_>
    <_>
      <rect>
        3 3 12 1</rect></_>
    <_>
      <rect>
        3 9 14 1</rect></_>
    <_>
      <rect>
        4 0 1 1</rect></_>
    <_>
      <rect>
        4 4 11 1</rect></_>
    <_>
      <rect>
        4 8 10 1</rect></_>
    <_>
      <rect>
        4 10 12 1</rect></_>
    <_>
      <rect>
        5 3 13 1</rect></_>
    <_>
      <rect>
        5 5 2 2</rect></_>
    <_>
      <rect>
        5 5 11 1</rect></_>
    <_>
      <rect>
        5 10 7 1</rect></_>
    <_>
      <rect>
        6 0 2 1</rect></_>
    <_>
      <rect>
        6 1 8 1</rect></_>
    <_>
      <rect>
        6 4 1 3</rect></_>
    <_>
      <rect>
        6 4 11 1</rect></_>
    <_>
      <rect>
        6 11 2 1</rect></_>
    <_>
      <rect>
        8 4 11 1</rect></_>
    <_>
      <rect>
        9 1 6 1</rect></_>
    <_>
      <rect>
        9 2 2 2</rect></_>
    <_>
      <rect>
        9 10 4 1</rect></_>
    <_>
      <rect>
        11 3 11 2</rect></_>
    <_>
      <rect>
        11 5 1 3</rect></_>
    <_>
      <rect>
        12 7 1 1</rect></_>
    <_>
      <rect>
        12 8 11 1</rect></_>
    <_>
      <rect>
        12 11 3 1</rect></_>
    <_>
      <rect>
        13 7 1 1</rect></_>
    <_>
      <rect>
        14 0 1 3</rect></_>
    <_>
      <rect>
        15 0 2 1</rect></_>
    <_>
      <rect>
        15 3 5 1</rect></_>
    <_>
      <rect>
        16 4 2 2</rect></_>
    <_>
      <rect>
        16 6 1 3</rect></_>
    <_>
      <rect>
        16 9 8 1</rect></_>
    <_>
      <rect>
        17 0 1 3</rect></_>
    <_>
      <rect>
        17 6 1 3</rect></_>
    <_>
      <rect>
        18 1 2 1</rect></_>
    <_>
      <rect>
        19 1 2 1</rect></_>
    <_>
      <rect>
        19 3 6 1</rect></_>
    <_>
      <rect>
        20 3 7 1</rect></_>
    <_>
      <rect>
        20 3 8 2</rect></_>
    <_>
      <rect>
        25 5 1 2</rect></_>
    <_>
      <rect>
        26 6 1 2</rect></_>
    <_>
      <rect>
        29 4 1 2</rect></_>
    <_>
      <rect>
        30 0 5 3</rect></_>
    <_>
      <rect>
        30 6 5 2</rect></_>
    <_>
      <rect>
        31 5 1 2</rect></_>
    <_>
      <rect>
        32 5 2 2</rect></_>
    <_>
      <rect>
        33 11 2 1</rect></_>
    <_>
      <rect>
        34 2 1 2</rect></_>
    <_>
      <rect>
        34 4 1 2</rect></_>
    <_>
      <rect>
        35 0 1 3</rect></_>
    <_>
      <rect>
        35 4 1 2</rect></_>
    <_>
      <rect>
        35 5 1 2</rect></_>
    <_>
      <rect>
        38 1 2 3</rect></_>
    <_>
      <rect>
        39 0 2 3</rect></_>
    <_>
      <rect>
        42 3 1 1</rect></_>
    <_>
      <rect>
        42 4 1 1</rect></_>
    <_>
      <rect>
        42 4 1 2</rect></_>
    <_>
      <rect>
        42 5 1 1</rect></_>
    <_>
      <rect>
        42 6 1 1</rect></_></features></cascade>
</opencv_storage>
