<?xml version="1.0"?>
<opencv_storage>
<cascade>
  <stageType>BOOST</stageType>
  <featureType>LBP</featureType>
  <height>14</height>
  <width>49</width>
  <stageParams>
    <boostType>GAB</boostType>
    <minHitRate>9.9900001287460327e-01</minHitRate>
    <maxFalseAlarm>5.0000000000000000e-01</maxFalseAlarm>
    <weightTrimRate>9.4999999999999996e-01</weightTrimRate>
    <maxDepth>1</maxDepth>
    <maxWeakCount>100</maxWeakCount></stageParams>
  <featureParams>
    <maxCatCount>256</maxCatCount>
    <featSize>1</featSize></featureParams>
  <stageNum>18</stageNum>
  <stages>
    <!-- stage 0 -->
    <_>
      <maxWeakCount>5</maxWeakCount>
      <stageThreshold>-1.0801154375076294e+00</stageThreshold>
      <weakClassifiers>
        <_>
          <internalNodes>
            0 -1 33 -720839464 -40333232 -238024291 1563967836
            -629088518 -539981656 521186299 134742024</internalNodes>
          <leafValues>
            -8.1577789783477783e-01 5.4971855878829956e-01</leafValues></_>
        <_>
          <internalNodes>
            0 -1 8 -990909714 -231812385 -869349298 -923810629
            1076355079 344180235 1379124047 -989855881</internalNodes>
          <leafValues>
            -7.3485672473907471e-01 5.8799678087234497e-01</leafValues></_>
        <_>
          <internalNodes>
            0 -1 19 142606556 -586006460 1301633503 1594819089 268482746
            -121961798 25467887 733547295</internalNodes>
          <leafValues>
            -8.4344160556793213e-01 4.5134475827217102e-01</leafValues></_>
        <_>
          <internalNodes>
            0 -1 134 -269490329 653258727 -135266782 1692991230
            1070954468 1137180535 -536875567 -520620057</internalNodes>
          <leafValues>
            -5.3992873430252075e-01 7.3197633028030396e-01</leafValues></_>
        <_>
          <internalNodes>
            0 -1 73 1362631996 -2534920 488185245 -547466051 -1148404757
            -24540948 1002059966 -1893201912</internalNodes>
          <leafValues>
            -7.0743650197982788e-01 5.5910307168960571e-01</leafValues></_></weakClassifiers></_>
    <!-- stage 1 -->
    <_>
      <maxWeakCount>5</maxWeakCount>
      <stageThreshold>-9.4167166948318481e-01</stageThreshold>
      <weakClassifiers>
        <_>
          <internalNodes>
            0 -1 31 -725560104 -706920312 -2147431027 1460076551
            -1608455174 -1276933941 170043531 725551631</internalNodes>
          <leafValues>
            -6.9945353269577026e-01 5.7940661907196045e-01</leafValues></_>
        <_>
          <internalNodes>
            0 -1 96 -33685892 409244092 -652524260 -112086650 -934675219
            -272063752 -640828420 -7340033</internalNodes>
          <leafValues>
            -6.0619699954986572e-01 5.9276962280273438e-01</leafValues></_>
        <_>
          <internalNodes>
            0 -1 1 -495982866 -3675609 1628033471 -447774009 -771514179
            -1338252593 -492582421 1148666950</internalNodes>
          <leafValues>
            -7.3410415649414062e-01 4.8833820223808289e-01</leafValues></_>
        <_>
          <internalNodes>
            0 -1 43 -787456872 -570604424 -912604291 1570064749
            -1198999365 -1141268424 -1928682561 1069165051</internalNodes>
          <leafValues>
            -6.9485938549041748e-01 5.3144556283950806e-01</leafValues></_>
        <_>
          <internalNodes>
            0 -1 10 -268435665 -1562455649 -436870042 -521155218
            1943262023 1709672619 -11536544 -185073673</internalNodes>
          <leafValues>
            -6.2846660614013672e-01 6.0578471422195435e-01</leafValues></_></weakClassifiers></_>
    <!-- stage 2 -->
    <_>
      <maxWeakCount>6</maxWeakCount>
      <stageThreshold>-1.5265187025070190e+00</stageThreshold>
      <weakClassifiers>
        <_>
          <internalNodes>
            0 -1 64 -1183023619 -762403 -539632641 -110243 -13041667
            -70721 -1074217987 -1359462916</internalNodes>
          <leafValues>
            -6.4902722835540771e-01 5.4460638761520386e-01</leafValues></_>
        <_>
          <internalNodes>
            0 -1 38 -33619974 1068019710 -1409801480 -1716600904
            1602023404 1602035197 -269615363 -4113</internalNodes>
          <leafValues>
            -5.4386144876480103e-01 6.2016522884368896e-01</leafValues></_>
        <_>
          <internalNodes>
            0 -1 123 -421007582 -145231581 -45878433 -1083460325
            -57154889 -4741715 -491327573 1612964355</internalNodes>
          <leafValues>
            -6.1959969997406006e-01 5.2409356832504272e-01</leafValues></_>
        <_>
          <internalNodes>
            0 -1 98 1066932572 2145148381 -218062881 -102924867
            -1078411265 -1078215941 -376833 -1124594584</internalNodes>
          <leafValues>
            -7.9678130149841309e-01 4.4004932045936584e-01</leafValues></_>
        <_>
          <internalNodes>
            0 -1 79 -1067202046 -715133081 -175650859 -715135481
            -218111569 -137891409 -947919945 -1039144413</internalNodes>
          <leafValues>
            -5.7514202594757080e-01 5.8392238616943359e-01</leafValues></_>
        <_>
          <internalNodes>
            0 -1 66 -707723564 -170905380 -654196725 521996377
            -116340228 -1207922512 -1190290693 465255279</internalNodes>
          <leafValues>
            -6.4486461877822876e-01 5.1151436567306519e-01</leafValues></_></weakClassifiers></_>
    <!-- stage 3 -->
    <_>
      <maxWeakCount>7</maxWeakCount>
      <stageThreshold>-1.1893421411514282e+00</stageThreshold>
      <weakClassifiers>
        <_>
          <internalNodes>
            0 -1 47 939528436 1610421657 431322615 496697809 -1347765254
            -2486790 529160703 1060772060</internalNodes>
          <leafValues>
            -7.8699433803558350e-01 4.2920681834220886e-01</leafValues></_>
        <_>
          <internalNodes>
            0 -1 135 -276824081 -1366306833 -23888000 -321983826
            2146955111 1387790327 -155 -186122249</internalNodes>
          <leafValues>
            -5.7268130779266357e-01 6.1775678396224976e-01</leafValues></_>
        <_>
          <internalNodes>
            0 -1 13 -1118210 -540224412 -306781702 -1347886520
            1550105584 -618361328 1803150334 -16782433</internalNodes>
          <leafValues>
            -6.1725783348083496e-01 5.2302253246307373e-01</leafValues></_>
        <_>
          <internalNodes>
            0 -1 93 989617661 -722572 -851575937 -377899 -181472257
            -1498875513 -135602465 -1342423556</internalNodes>
          <leafValues>
            -6.7224806547164917e-01 4.7042194008827209e-01</leafValues></_>
        <_>
          <internalNodes>
            0 -1 20 -286785681 617539071 -148976470 -420545618 725860207
            1952703457 -672402603 -134749261</internalNodes>
          <leafValues>
            -5.9503078460693359e-01 5.2149671316146851e-01</leafValues></_>
        <_>
          <internalNodes>
            0 -1 95 -241854184 1369381714 -778234083 1610600215
            -1077301317 -89534917 -1638903922 1018898651</internalNodes>
          <leafValues>
            -6.7428183555603027e-01 4.8017922043800354e-01</leafValues></_>
        <_>
          <internalNodes>
            0 -1 49 -801049392 -792390248 37935493 -1646329055
            -1607215374 -134897432 690718731 196021135</internalNodes>
          <leafValues>
            -6.7032581567764282e-01 4.5503503084182739e-01</leafValues></_></weakClassifiers></_>
    <!-- stage 4 -->
    <_>
      <maxWeakCount>7</maxWeakCount>
      <stageThreshold>-1.0122768878936768e+00</stageThreshold>
      <weakClassifiers>
        <_>
          <internalNodes>
            0 -1 133 -268701913 -464523441 -537932158 -1025049602
            -405440681 1622408475 -38538428 -520683533</internalNodes>
          <leafValues>
            -5.5867528915405273e-01 5.4376161098480225e-01</leafValues></_>
        <_>
          <internalNodes>
            0 -1 40 26217656 -543616836 1064312285 488312137 -1081021510
            -2557026 -1886859297 252313736</internalNodes>
          <leafValues>
            -7.8231561183929443e-01 3.9216738939285278e-01</leafValues></_>
        <_>
          <internalNodes>
            0 -1 118 -465320157 -167772161 -268435601 -150997129 -532497
            -268435585 -1048593 -459029501</internalNodes>
          <leafValues>
            -4.8391193151473999e-01 6.5867042541503906e-01</leafValues></_>
        <_>
          <internalNodes>
            0 -1 91 1107552256 1945354758 1862294276 -11018149
            -175127577 -113273425 1800128798 -357567749</internalNodes>
          <leafValues>
            -5.7683134078979492e-01 5.3007411956787109e-01</leafValues></_>
        <_>
          <internalNodes>
            0 -1 51 -1078977159 2105037207 -1229080579 -1074128419
            -1631781953 -1324107 -1075257669 -1094969091</internalNodes>
          <leafValues>
            -6.4241200685501099e-01 4.4112426042556763e-01</leafValues></_>
        <_>
          <internalNodes>
            0 -1 11 -269488369 -522256402 -826278234 -1572934082
            939523603 1954017119 -402653340 -521666561</internalNodes>
          <leafValues>
            -5.4778110980987549e-01 5.8139121532440186e-01</leafValues></_>
        <_>
          <internalNodes>
            0 -1 45 -174555688 -174500464 -365938435 -1110632199
            -1400307781 -71775008 998415871 235405745</internalNodes>
          <leafValues>
            -7.3549509048461914e-01 4.1718202829360962e-01</leafValues></_></weakClassifiers></_>
    <!-- stage 5 -->
    <_>
      <maxWeakCount>8</maxWeakCount>
      <stageThreshold>-1.2181895971298218e+00</stageThreshold>
      <weakClassifiers>
        <_>
          <internalNodes>
            0 -1 28 -557855666 -352912486 -819016506 -1896879905
            -991502294 1081325559 -148648953 -461374345</internalNodes>
          <leafValues>
            -6.0651731491088867e-01 4.7644570469856262e-01</leafValues></_>
        <_>
          <internalNodes>
            0 -1 117 -1 1069039612 -49156 -1073823812 2147319801
            1071447549 -184404 -1</internalNodes>
          <leafValues>
            -3.8580283522605896e-01 7.0840370655059814e-01</leafValues></_>
        <_>
          <internalNodes>
            0 -1 101 -1273490192 -4234787 -1148862465 -238279 1034992569
            -4869 -1649640193 1069156537</internalNodes>
          <leafValues>
            -6.9192361831665039e-01 4.1936862468719482e-01</leafValues></_>
        <_>
          <internalNodes>
            0 -1 83 -1066671325 -277086293 -1073741825 -134484185
            -436469761 -1 -67112965 1664074503</internalNodes>
          <leafValues>
            -4.6738743782043457e-01 5.8589261770248413e-01</leafValues></_>
        <_>
          <internalNodes>
            0 -1 129 -406849789 -134742253 -134742033 -420479113
            -268963845 -34078857 -252186641 -520886493</internalNodes>
          <leafValues>
            -4.8393809795379639e-01 5.8827662467956543e-01</leafValues></_>
        <_>
          <internalNodes>
            0 -1 111 397946229 533782781 1608351167 -4206107 -1363411971
            -272936133 -1144357891 750261573</internalNodes>
          <leafValues>
            -7.4553102254867554e-01 4.0758523344993591e-01</leafValues></_>
        <_>
          <internalNodes>
            0 -1 21 -420483793 214687075 -689519602 -420308914
            1887653143 1957417887 1944306436 -453513113</internalNodes>
          <leafValues>
            -5.4350334405899048e-01 5.4127752780914307e-01</leafValues></_>
        <_>
          <internalNodes>
            0 -1 76 -352321910 128705007 -1517630328 855366638
            -145409596 9886497 -220988242 -252182793</internalNodes>
          <leafValues>
            -5.3748196363449097e-01 5.4184180498123169e-01</leafValues></_></weakClassifiers></_>
    <!-- stage 6 -->
    <_>
      <maxWeakCount>7</maxWeakCount>
      <stageThreshold>-1.0402249097824097e+00</stageThreshold>
      <weakClassifiers>
        <_>
          <internalNodes>
            0 -1 61 276831484 -1245622210 -10789377 1606094733
            -1322730821 -68479265 -1440641029 -1082183747</internalNodes>
          <leafValues>
            -5.9006214141845703e-01 4.5327755808830261e-01</leafValues></_>
        <_>
          <internalNodes>
            0 -1 54 -101200658 -1326319105 -268516082 -319819825
            556815677 565558775 -273785585 -201601537</internalNodes>
          <leafValues>
            -4.7015172243118286e-01 5.3474009037017822e-01</leafValues></_>
        <_>
          <internalNodes>
            0 -1 46 -1124311587 -539225633 -5243905 -205867 -1346446103
            -85334649 -272826369 -1078444547</internalNodes>
          <leafValues>
            -5.5658042430877686e-01 4.5147377252578735e-01</leafValues></_>
        <_>
          <internalNodes>
            0 -1 14 -2257 553646991 -455687126 -2098796293 -134497273
            1162837867 -335814332 -184617475</internalNodes>
          <leafValues>
            -6.0424643754959106e-01 4.4654512405395508e-01</leafValues></_>
        <_>
          <internalNodes>
            0 -1 97 -15673448 -1156409460 421967325 -2112323 -645385272
            -1159028306 -1357243048 1057688632</internalNodes>
          <leafValues>
            -6.7785865068435669e-01 3.7722682952880859e-01</leafValues></_>
        <_>
          <internalNodes>
            0 -1 119 -454573054 -1496591921 -761267365 -52037777
            1641538340 1421070543 -134496426 -454044313</internalNodes>
          <leafValues>
            -5.9632623195648193e-01 4.4626113772392273e-01</leafValues></_>
        <_>
          <internalNodes>
            0 -1 63 -255526152 -219098100 486820111 520291495
            -1727933517 -1688710992 923341035 523045743</internalNodes>
          <leafValues>
            -6.0053271055221558e-01 4.6127122640609741e-01</leafValues></_></weakClassifiers></_>
    <!-- stage 7 -->
    <_>
      <maxWeakCount>8</maxWeakCount>
      <stageThreshold>-1.3731805086135864e+00</stageThreshold>
      <weakClassifiers>
        <_>
          <internalNodes>
            0 -1 127 -1623925251 -131211 -1 -98315 -131073 -3
            -1082195969 -1073996387</internalNodes>
          <leafValues>
            -4.6524775028228760e-01 5.3424656391143799e-01</leafValues></_>
        <_>
          <internalNodes>
            0 -1 22 -8455041 -1615800570 -720983334 1066579358
            -849585411 500198031 -57800450 2147474431</internalNodes>
          <leafValues>
            -4.7312718629837036e-01 5.3656429052352905e-01</leafValues></_>
        <_>
          <internalNodes>
            0 -1 99 -153362472 1457231111 -594431203 -36365993
            -1223970902 -290308 732506890 258943279</internalNodes>
          <leafValues>
            -5.8494216203689575e-01 4.1779536008834839e-01</leafValues></_>
        <_>
          <internalNodes>
            0 -1 128 -465043678 -143130877 -134219913 -403177603
            -142606353 -34078721 -67702834 -534249693</internalNodes>
          <leafValues>
            -4.7165331244468689e-01 5.1669639348983765e-01</leafValues></_>
        <_>
          <internalNodes>
            0 -1 59 2071739741 -6958644 -639771143 -4335179 -1726682881
            -275586326 -1202611458 -1080021844</internalNodes>
          <leafValues>
            -6.6350698471069336e-01 3.5747393965721130e-01</leafValues></_>
        <_>
          <internalNodes>
            0 -1 131 -409997469 73632567 -1962151644 -357120066
            2144828759 567462655 -105403520 -520684697</internalNodes>
          <leafValues>
            -5.1364827156066895e-01 5.0055021047592163e-01</leafValues></_>
        <_>
          <internalNodes>
            0 -1 77 -70134884 -137299881 731389324 -1759959755
            -473659208 -1847816151 993494027 -542163429</internalNodes>
          <leafValues>
            -4.8881673812866211e-01 5.0578796863555908e-01</leafValues></_>
        <_>
          <internalNodes>
            0 -1 94 -2011167300 1020854425 -5382787 -11200044
            -1483032581 -579601959 -1247094277 789187836</internalNodes>
          <leafValues>
            -8.0815678834915161e-01 2.9366284608840942e-01</leafValues></_></weakClassifiers></_>
    <!-- stage 8 -->
    <_>
      <maxWeakCount>8</maxWeakCount>
      <stageThreshold>-1.0899186134338379e+00</stageThreshold>
      <weakClassifiers>
        <_>
          <internalNodes>
            0 -1 116 -995113213 -67108865 -33 -1048657 -268435541
            -134217729 -167772497 -488127997</internalNodes>
          <leafValues>
            -3.5609754920005798e-01 6.5541124343872070e-01</leafValues></_>
        <_>
          <internalNodes>
            0 -1 15 -48300289 -537722884 -1090846977 -1153778756
            -1073848835 507395581 -806092801 -13467657</internalNodes>
          <leafValues>
            -4.1268026828765869e-01 5.8401703834533691e-01</leafValues></_>
        <_>
          <internalNodes>
            0 -1 136 -268435481 46915055 -186654748 -487659530
            1874294775 1723333935 -74453152 -186187787</internalNodes>
          <leafValues>
            -5.2477288246154785e-01 4.7166982293128967e-01</leafValues></_>
        <_>
          <internalNodes>
            0 -1 89 -457707741 2130706359 -1 -4194501 -134217737 -32769
            -134221825 -521672953</internalNodes>
          <leafValues>
            -4.4017827510833740e-01 6.2532907724380493e-01</leafValues></_>
        <_>
          <internalNodes>
            0 -1 78 1076086274 -415760577 -134217869 -524425 2013233087
            -402653185 -268992513 -185342425</internalNodes>
          <leafValues>
            -4.6976795792579651e-01 5.3475594520568848e-01</leafValues></_>
        <_>
          <internalNodes>
            0 -1 84 -1123412520 -10811046 2130909151 1574109386
            -1416056321 -220521973 715963311 800603837</internalNodes>
          <leafValues>
            -6.4609813690185547e-01 4.0077519416809082e-01</leafValues></_>
        <_>
          <internalNodes>
            0 -1 12 -680067074 -1655379598 1782095326 -272094788
            47721467 800151740 -92263715 2142371839</internalNodes>
          <leafValues>
            -6.4878064393997192e-01 3.5546454787254333e-01</leafValues></_>
        <_>
          <internalNodes>
            0 -1 104 1814564340 -677440379 -888949249 -807672579
            538246652 -68406866 -1078132776 -1095556815</internalNodes>
          <leafValues>
            -5.9865838289260864e-01 4.0776914358139038e-01</leafValues></_></weakClassifiers></_>
    <!-- stage 9 -->
    <_>
      <maxWeakCount>8</maxWeakCount>
      <stageThreshold>-1.2168160676956177e+00</stageThreshold>
      <weakClassifiers>
        <_>
          <internalNodes>
            0 -1 121 -890246398 -364131857 -69742080 -318804529
            1907881730 1085527479 -407150335 -189267977</internalNodes>
          <leafValues>
            -4.9313086271286011e-01 4.8361161351203918e-01</leafValues></_>
        <_>
          <internalNodes>
            0 -1 34 -997212158 -11610199 1429066197 -551554789
            -429016069 -4456613 -856703589 -1061191389</internalNodes>
          <leafValues>
            -4.8874264955520630e-01 4.8463284969329834e-01</leafValues></_>
        <_>
          <internalNodes>
            0 -1 92 -1 1060945912 -1073825028 -1073987590 -17023492
            503185405 -180388 -1</internalNodes>
          <leafValues>
            -3.5082074999809265e-01 6.3674402236938477e-01</leafValues></_>
        <_>
          <internalNodes>
            0 -1 75 1617412642 -1217136469 -975187082 -201598017
            -260177991 1636265657 -286547057 -521936029</internalNodes>
          <leafValues>
            -4.7301867604255676e-01 4.7658506035804749e-01</leafValues></_>
        <_>
          <internalNodes>
            0 -1 86 -454047997 -68292741 -1 -273178633 -1 -536870913
            -805306369 -509097981</internalNodes>
          <leafValues>
            -3.7055212259292603e-01 6.4555895328521729e-01</leafValues></_>
        <_>
          <internalNodes>
            0 -1 125 -13637888 923983748 1401018847 -1102600645
            -1142190625 -456024643 -51748886 548916003</internalNodes>
          <leafValues>
            -5.5301553010940552e-01 4.6352863311767578e-01</leafValues></_>
        <_>
          <internalNodes>
            0 -1 53 -579273480 1366892764 -1679747907 1905852827
            -101682760 939528838 -27727141 468785359</internalNodes>
          <leafValues>
            -6.8476331233978271e-01 3.3460679650306702e-01</leafValues></_>
        <_>
          <internalNodes>
            0 -1 41 13651165 902826300 1942477311 1035548020 -1462207587
            -1369157 -5983061 791697696</internalNodes>
          <leafValues>
            -7.8644949197769165e-01 2.9410147666931152e-01</leafValues></_></weakClassifiers></_>
    <!-- stage 10 -->
    <_>
      <maxWeakCount>7</maxWeakCount>
      <stageThreshold>-8.6115866899490356e-01</stageThreshold>
      <weakClassifiers>
        <_>
          <internalNodes>
            0 -1 37 -4214018 -1086418510 -1952284452 -1359302412
            212643756 1046616348 -1356140721 -301989905</internalNodes>
          <leafValues>
            -5.0245374441146851e-01 4.5687854290008545e-01</leafValues></_>
        <_>
          <internalNodes>
            0 -1 42 -1610842627 -6399527 -674103809 -68504579 -70460999
            -17046549 -3604483 -1363395091</internalNodes>
          <leafValues>
            -5.4013496637344360e-01 4.2077806591987610e-01</leafValues></_>
        <_>
          <internalNodes>
            0 -1 114 -75763966 323353382 766462214 1946156027 1212378881
            1349577175 -268711057 1664614247</internalNodes>
          <leafValues>
            -6.5112555027008057e-01 3.4546920657157898e-01</leafValues></_>
        <_>
          <internalNodes>
            0 -1 105 -207094330 -357372419 -17830388 -1010832275
            2004187061 1886517235 -457715923 -441451009</internalNodes>
          <leafValues>
            -3.9922928810119629e-01 5.6188613176345825e-01</leafValues></_>
        <_>
          <internalNodes>
            0 -1 5 -427824337 -2064000341 -457717974 -85198677
            2131295011 1622200971 -218631372 -185076748</internalNodes>
          <leafValues>
            -5.1093494892120361e-01 4.4937554001808167e-01</leafValues></_>
        <_>
          <internalNodes>
            0 -1 81 -561027094 586120268 -192517590 -1598058642
            2069983940 1123404601 -203457397 -168296585</internalNodes>
          <leafValues>
            -5.0613909959793091e-01 4.5190206170082092e-01</leafValues></_>
        <_>
          <internalNodes>
            0 -1 30 -729756456 -571420428 1294796629 1434912591
            -622822996 -264166966 177113789 985607083</internalNodes>
          <leafValues>
            -6.2882500886917114e-01 3.7634882330894470e-01</leafValues></_></weakClassifiers></_>
    <!-- stage 11 -->
    <_>
      <maxWeakCount>9</maxWeakCount>
      <stageThreshold>-1.6182509660720825e+00</stageThreshold>
      <weakClassifiers>
        <_>
          <internalNodes>
            0 -1 18 -327155929 -5259281 -13 -577 -150994945 -16777217
            -17301505 -453511355</internalNodes>
          <leafValues>
            -3.3922651410102844e-01 6.0000002384185791e-01</leafValues></_>
        <_>
          <internalNodes>
            0 -1 122 -270532609 1073225212 -1618079240 1002089372
            402408380 971796657 2074875772 2147434221</internalNodes>
          <leafValues>
            -5.3306001424789429e-01 3.9215868711471558e-01</leafValues></_>
        <_>
          <internalNodes>
            0 -1 4 -1528386316 -135910538 -548233729 -1622397447
            92407799 -542441282 1796374527 262472695</internalNodes>
          <leafValues>
            -5.9802138805389404e-01 3.3688938617706299e-01</leafValues></_>
        <_>
          <internalNodes>
            0 -1 107 -486541470 -189336580 -1069586 -1405112337
            2004333985 1895167863 883937149 -441716929</internalNodes>
          <leafValues>
            -3.9019352197647095e-01 5.2156126499176025e-01</leafValues></_>
        <_>
          <internalNodes>
            0 -1 74 -1603270796 -581596819 -570753569 972850041
            -1191546433 -1054221 -1097031939 -1968559327</internalNodes>
          <leafValues>
            -6.3463759422302246e-01 3.3114203810691833e-01</leafValues></_>
        <_>
          <internalNodes>
            0 -1 29 -20971905 -222300421 -273789825 -285804801
            1621813898 -986253321 791048015 -404751105</internalNodes>
          <leafValues>
            -4.1482546925544739e-01 5.3442513942718506e-01</leafValues></_>
        <_>
          <internalNodes>
            0 -1 85 -1148037643 -68921987 1574617069 -1612809027
            -1276859907 -7098365 -1153800003 -1073869443</internalNodes>
          <leafValues>
            -4.7226211428642273e-01 4.6010974049568176e-01</leafValues></_>
        <_>
          <internalNodes>
            0 -1 133 -268566545 -1343563617 -54528094 -386210866
            935009040 1205049753 -152637978 -422249584</internalNodes>
          <leafValues>
            -5.5377650260925293e-01 4.0172418951988220e-01</leafValues></_>
        <_>
          <internalNodes>
            0 -1 16 1771110367 -745277996 -552365665 -247500707
            -305616231 -594556627 -358681959 441586578</internalNodes>
          <leafValues>
            -5.3590005636215210e-01 4.2070004343986511e-01</leafValues></_></weakClassifiers></_>
    <!-- stage 12 -->
    <_>
      <maxWeakCount>9</maxWeakCount>
      <stageThreshold>-1.1206719875335693e+00</stageThreshold>
      <weakClassifiers>
        <_>
          <internalNodes>
            0 -1 88 -530061817 -740294733 -1 -201332993 -420511745 -1
            1736435695 1088923435</internalNodes>
          <leafValues>
            -4.4204181432723999e-01 4.5517459511756897e-01</leafValues></_>
        <_>
          <internalNodes>
            0 -1 126 -2105924 1058989072 -1835434320 2099198129
            -1522008868 762112357 954337340 1023367629</internalNodes>
          <leafValues>
            -5.5443054437637329e-01 3.6137986183166504e-01</leafValues></_>
        <_>
          <internalNodes>
            0 -1 36 348150012 -115799999 -667321441 1568473337
            -1416578145 -273779477 993623803 1006177183</internalNodes>
          <leafValues>
            -6.4136075973510742e-01 2.9828318953514099e-01</leafValues></_>
        <_>
          <internalNodes>
            0 -1 7 -278201473 -1373647698 -931922870 -335609624
            1846399295 40865841 1688426356 -402958349</internalNodes>
          <leafValues>
            -4.8017182946205139e-01 4.1687178611755371e-01</leafValues></_>
        <_>
          <internalNodes>
            0 -1 44 -538976616 -557468967 -327107141 160012096
            -354702710 -1020769886 -1565549637 -1086336073</internalNodes>
          <leafValues>
            -4.5100647211074829e-01 4.3304413557052612e-01</leafValues></_>
        <_>
          <internalNodes>
            0 -1 113 1133497862 -67115173 -442567928 -4210033 -523769249
            1374934719 -404751525 -155713681</internalNodes>
          <leafValues>
            -4.9660512804985046e-01 4.0140902996063232e-01</leafValues></_>
        <_>
          <internalNodes>
            0 -1 87 -486542078 -1866542113 -1021838522 679998103
            -207135771 550565545 -840476875 -1596459661</internalNodes>
          <leafValues>
            -4.2512255907058716e-01 4.8001319169998169e-01</leafValues></_>
        <_>
          <internalNodes>
            0 -1 69 -1833939856 -69779055 -215361699 -1145758599
            -1144456728 -2549015 -369868805 -1880619329</internalNodes>
          <leafValues>
            -5.6664711236953735e-01 3.7171828746795654e-01</leafValues></_>
        <_>
          <internalNodes>
            0 -1 52 -257894694 295764081 721533149 152503039 -619127254
            538143112 1778931723 176885275</internalNodes>
          <leafValues>
            -6.8915969133377075e-01 2.9635798931121826e-01</leafValues></_></weakClassifiers></_>
    <!-- stage 13 -->
    <_>
      <maxWeakCount>9</maxWeakCount>
      <stageThreshold>-1.2062151432037354e+00</stageThreshold>
      <weakClassifiers>
        <_>
          <internalNodes>
            0 -1 27 -823143418 -16842769 1610603743 -270549793
            -420487189 -2055 1442794863 -185870909</internalNodes>
          <leafValues>
            -4.3524417281150818e-01 4.5053559541702271e-01</leafValues></_>
        <_>
          <internalNodes>
            0 -1 124 -1678221835 -537627661 -113157121 -3401729
            -68225057 -17930089 -105530373 -1073980051</internalNodes>
          <leafValues>
            -4.7908881306648254e-01 3.9369055628776550e-01</leafValues></_>
        <_>
          <internalNodes>
            0 -1 56 -138483714 1978973183 -90456 -168497412 104376319
            1173749759 -1342431873 -268435457</internalNodes>
          <leafValues>
            -4.2326027154922485e-01 4.6814239025115967e-01</leafValues></_>
        <_>
          <internalNodes>
            0 -1 102 -286785760 -257925392 -49575384 -2068067260
            2002243893 1409376679 -5092091 78104055</internalNodes>
          <leafValues>
            -6.2163221836090088e-01 3.1691390275955200e-01</leafValues></_>
        <_>
          <internalNodes>
            0 -1 17 -296292738 -86620747 -863993765 -1691743106
            1265789309 2145847639 -95031121 -25986253</internalNodes>
          <leafValues>
            -4.4637176394462585e-01 4.4626972079277039e-01</leafValues></_>
        <_>
          <internalNodes>
            0 -1 108 1448341248 -9182951 -1911569347 -606367723
            -511210435 -334526079 -387168131 645627411</internalNodes>
          <leafValues>
            -6.3683158159255981e-01 2.9825031757354736e-01</leafValues></_>
        <_>
          <internalNodes>
            0 -1 134 -273682577 718199639 -1148461774 -285279122
            1823995555 1399313034 -946083355 -252248092</internalNodes>
          <leafValues>
            -4.9515473842620850e-01 4.1196835041046143e-01</leafValues></_>
        <_>
          <internalNodes>
            0 -1 25 -699382600 -686698096 1471251712 496960008
            -350178888 -1457740112 -1556051318 462043611</internalNodes>
          <leafValues>
            -6.6968131065368652e-01 2.9154729843139648e-01</leafValues></_>
        <_>
          <internalNodes>
            0 -1 90 -1066155006 -504037740 1452266762 59763691 882561450
            1888535606 -465315440 1743774958</internalNodes>
          <leafValues>
            -5.9971439838409424e-01 3.4080356359481812e-01</leafValues></_></weakClassifiers></_>
    <!-- stage 14 -->
    <_>
      <maxWeakCount>9</maxWeakCount>
      <stageThreshold>-1.2041484117507935e+00</stageThreshold>
      <weakClassifiers>
        <_>
          <internalNodes>
            0 -1 60 -1392763396 -33614851 -1148625473 -35725355
            -1160183873 -1414916639 -74777665 -1074233492</internalNodes>
          <leafValues>
            -5.5252003669738770e-01 3.5413980484008789e-01</leafValues></_>
        <_>
          <internalNodes>
            0 -1 0 -1035010430 -45093209 -77857833 -541328117 1250911983
            -38814231 -101466425 1164395889</internalNodes>
          <leafValues>
            -5.5002486705780029e-01 3.5237517952919006e-01</leafValues></_>
        <_>
          <internalNodes>
            0 -1 26 -482552592 -552544136 2109238709 -581347867
            -274673414 -5736198 1073277931 436207624</internalNodes>
          <leafValues>
            -6.5273672342300415e-01 2.8757500648498535e-01</leafValues></_>
        <_>
          <internalNodes>
            0 -1 100 -806354962 -790462486 -272634044 -2068910097
            1474811189 309687666 -180355281 -458242073</internalNodes>
          <leafValues>
            -3.8354915380477905e-01 4.9731189012527466e-01</leafValues></_>
        <_>
          <internalNodes>
            0 -1 70 1680335618 -1526727813 691526711 -2185627 -268982865
            1936444071 1873522363 -1070096125</internalNodes>
          <leafValues>
            -5.1155936717987061e-01 3.8108053803443909e-01</leafValues></_>
        <_>
          <internalNodes>
            0 -1 71 -801049100 -743333324 1280527799 -1962735945
            -503119885 -197697385 33946527 255820559</internalNodes>
          <leafValues>
            -6.0254722833633423e-01 3.0975395441055298e-01</leafValues></_>
        <_>
          <internalNodes>
            0 -1 2 -322176213 -1400178002 -493645322 -1082199876
            1128491387 -1150559484 1993155652 -185142027</internalNodes>
          <leafValues>
            -4.1559600830078125e-01 4.7343510389328003e-01</leafValues></_>
        <_>
          <internalNodes>
            0 -1 55 -1182214960 -1785654122 1680152069 1227825166
            -1192301888 -105174862 1644175274 188681103</internalNodes>
          <leafValues>
            -6.8011975288391113e-01 3.1416347622871399e-01</leafValues></_>
        <_>
          <internalNodes>
            0 -1 106 -957880410 918219899 -307499028 -189239313
            1601418613 1894973431 -272654523 -978585729</internalNodes>
          <leafValues>
            -4.4369751214981079e-01 4.8193150758743286e-01</leafValues></_></weakClassifiers></_>
    <!-- stage 15 -->
    <_>
      <maxWeakCount>10</maxWeakCount>
      <stageThreshold>-1.2384934425354004e+00</stageThreshold>
      <weakClassifiers>
        <_>
          <internalNodes>
            0 -1 35 1593822302 -21233925 1315949791 -269492993
            2093933742 -1238106881 1460538382 -193202213</internalNodes>
          <leafValues>
            -4.2916667461395264e-01 4.6025639772415161e-01</leafValues></_>
        <_>
          <internalNodes>
            0 -1 120 -2097153 -1074216964 -49156 -1074118658 2012610557
            771031031 -41476 -1048577</internalNodes>
          <leafValues>
            -3.2968673110008240e-01 6.0665404796600342e-01</leafValues></_>
        <_>
          <internalNodes>
            0 -1 65 -1685585071 -3125571 -767195945 -1713760993
            -224528131 -342179815 -1618231297 -1415052547</internalNodes>
          <leafValues>
            -5.3539806604385376e-01 3.9321792125701904e-01</leafValues></_>
        <_>
          <internalNodes>
            0 -1 32 -1073754113 -1121800450 -1343602946 -906489926
            1609517820 1593016309 2146274782 -262145</internalNodes>
          <leafValues>
            -3.9599883556365967e-01 4.8539090156555176e-01</leafValues></_>
        <_>
          <internalNodes>
            0 -1 67 -886576510 -1482714368 -1333477120 -240856186
            -1677753400 982110466 -1320619819 -716382728</internalNodes>
          <leafValues>
            -5.6254774332046509e-01 3.3354952931404114e-01</leafValues></_>
        <_>
          <internalNodes>
            0 -1 9 -594768644 -1181286331 1250268507 1065574921
            547496355 -209575127 690099390 1529569837</internalNodes>
          <leafValues>
            -5.7788145542144775e-01 3.4825539588928223e-01</leafValues></_>
        <_>
          <internalNodes>
            0 -1 6 2144221711 169496789 -1055510352 -1496678270
            1715572803 1623345479 -1843057084 -1330322444</internalNodes>
          <leafValues>
            -5.8998340368270874e-01 3.6966598033905029e-01</leafValues></_>
        <_>
          <internalNodes>
            0 -1 72 -224440626 564979294 -493782400 -774192422
            1925303872 1977909443 1424183369 -256918581</internalNodes>
          <leafValues>
            -5.2115702629089355e-01 3.9195752143859863e-01</leafValues></_>
        <_>
          <internalNodes>
            0 -1 48 -73215910 433147599 1536359227 -1689780548 595044494
            -608437150 -1140916302 -541331522</internalNodes>
          <leafValues>
            -3.4695452451705933e-01 6.1172592639923096e-01</leafValues></_>
        <_>
          <internalNodes>
            0 -1 112 134221085 -70995129 -867774181 -1780875213
            -535292263 -268271479 -140391271 -1342431947</internalNodes>
          <leafValues>
            -5.9771686792373657e-01 3.8307896256446838e-01</leafValues></_></weakClassifiers></_>
    <!-- stage 16 -->
    <_>
      <maxWeakCount>10</maxWeakCount>
      <stageThreshold>-1.0862327814102173e+00</stageThreshold>
      <weakClassifiers>
        <_>
          <internalNodes>
            0 -1 39 -6361644 -833949959 -276185287 218835361 519473294
            2054309350 -1363690569 -1082401094</internalNodes>
          <leafValues>
            -4.1123306751251221e-01 5.0792557001113892e-01</leafValues></_>
        <_>
          <internalNodes>
            0 -1 130 -482345291 1060143089 -1073977575 -1723933509
            -536937028 236781368 -1103466100 -1900553075</internalNodes>
          <leafValues>
            -3.8830578327178955e-01 5.4422646760940552e-01</leafValues></_>
        <_>
          <internalNodes>
            0 -1 3 -884420610 -247412732 -66053773 1494278273 1210059153
            -1467383678 -2096799610 1567047795</internalNodes>
          <leafValues>
            -5.1011717319488525e-01 4.1939455270767212e-01</leafValues></_>
        <_>
          <internalNodes>
            0 -1 82 -790644769 1099022788 -2129653730 -117178368
            1074022088 1495270400 -931102004 1772929198</internalNodes>
          <leafValues>
            -5.7018321752548218e-01 3.8902756571769714e-01</leafValues></_>
        <_>
          <internalNodes>
            0 -1 132 -1356869365 593412164 1493205906 1324778513
            -104816429 43647136 -604902842 -421337679</internalNodes>
          <leafValues>
            -4.6136000752449036e-01 4.9972069263458252e-01</leafValues></_>
        <_>
          <internalNodes>
            0 -1 50 -8399333 -615175182 -1885076583 1157971878
            -256147253 -1072647279 -1429631526 -80480773</internalNodes>
          <leafValues>
            -3.6848041415214539e-01 7.0885622501373291e-01</leafValues></_>
        <_>
          <internalNodes>
            0 -1 24 1345379836 -1655123726 -932581461 29329599
            1904541672 -1178786398 -299697589 -1455742273</internalNodes>
          <leafValues>
            -4.2509180307388306e-01 5.3201138973236084e-01</leafValues></_>
        <_>
          <internalNodes>
            0 -1 62 1481368328 -1675236859 -1945139196 -1680653293
            36176154 134774944 -1476327157 1565251375</internalNodes>
          <leafValues>
            -5.3926610946655273e-01 4.5913231372833252e-01</leafValues></_>
        <_>
          <internalNodes>
            0 -1 103 -158100400 662945863 1326498077 1741295682
            -536700485 -2143550960 537199963 572135839</internalNodes>
          <leafValues>
            -6.4757609367370605e-01 3.5285541415214539e-01</leafValues></_>
        <_>
          <internalNodes>
            0 -1 80 1749471734 -778878972 -536590523 -1279188405
            -662075255 1207996416 -493841189 286499586</internalNodes>
          <leafValues>
            -5.7089865207672119e-01 4.2223468422889709e-01</leafValues></_></weakClassifiers></_>
    <!-- stage 17 -->
    <_>
      <maxWeakCount>8</maxWeakCount>
      <stageThreshold>-1.1475996971130371e+00</stageThreshold>
      <weakClassifiers>
        <_>
          <internalNodes>
            0 -1 57 1477433435 436242629 1788176384 466144920 586686572
            1234852914 -1430771320 -1194136357</internalNodes>
          <leafValues>
            -3.8452947139739990e-01 6.5192228555679321e-01</leafValues></_>
        <_>
          <internalNodes>
            0 -1 109 1659360162 1881623792 -1348022784 -1449013658
            1175881670 14702460 1950076345 -417085533</internalNodes>
          <leafValues>
            -4.1812115907669067e-01 6.1229866743087769e-01</leafValues></_>
        <_>
          <internalNodes>
            0 -1 58 356522200 -753893357 -1073659897 289472787
            -2029469508 235147276 1074856619 118853779</internalNodes>
          <leafValues>
            -5.8098018169403076e-01 4.6600565314292908e-01</leafValues></_>
        <_>
          <internalNodes>
            0 -1 137 -1608367083 -1543487339 -1878412271 -2125852670
            1090519169 -1451196255 1111556225 -836349551</internalNodes>
          <leafValues>
            -5.2862936258316040e-01 5.2787578105926514e-01</leafValues></_>
        <_>
          <internalNodes>
            0 -1 115 -1004281792 -1576680928 17322049 -200605695
            570474779 -771653502 -777976830 -2138357049</internalNodes>
          <leafValues>
            -5.2676600217819214e-01 5.3864091634750366e-01</leafValues></_>
        <_>
          <internalNodes>
            0 -1 23 1409450008 360843315 -1274937327 -1945518077 98308
            -2145385471 152080402 1266699339</internalNodes>
          <leafValues>
            -6.6343903541564941e-01 4.5679822564125061e-01</leafValues></_>
        <_>
          <internalNodes>
            0 -1 110 -521181658 1142423578 201588746 -863469566
            -2139067695 268468417 570589184 -235414609</internalNodes>
          <leafValues>
            -5.3520131111145020e-01 5.4420602321624756e-01</leafValues></_>
        <_>
          <internalNodes>
            0 -1 68 -802782048 -1052245899 553750851 -956298976
            1476509827 -502259712 1242693636 1803635203</internalNodes>
          <leafValues>
            -6.4384400844573975e-01 5.0705039501190186e-01</leafValues></_></weakClassifiers></_></stages>
  <features>
    <_>
      <rect>
        0 0 2 2</rect></_>
    <_>
      <rect>
        0 0 3 3</rect></_>
    <_>
      <rect>
        0 2 1 1</rect></_>
    <_>
      <rect>
        0 2 3 1</rect></_>
    <_>
      <rect>
        0 2 5 1</rect></_>
    <_>
      <rect>
        0 3 1 1</rect></_>
    <_>
      <rect>
        0 3 1 2</rect></_>
    <_>
      <rect>
        0 3 2 1</rect></_>
    <_>
      <rect>
        0 3 3 2</rect></_>
    <_>
      <rect>
        0 3 8 1</rect></_>
    <_>
      <rect>
        0 4 1 1</rect></_>
    <_>
      <rect>
        0 4 1 2</rect></_>
    <_>
      <rect>
        0 5 4 3</rect></_>
    <_>
      <rect>
        0 5 8 2</rect></_>
    <_>
      <rect>
        0 6 1 1</rect></_>
    <_>
      <rect>
        0 8 2 2</rect></_>
    <_>
      <rect>
        0 8 12 2</rect></_>
    <_>
      <rect>
        0 9 2 1</rect></_>
    <_>
      <rect>
        1 0 1 3</rect></_>
    <_>
      <rect>
        1 3 13 1</rect></_>
    <_>
      <rect>
        1 4 1 1</rect></_>
    <_>
      <rect>
        1 4 1 2</rect></_>
    <_>
      <rect>
        1 5 2 3</rect></_>
    <_>
      <rect>
        1 5 4 1</rect></_>
    <_>
      <rect>
        1 5 14 1</rect></_>
    <_>
      <rect>
        1 7 16 1</rect></_>
    <_>
      <rect>
        1 8 15 1</rect></_>
    <_>
      <rect>
        2 2 2 2</rect></_>
    <_>
      <rect>
        2 3 2 2</rect></_>
    <_>
      <rect>
        2 4 2 2</rect></_>
    <_>
      <rect>
        2 4 14 1</rect></_>
    <_>
      <rect>
        2 4 15 1</rect></_>
    <_>
      <rect>
        2 6 2 2</rect></_>
    <_>
      <rect>
        2 8 14 1</rect></_>
    <_>
      <rect>
        3 1 2 2</rect></_>
    <_>
      <rect>
        3 3 2 2</rect></_>
    <_>
      <rect>
        3 3 12 1</rect></_>
    <_>
      <rect>
        3 5 2 2</rect></_>
    <_>
      <rect>
        3 6 2 2</rect></_>
    <_>
      <rect>
        3 7 2 1</rect></_>
    <_>
      <rect>
        3 9 13 1</rect></_>
    <_>
      <rect>
        3 11 2 1</rect></_>
    <_>
      <rect>
        4 0 1 1</rect></_>
    <_>
      <rect>
        4 3 14 1</rect></_>
    <_>
      <rect>
        4 6 2 1</rect></_>
    <_>
      <rect>
        4 8 11 1</rect></_>
    <_>
      <rect>
        5 0 1 1</rect></_>
    <_>
      <rect>
        5 2 11 1</rect></_>
    <_>
      <rect>
        5 5 2 1</rect></_>
    <_>
      <rect>
        5 5 14 1</rect></_>
    <_>
      <rect>
        5 6 2 1</rect></_>
    <_>
      <rect>
        6 0 2 1</rect></_>
    <_>
      <rect>
        6 6 11 1</rect></_>
    <_>
      <rect>
        6 7 10 1</rect></_>
    <_>
      <rect>
        7 4 1 2</rect></_>
    <_>
      <rect>
        7 4 13 1</rect></_>
    <_>
      <rect>
        7 5 1 2</rect></_>
    <_>
      <rect>
        7 6 2 1</rect></_>
    <_>
      <rect>
        7 7 12 1</rect></_>
    <_>
      <rect>
        7 8 13 2</rect></_>
    <_>
      <rect>
        7 10 2 1</rect></_>
    <_>
      <rect>
        8 3 10 1</rect></_>
    <_>
      <rect>
        8 4 4 2</rect></_>
    <_>
      <rect>
        8 6 12 1</rect></_>
    <_>
      <rect>
        9 0 2 1</rect></_>
    <_>
      <rect>
        9 1 2 1</rect></_>
    <_>
      <rect>
        9 7 11 1</rect></_>
    <_>
      <rect>
        10 4 12 2</rect></_>
    <_>
      <rect>
        10 5 13 1</rect></_>
    <_>
      <rect>
        10 9 5 1</rect></_>
    <_>
      <rect>
        11 2 1 2</rect></_>
    <_>
      <rect>
        11 5 10 1</rect></_>
    <_>
      <rect>
        11 6 1 1</rect></_>
    <_>
      <rect>
        11 9 11 1</rect></_>
    <_>
      <rect>
        11 10 4 1</rect></_>
    <_>
      <rect>
        12 2 1 2</rect></_>
    <_>
      <rect>
        12 6 1 1</rect></_>
    <_>
      <rect>
        12 7 12 1</rect></_>
    <_>
      <rect>
        13 2 1 2</rect></_>
    <_>
      <rect>
        13 2 2 2</rect></_>
    <_>
      <rect>
        13 4 8 1</rect></_>
    <_>
      <rect>
        13 6 1 1</rect></_>
    <_>
      <rect>
        14 5 4 3</rect></_>
    <_>
      <rect>
        15 0 2 3</rect></_>
    <_>
      <rect>
        15 3 10 1</rect></_>
    <_>
      <rect>
        16 0 2 1</rect></_>
    <_>
      <rect>
        16 1 1 2</rect></_>
    <_>
      <rect>
        16 3 1 2</rect></_>
    <_>
      <rect>
        17 0 2 3</rect></_>
    <_>
      <rect>
        18 0 1 3</rect></_>
    <_>
      <rect>
        18 3 2 2</rect></_>
    <_>
      <rect>
        18 3 10 2</rect></_>
    <_>
      <rect>
        18 5 1 3</rect></_>
    <_>
      <rect>
        19 0 1 1</rect></_>
    <_>
      <rect>
        19 2 5 1</rect></_>
    <_>
      <rect>
        19 3 10 1</rect></_>
    <_>
      <rect>
        19 3 10 3</rect></_>
    <_>
      <rect>
        20 8 9 1</rect></_>
    <_>
      <rect>
        20 10 4 1</rect></_>
    <_>
      <rect>
        21 4 9 1</rect></_>
    <_>
      <rect>
        23 4 1 2</rect></_>
    <_>
      <rect>
        24 2 5 1</rect></_>
    <_>
      <rect>
        24 4 1 2</rect></_>
    <_>
      <rect>
        27 3 6 1</rect></_>
    <_>
      <rect>
        27 9 5 1</rect></_>
    <_>
      <rect>
        28 4 1 2</rect></_>
    <_>
      <rect>
        31 4 1 2</rect></_>
    <_>
      <rect>
        33 4 1 2</rect></_>
    <_>
      <rect>
        34 0 5 3</rect></_>
    <_>
      <rect>
        34 4 1 2</rect></_>
    <_>
      <rect>
        35 4 1 2</rect></_>
    <_>
      <rect>
        35 11 3 1</rect></_>
    <_>
      <rect>
        36 1 1 1</rect></_>
    <_>
      <rect>
        36 3 2 2</rect></_>
    <_>
      <rect>
        36 3 4 2</rect></_>
    <_>
      <rect>
        36 4 1 1</rect></_>
    <_>
      <rect>
        37 0 1 3</rect></_>
    <_>
      <rect>
        37 5 1 3</rect></_>
    <_>
      <rect>
        38 0 1 3</rect></_>
    <_>
      <rect>
        38 3 1 2</rect></_>
    <_>
      <rect>
        38 5 1 3</rect></_>
    <_>
      <rect>
        38 6 1 1</rect></_>
    <_>
      <rect>
        38 7 1 2</rect></_>
    <_>
      <rect>
        39 0 3 3</rect></_>
    <_>
      <rect>
        40 0 1 1</rect></_>
    <_>
      <rect>
        40 1 3 2</rect></_>
    <_>
      <rect>
        40 8 3 2</rect></_>
    <_>
      <rect>
        41 0 1 1</rect></_>
    <_>
      <rect>
        42 0 2 3</rect></_>
    <_>
      <rect>
        43 0 2 3</rect></_>
    <_>
      <rect>
        43 8 2 2</rect></_>
    <_>
      <rect>
        45 3 1 2</rect></_>
    <_>
      <rect>
        45 4 1 1</rect></_>
    <_>
      <rect>
        46 4 1 1</rect></_>
    <_>
      <rect>
        46 4 1 2</rect></_>
    <_>
      <rect>
        46 5 1 1</rect></_>
    <_>
      <rect>
        46 6 1 1</rect></_>
    <_>
      <rect>
        46 9 1 1</rect></_></features></cascade>
</opencv_storage>
