<?xml version="1.0"?>
<opencv_storage>
<opencv_ml_svm>
  <format>3</format>
  <svmType>C_SVC</svmType>
  <kernel>
    <type>RBF</type>
    <gamma>5.0000000000000001e-04</gamma></kernel>
  <C>1.2500000000000000e-01</C>
  <term_criteria><iterations>5000</iterations></term_criteria>
  <var_count>35</var_count>
  <class_count>4</class_count>
  <class_labels type_id="opencv-matrix">
    <rows>4</rows>
    <cols>1</cols>
    <dt>i</dt>
    <data>
      0 1 2 3</data></class_labels>
  <class_weights type_id="opencv-matrix">
    <rows>4</rows>
    <cols>1</cols>
    <dt>f</dt>
    <data>
      1.44130433e+00 1. 1. 1.28437495e+00</data></class_weights>
  <sv_total>1493</sv_total>
  <support_vectors>
    <_>
      6.43499327e+00 -1.21854912e+02 4.63483391e+01 -1.22446007e+02
      -6.27155037e+01 -5.11046982e+01 -1.49839525e+01 -1.07286777e+01
      -1.12142963e+01 2.89994621e+01 -3.48084480e-01 -1.50162649e+01
      -7.37425995e+00 -1.55570307e+01 3.25418282e+00 -7.63611031e+00
      9.02498245e+00 -7.27612495e+00 1.49065390e+01 -4.08518553e+00
      4.41344833e+00 4.93316746e+00 4.98988295e+00 -1.23041954e+01
      6.29732466e+00 -3.37916088e+00 3.86913300e+00 6.70688057e+00
      -4.07219028e+00 1.87197721e+00 1.95857024e+00 4.19164324e+00
      -9.70058346e+00 -2.46239591e+00 -6.66624784e+00</_>
    <_>
      -1.02846741e+02 5.96162949e+01 -3.93489227e+01 -1.38006468e+01
      -5.44365807e+01 -2.53458080e+01 4.70581169e+01 -2.22518654e+01
      -8.46697330e+00 3.27681198e+01 1.63078976e+01 -1.53068018e+01
      3.80596886e+01 -5.17874641e+01 1.93546391e+01 4.31382828e+01
      -1.54896212e+01 8.99988174e+00 -5.14077997e+00 -2.11569614e+01
      2.03983517e+01 -4.70060196e+01 1.41301479e+01 -1.07965918e+01
      2.75299416e+01 2.30288677e+01 2.94893646e+01 9.17163372e+00
      9.93850708e+00 -2.91098118e+00 -2.93981991e+01 2.56382322e+00
      4.10380140e-02 7.01409721e+00 -9.15384197e+00</_>
    <_>
      3.74240265e+01 1.37556534e+01 -1.84218178e+01 -2.24263687e+01
      3.72341309e+01 5.57753525e+01 -2.13407173e+01 -4.31646194e+01
      5.01171608e+01 3.85133858e+01 2.96914845e+01 -3.30726166e+01
      1.05193462e+01 -3.50938683e+01 1.51191807e+01 -2.50820637e+01
      3.51938744e+01 -1.57895002e+01 2.24177208e+01 2.02948055e+01
      4.13543358e+01 1.30669332e+00 -1.37057209e+01 -9.45577335e+00
      -1.65230503e+01 3.35158658e+00 1.63514435e+00 9.44480038e+00
      5.16318798e-01 2.46000695e+00 -7.88529968e+00 6.24399376e+00
      -6.34888709e-01 -1.18356409e+01 -7.71016359e+00</_>
    <_>
      -4.31813011e+01 2.27874374e+01 1.69124546e+01 2.48070412e+01
      3.45736008e+01 -6.79495850e+01 -7.63691711e+01 4.00676880e+01
      1.53838367e+01 -2.48975334e+01 -1.09211557e-01 -4.72994728e+01
      -2.70116997e+01 -9.85382843e+00 -4.13800764e+00 -1.77374303e+00
      -2.17985719e-01 -2.46260762e+00 8.62648869e+00 2.18098621e+01
      7.43254709e+00 2.85562439e+01 -6.65439701e+00 -2.13748112e+01
      3.66934547e+01 1.65145950e+01 3.39977694e+00 1.49776049e+01
      -1.05261831e+01 4.09665012e+00 -2.31670170e+01 2.74664097e+01
      -1.53734083e+01 -1.37416668e+01 2.93557262e+01</_>
    <_>
      2.03697872e+01 5.76465559e+00 -4.36980724e+00 -9.18127346e+00
      2.54426594e+01 3.73407555e+01 -1.56538143e+01 -2.75711861e+01
      3.29965515e+01 2.06431522e+01 1.56587162e+01 -1.95332394e+01
      2.44794331e+01 -7.69014406e+00 9.11193371e+00 -2.24780083e+01
      2.68185501e+01 9.90924835e+00 -1.28508067e+00 -2.80940495e+01
      -1.48476725e+01 1.01684790e+01 8.85388184e+00 -2.47535648e+01
      1.64623241e+01 -2.97787476e+00 9.38100624e+00 1.54134512e+01
      2.60202074e+00 -4.85711384e+00 1.98453178e+01 6.96621776e-01
      -8.07780743e+00 -1.15857821e+01 -3.91973758e+00</_>
    <_>
      1.08150108e+02 6.50723343e+01 -8.24538803e+01 -7.44464417e+01
      3.80450859e+01 -2.16052456e+01 -1.39496601e+00 -1.03489389e+01
      -4.51353683e+01 -8.78252566e-01 8.79044533e+00 -6.91483927e+00
      -4.98283119e+01 -4.00003967e+01 -1.36668854e+01 1.33851824e+01
      -1.39553633e+01 -1.69484215e+01 3.85784030e+00 -1.58665752e+01
      -2.65293159e+01 4.85670060e-01 9.99924088e+00 -1.11613321e+01
      1.43773642e+01 2.12945729e-01 7.11646509e+00 3.15645051e+00
      3.63378596e+00 4.01497507e+00 -5.57181299e-01 5.66727972e+00
      -1.14662189e+01 -7.63531876e+00 -2.38082237e+01</_>
    <_>
      9.86579208e+01 4.96302872e+01 -4.66353760e+01 -3.91147881e+01
      1.39295578e+01 7.77016059e-02 -2.16352105e+00 -1.76344185e+01
      3.21564980e+01 3.29477272e+01 2.46927795e+01 -1.41373558e+01
      -4.62748375e+01 -5.90482903e+01 -2.60490084e+00 1.64592588e+00
      -9.07442689e-01 -3.30067444e+01 2.42816925e+01 2.36165314e+01
      2.79495754e+01 -7.23901939e+00 -1.61852112e+01 3.08016801e+00
      -1.78184757e+01 1.50096054e+01 1.28689241e+01 5.38008308e+00
      -8.23037052e+00 -3.56177300e-01 -1.87223492e+01 -1.62142313e+00
      2.32344151e+01 1.36460476e+01 1.45705261e+01</_>
    <_>
      -3.61617398e+00 -4.46096754e+00 4.21141672e+00 -4.68586540e+00
      4.50060815e-01 1.45502386e+01 1.88309250e+01 6.26071644e+00
      1.15805092e+01 -2.45438709e+01 -6.36047840e+00 -7.22387266e+00
      1.19391108e+00 3.89993161e-01 -1.65002422e+01 3.55529857e+00
      -6.68483877e+00 6.72081232e+00 8.86541462e+00 -5.27269936e+00
      -1.05822878e+01 8.87985229e+00 -1.18818960e+01 1.14320503e+02
      2.12718430e+01 -1.64921932e+01 4.65044880e+00 3.37936783e+01
      2.36187820e+01 -3.31436653e+01 -2.41237888e+01 -2.71558399e+01
      -2.95613995e+01 -1.22515392e+01 -4.62300634e+00</_>
    <_>
      -4.78601036e+01 2.51059818e+01 1.16785116e+01 2.00490379e+01
      3.00714226e+01 -6.35175819e+01 -6.79157867e+01 3.70597572e+01
      1.35069675e+01 -2.21743813e+01 -7.08588421e-01 -3.80106850e+01
      -2.55329819e+01 -1.16135778e+01 -1.20815210e+01 -5.41368902e-01
      -2.89636350e+00 -3.53302538e-01 5.02222443e+00 6.54992819e+00
      1.27669830e+01 3.68115425e+01 -1.08731041e+01 -2.30672493e+01
      3.08752747e+01 1.55411911e+01 7.86805773e+00 1.94790077e+01
      -1.97353001e+01 3.55343199e+00 -2.20791931e+01 9.77764893e+00
      -5.19265318e+00 -1.33415871e+01 1.52706623e+01</_>
    <_>
      -2.29945135e+00 -1.89268532e+01 2.34620132e+01 -9.95654583e+00
      1.70217819e+01 3.58751183e+01 4.35490990e+01 5.77673454e+01
      1.95675144e+01 -9.81453857e+01 -1.88655682e+01 8.24427338e+01
      -9.78277493e+00 -7.77379227e+01 7.89345551e+01 7.19892550e+00
      2.78094234e+01 -9.68574619e+00 -2.07522750e+00 1.18684673e+01
      -1.47155704e+01 9.30517197e+00 1.18666677e+01 -4.56357117e+01
      -7.90505934e+00 1.59366369e+01 3.97606611e+00 -1.79069443e+01
      3.38083386e+00 -1.62068348e+01 -2.92301292e+01 -3.63912163e+01
      -8.27595139e+00 -1.66419621e+01 4.12229490e+00</_>
    <_>
      -1.50492573e+01 -2.22693596e+01 3.67498970e+01 -2.82395153e+01
      1.35939827e+01 2.09925823e+01 4.04684830e+01 7.20141678e+01
      1.13234272e+01 -6.42614212e+01 2.87632489e+00 2.52235069e+01
      -1.71882114e+01 -4.08144226e+01 3.08800602e+00 2.06619397e-01
      5.16040707e+00 1.42170441e+00 -5.24817467e+00 -7.96861935e+00
      5.27172709e+00 -1.89923496e+01 -3.38008766e+01 -3.12046967e+01
      5.27726650e+00 3.19798355e+01 -8.21298695e+00 1.79818325e+01
      -3.42782569e+00 6.74439573e+00 5.40249586e+00 1.11958427e+01
      -1.08521910e+01 1.55119390e+01 -1.87631073e+01</_>
    <_>
      3.12795460e-01 -9.50980186e+00 -6.56326866e+00 4.94079441e-01
      2.97484398e+00 1.95794544e+01 -1.54519224e+00 1.24647832e+00
      1.73617573e+01 4.00657654e+00 -1.53789740e+01 1.67362347e+01
      -5.87927818e+00 8.47255783e+01 -4.49423141e+01 1.87736237e+02
      1.08612709e+02 -2.99133320e+01 6.31250801e+01 4.64806414e+00
      -6.55559778e+00 3.01506281e+00 3.87086606e+00 -1.15318775e+01
      -1.08213034e+01 1.64937134e+01 3.51654625e+01 4.71482307e-01
      -9.45830345e+00 2.26751499e+01 4.70169210e+00 7.81088352e-01
      -2.42934203e+00 -7.04691029e+00 5.92175089e-02</_>
    <_>
      9.61131287e+01 4.89051819e+01 3.55107918e+01 5.38808098e+01
      -1.04045242e+02 -2.83133583e+01 1.01060371e+01 7.30119276e+00
      5.42061005e+01 2.76268845e+01 1.08234577e+01 1.04618919e+00
      -3.85302658e+01 -2.13201065e+01 -3.69039083e+00 2.83611012e+00
      -4.98488855e+00 -1.55219011e+01 6.25107193e+00 -1.16985512e+01
      3.23146313e-01 1.82764709e+00 1.43607819e+00 -9.11548233e+00
      6.83600235e+00 5.29456997e+00 3.97677588e+00 2.56477046e+00
      -1.14537611e+01 2.03960729e+00 -1.21405563e+01 8.46340942e+00
      -4.51113605e+00 1.12055817e+01 -1.15598049e+01</_>
    <_>
      -1.04867981e+02 6.33819542e+01 -5.19790230e+01 -3.32980881e+01
      -8.49065399e+01 1.10475330e+01 7.40280609e+01 -1.11337719e+01
      1.54669962e+01 -2.43282509e+01 -3.21503448e+00 -8.22056580e+01
      1.11627150e+01 -3.24495010e+01 -1.17698574e+01 9.89289474e+00
      -1.32110310e+01 3.49430132e+00 1.89266148e+01 -8.43406296e+00
      -3.65558314e+00 -1.08371582e+01 -8.75961900e-01 -1.90272713e+01
      2.45175719e+00 9.79436207e+00 9.74429035e+00 6.82988787e+00
      -8.09452343e+00 8.57965469e+00 -7.57129097e+00 -1.15172338e+01
      -1.56724942e+00 -2.32686949e+00 -2.69711709e+00</_>
    <_>
      7.32379556e-01 -1.10541176e+02 5.29932556e+01 -1.11902565e+02
      -4.52325783e+01 -2.71244392e+01 8.29528332e+00 5.72570801e+01
      -2.47983913e+01 5.04960442e+01 4.49226151e+01 -1.92599792e+01
      -1.13968363e+01 -1.04850473e+01 -2.55656457e+00 -5.77105379e+00
      8.27002239e+00 -2.90423131e+00 6.42509460e+00 -5.21185923e+00
      1.79723155e+00 -2.49321556e+00 -9.94459534e+00 -1.43581572e+01
      3.25406766e+00 3.23864055e+00 6.63150167e+00 8.21336174e+00
      -7.84141159e+00 3.85418558e+00 -3.48860359e+00 8.01125526e+00
      4.66722918e+00 -1.38173008e+00 -4.38365221e+00</_>
    <_>
      1.11653910e+01 -1.42263077e+02 -1.43532913e+02 1.09439163e+02
      -5.70843792e+00 -1.12745218e+01 2.81909752e+01 5.47157784e+01
      -2.23057137e+01 4.25318031e+01 9.72339630e-01 -9.39296818e+00
      -1.27027740e+01 -2.12989483e+01 1.23525295e+01 -6.28029871e+00
      -1.65104275e+01 2.88235435e+01 8.31789551e+01 -2.31629753e+01
      2.14873266e+00 7.30016232e+00 -4.63065434e+00 -1.66411800e+01
      3.26177049e+00 6.82200241e+00 -1.55592322e+00 6.16354847e+00
      -4.17727327e+00 -3.68141532e-01 -5.41425562e+00 1.09359932e+00
      1.78701138e+00 -4.81418180e+00 -2.50404382e+00</_>
    <_>
      -8.27503204e+01 5.39656906e+01 -2.39833698e+01 -8.86985600e-01
      -2.64316807e+01 -4.57778816e+01 -1.90874825e+01 2.90711832e+00
      -9.56507206e+00 2.25154629e+01 1.47340965e+01 1.45777540e+01
      7.82637644e+00 -3.35761375e+01 -3.19014525e+00 -1.13460808e+01
      2.58183155e+01 -1.90694389e+01 1.30733156e+01 -1.16164436e+01
      -2.45833158e+00 3.66080246e+01 -1.28299627e+01 -5.21252108e+00
      -5.44826221e+00 2.97489073e-02 2.80903077e+00 7.76539516e+00
      -1.19036369e+01 -3.43414354e+00 3.04854059e+00 9.16860199e+00
      -9.56603718e+00 1.80303180e+00 -7.52030516e+00</_>
    <_>
      1.72297554e+01 -1.93296957e+00 9.33582973e+00 7.69849634e+00
      -3.74347186e+00 1.36019812e+01 -4.00390816e+00 -2.44087625e+00
      -1.40135899e+01 -4.01926708e+00 -1.16778326e+00 -4.15047693e+00
      9.72119713e+00 1.09120619e+00 6.38073254e+00 -1.80965269e+00
      -4.74728155e+00 -1.50000076e+01 4.83866423e-01 -1.44362316e+01
      -8.03038502e+00 -4.34722424e-01 -7.45741272e+00 6.07036829e+00
      -4.61063576e+00 8.86768818e+00 1.46139371e+00 -1.19116259e+01
      -4.79127312e+00 8.18007088e+00 -2.39867401e+01 2.75601506e+00
      3.09700279e+01 -7.96991920e+00 7.81770086e+00</_>
    <_>
      -2.80409694e+00 -1.83710861e+01 2.31243935e+01 -1.02291031e+01
      1.62917824e+01 3.63411484e+01 4.49005356e+01 5.73614883e+01
      1.99805450e+01 -9.96447525e+01 -1.93326893e+01 8.15698776e+01
      -9.67859459e+00 -7.87236633e+01 7.83774643e+01 6.44224167e+00
      2.81080379e+01 -1.04388590e+01 -1.19951642e+00 1.18469172e+01
      -1.45004492e+01 1.01097431e+01 1.35579119e+01 -4.70120392e+01
      -8.88485813e+00 1.50753546e+01 5.03782797e+00 -1.87699585e+01
      3.23263454e+00 -1.48874664e+01 -2.89167843e+01 -3.45996742e+01
      -7.80732012e+00 -1.63806953e+01 4.54154015e+00</_>
    <_>
      -3.25859833e+00 -4.79379702e+00 3.73108244e+00 -3.75215650e+00
      7.82009244e-01 1.43069334e+01 1.80523682e+01 6.91516161e+00
      1.16571331e+01 -2.44940643e+01 -6.84294796e+00 -6.86567879e+00
      9.55466986e-01 -6.61102757e-02 -1.58906212e+01 3.73009443e+00
      -6.37008572e+00 6.03223085e+00 7.30498791e+00 -6.28406572e+00
      -9.56860638e+00 7.87507582e+00 -1.01247816e+01 1.09886162e+02
      1.98290348e+01 -1.58910685e+01 5.23273706e+00 3.37405090e+01
      2.10458336e+01 -3.04126301e+01 -2.11240635e+01 -2.20422077e+01
      -2.74607201e+01 -9.37067127e+00 -4.67772007e+00</_>
    <_>
      6.41285753e+00 -1.20817238e+02 4.84077797e+01 -1.24798920e+02
      -6.33882179e+01 -5.16729507e+01 -1.60913506e+01 -1.35983686e+01
      -1.03445511e+01 2.79717979e+01 -3.28219199e+00 -1.44925346e+01
      -7.52994108e+00 -1.59568691e+01 3.29293656e+00 -7.41616774e+00
      9.58358097e+00 -8.48889732e+00 1.25035524e+01 -3.72608376e+00
      3.88390326e+00 3.37973666e+00 1.52917004e+00 -1.22963371e+01
      7.03652048e+00 -3.49341822e+00 4.03383636e+00 6.86293316e+00
      -4.06775713e+00 1.93667531e+00 2.17530489e+00 4.39794588e+00
      -1.00299826e+01 -2.52061367e+00 -6.95898581e+00</_>
    <_>
      1.12434700e+02 5.40468369e+01 4.46627235e+01 6.42314529e+01
      -1.15732521e+02 -4.87734451e+01 1.75982227e+01 2.01110935e+01
      9.54848404e+01 3.99757042e+01 1.26910515e+01 1.09337626e+01
      -4.33296776e+01 -2.09541416e+01 -6.07576084e+00 2.02125669e+00
      -2.09003658e+01 -3.33034172e+01 7.38949347e+00 -9.94026661e+00
      -1.02466774e+01 1.38412297e+00 2.42663646e+00 -1.39002237e+01
      2.68740296e+00 4.93813944e+00 4.04171658e+00 7.48094511e+00
      2.53750086e+00 1.71217874e-01 -6.18425727e-01 6.37276077e+00
      6.89717531e-01 -1.40869036e+01 -8.16258812e+00</_>
    <_>
      5.07477903e+00 -7.61706619e+01 -8.03580170e+01 7.67781067e+01
      1.72340202e+01 2.85974388e+01 3.72798309e+01 9.89566193e+01
      -3.39178925e+01 1.39623520e+02 -2.29080078e+02 -4.70903854e+01
      -1.36630678e+01 -5.28872261e+01 3.38633132e+00 -1.64334469e+01
      3.69865761e+01 -4.32017975e+01 -5.72832146e+01 9.11477470e+00
      -5.14587879e+00 -9.08111751e-01 -1.12706661e+00 5.67308307e-01
      3.76675725e+00 1.00444517e+01 2.03051281e+01 6.52806902e+00
      -1.23236732e+01 1.02461863e+01 -2.40083957e+00 2.08828950e+00
      2.91171312e+00 -5.01114225e+00 -3.14485002e+00</_>
    <_>
      1.13248985e+02 5.60370560e+01 1.71921902e+01 3.25998421e+01
      -8.29705582e+01 -3.60606766e+01 1.03615685e+01 4.69679022e+00
      -9.01675415e+00 2.70733595e+00 4.98201132e+00 -1.12697411e+01
      -1.14903812e+01 -1.67451782e+01 7.69311264e-02 -6.39237213e+00
      1.99813328e+01 2.86071777e+00 6.05611038e+00 -8.89733887e+00
      6.69114208e+00 2.25065899e+00 -1.99965286e+00 -5.08273506e+00
      7.76803923e+00 4.12636042e-01 -2.29007244e+00 -4.29016590e+00
      -1.26268139e+01 9.17864513e+00 -1.82414379e+01 5.88486528e+00
      6.22939348e+00 9.05468750e+00 4.45251989e+00</_>
    <_>
      7.98389053e+01 5.45914650e+01 -5.40445938e+01 -4.38215714e+01
      7.85897827e+00 -3.07407684e+01 8.71474361e+00 -4.52495766e+00
      -2.38952637e+01 -2.39249253e+00 6.63578176e+00 -1.24164295e+01
      -3.46852303e+01 -2.47148113e+01 -1.13969440e+01 -7.75958896e-02
      1.48945551e+01 -6.81460381e+00 7.28609896e+00 -1.41755962e+01
      -2.89402342e+00 2.17811465e+00 -3.03031206e+00 -3.24683309e+00
      3.52320838e+00 1.65198498e+01 8.78088188e+00 2.38314199e+00
      -1.14850655e+01 -1.88645184e+00 -1.86584187e+01 5.12168407e+00
      1.89518368e+00 1.21918812e+01 1.57468522e+00</_>
    <_>
      -5.30590935e+01 1.46777802e+01 1.13745947e+01 -8.44988346e+00
      2.69585681e+00 -1.11727600e+01 4.91524086e+01 1.62627029e+01
      9.44306946e+00 -4.56094055e+01 -7.38617277e+00 -9.16339493e+00
      -4.32345886e+01 -2.44496937e+01 -1.90991745e+01 -2.63922100e+01
      3.05279388e+01 -1.76892471e+01 2.64153271e+01 -5.56626587e+01
      3.14314308e+01 -1.56506090e+01 -3.84664750e+00 4.59925318e+00
      1.33161535e+01 -1.54089737e+01 2.10353546e+01 3.18266296e+01
      -8.06925583e+00 2.41887531e+01 1.33580189e+01 2.38384705e+01
      9.81699276e+00 5.89740562e+00 5.90370846e+00</_>
    <_>
      -6.93711472e+01 7.68837204e+01 -9.67502670e+01 -5.68003578e+01
      -8.51465607e+01 2.19322147e+01 -5.76494904e+01 2.47137451e+01
      -1.10366573e+01 2.19946899e+01 -3.60466428e-02 6.18080482e+01
      -4.06923637e+01 2.43926163e+01 1.83644543e+01 -3.26564026e+01
      3.99330258e+00 1.69375019e+01 -1.18050270e+01 -3.04572220e+01
      -2.62390118e+01 2.05059795e+01 -9.27725601e+00 1.17390900e+01
      -8.82327957e+01 6.23699265e+01 -9.65665531e+00 3.85029449e+01
      -2.13624954e+01 2.68748283e+01 -2.13769093e+01 1.94175625e+01
      -4.37131538e+01 -6.61044979e+00 1.27180891e+01</_>
    <_>
      8.14210534e-01 -1.09864349e+02 5.13825912e+01 -1.09902550e+02
      -4.48239822e+01 -2.70532284e+01 8.00393200e+00 5.56596413e+01
      -2.39653397e+01 4.86898232e+01 4.48133049e+01 -1.86889381e+01
      -1.13403397e+01 -1.04261475e+01 -2.46023011e+00 -5.39581251e+00
      8.78159714e+00 -3.33682418e+00 4.65401602e+00 -5.14848757e+00
      7.44599044e-01 -4.27101421e+00 -1.44979649e+01 -1.49250517e+01
      3.67633915e+00 2.64925981e+00 6.60986423e+00 8.68813038e+00
      -7.06708145e+00 3.65421748e+00 -2.85349584e+00 8.57035923e+00
      4.00755644e+00 -1.32620931e+00 -4.67958307e+00</_>
    <_>
      -6.47907715e+01 3.27165260e+01 1.07363806e+01 2.13845673e+01
      2.61763668e+01 -6.93700943e+01 -1.73934784e+01 5.22940493e+00
      -8.19619751e+00 1.49515829e+01 1.37364244e+01 4.02896821e-01
      4.82331276e+00 -4.78193245e+01 -1.25407314e+01 1.18079128e+01
      6.30979776e+00 -1.06223650e+01 -3.19259834e+00 -3.69692726e+01
      1.40596895e+01 4.69726944e+01 -2.14369183e+01 -1.23638687e+01
      -6.44773769e+00 -7.17260551e+00 1.24143305e+01 -6.58318680e-03
      -1.40906973e+01 -1.08643103e+00 -1.85254645e+00 -7.29259348e+00
      1.79715157e+01 -1.79990256e+00 -1.79520645e+01</_>
    <_>
      1.71552134e+00 -7.97540188e+00 -3.97185612e+00 -7.15993702e-01
      3.88006163e+00 2.09656963e+01 -2.63573575e+00 6.92935407e-01
      1.84428329e+01 3.34736013e+00 -1.37790565e+01 1.73849392e+01
      -3.50806165e+00 8.78671494e+01 -4.54642487e+01 1.96724319e+02
      1.11031075e+02 -2.94410057e+01 6.70165405e+01 5.91686487e+00
      -9.16216946e+00 2.19989276e+00 3.25898552e+00 -8.21058083e+00
      -1.19015608e+01 1.90305462e+01 4.12722588e+01 -1.15289915e+00
      -1.21325073e+01 3.00985146e+01 7.85033512e+00 -1.17425668e+00
      -1.65860808e+00 -1.01551476e+01 1.83263934e+00</_>
    <_>
      -5.52376938e+00 -7.89066238e+01 8.23505478e+01 -1.17050331e+02
      -2.35416145e+01 5.29519618e-01 3.34349747e+01 1.29210205e+02
      -4.34454956e+01 7.47922974e+01 8.45062256e+01 -3.07550335e+01
      -9.92923164e+00 -4.33012247e+00 -1.54895077e+01 -8.64469719e+00
      4.92405367e+00 -4.48449373e+00 -4.82993937e+00 -4.11203480e+00
      1.63474882e+00 7.15394974e+00 1.95461369e+01 -1.05768242e+01
      -1.01889439e+01 8.79527950e+00 1.35546436e+01 6.08412838e+00
      -1.89091551e+00 3.36942124e+00 -7.31867409e+00 4.75610638e+00
      1.17756386e+01 -6.12867546e+00 -2.31552649e+00</_>
    <_>
      -8.68791809e+01 5.16594315e+01 -2.26150227e+01 1.66528368e+00
      -1.67370033e+01 -5.20625572e+01 -4.12782822e+01 2.27362556e+01
      2.78534383e-01 1.12624121e+01 1.00671167e+01 -1.17695312e+01
      -1.33627777e+01 -2.23057346e+01 2.35316963e+01 -7.80400801e+00
      2.38427334e+01 -6.71334600e+00 1.48831539e+01 -2.26115570e+01
      -1.43433275e+01 -2.52661686e+01 2.44338942e+00 2.86043572e+00
      -1.24858942e+01 2.12419796e+01 1.76076832e+01 1.55356989e+01
      -3.59953135e-01 6.71241903e+00 -2.96972408e+01 5.66079044e+00
      -1.85505092e-01 2.33224481e-01 -4.25436449e+00</_>
    <_>
      -1.85318184e+00 -6.22972565e+01 3.31831207e+01 -5.66438713e+01
      -1.28200130e+01 5.04057312e+00 2.35413570e+01 6.96749115e+01
      -1.31144066e+01 1.32080612e+01 2.74779110e+01 1.14982615e+01
      -1.24598894e+01 -1.83361816e+01 1.61207180e+01 8.37458038e+00
      1.66387157e+01 -4.07773972e+00 -5.76749372e+00 -5.97142935e+00
      -1.90389957e+01 -3.14779034e+01 -8.84852676e+01 -4.05112839e+01
      1.11411152e+01 9.80163515e-01 -2.18613696e+00 5.48338509e+00
      -1.93026876e+00 -8.60749340e+00 -8.76048470e+00 -6.95736229e-01
      -1.03761997e+01 3.02703238e+00 -4.53927946e+00</_>
    <_>
      -2.33578920e+00 -8.61265106e+01 -8.37406158e+01 6.99971924e+01
      5.16507864e+00 -5.95118478e-02 3.40871506e+01 5.39089203e+01
      -2.27196293e+01 7.20091858e+01 -9.56736298e+01 -2.18578987e+01
      -1.83765469e+01 -2.97937698e+01 1.36318803e+00 -1.41944094e+01
      1.36777468e+01 -9.90498161e+00 5.26644897e+00 -8.76610947e+00
      4.73661184e+00 1.70343935e-01 -2.10101843e+00 -9.74305153e+00
      5.98343277e+00 2.82803988e+00 1.42668352e+01 8.09869862e+00
      -8.78755569e+00 5.03135777e+00 -4.06422424e+00 4.35681200e+00
      -5.23176718e+00 9.09900129e-01 -2.23299694e+00</_>
    <_>
      1.06899166e+01 -1.53349869e+02 -1.33640747e+02 7.39816208e+01
      -3.36482773e+01 -3.51444435e+01 9.80988503e+00 -2.50410533e+00
      -2.34012127e+00 -9.11772919e+00 5.45191116e+01 -1.09683895e+01
      -1.33761768e+01 -1.04688520e+01 -1.12250161e+00 -3.56027341e+00
      1.31142292e+01 -7.84543276e+00 7.45438290e+00 -9.93162537e+00
      4.93325806e+00 3.06023002e+00 9.42172110e-01 -5.06521177e+00
      1.03410254e+01 4.45465422e+00 6.36739826e+00 6.62271833e+00
      -1.05141182e+01 -6.57382086e-02 -7.52614069e+00 5.47774029e+00
      -8.07580376e+00 7.74826336e+00 -6.59321499e+00</_>
    <_>
      2.22999554e+01 3.79439592e+00 -8.14722824e+00 -9.15965652e+00
      3.09341888e+01 2.43542843e+01 -6.18891907e+00 -1.41635475e+01
      2.86198826e+01 1.78437996e+01 8.70959663e+00 -1.26861420e+01
      5.10471153e+00 -1.23697348e+01 2.24888533e-01 -9.20342064e+00
      1.18490601e+01 8.29532623e+00 8.98959577e-01 -1.81672440e+01
      -9.23678589e+00 -3.70559835e+00 -8.15195370e+00 -8.02356625e+00
      3.78684700e-01 1.99997330e+01 9.76714897e+00 5.33562565e+00
      -9.54866123e+00 -3.11921567e-01 -2.53382816e+01 4.42867374e+00
      3.38456955e+01 1.88740349e+00 -7.42341089e+00</_>
    <_>
      -4.36360788e+00 -1.29521820e+02 -5.25167999e+01 -1.39956846e+01
      -4.66555138e+01 -6.23392944e+01 -1.14386482e+01 -5.12250404e+01
      1.41722355e+01 -4.38147736e+01 3.40052567e+01 -8.51241493e+00
      -1.26352053e+01 -1.95544071e+01 -1.75266933e+01 -6.65130949e+00
      3.71785698e+01 -4.00366211e+01 -8.65177155e+01 6.10053420e-01
      -9.21486855e+00 -3.99342728e+00 -2.78109455e+00 -2.16760683e+00
      -1.01759787e+01 1.72908478e+01 2.64701004e+01 8.01607990e+00
      -1.84083033e+00 7.25915194e+00 -1.30625544e+01 4.54751205e+00
      2.08833656e+01 -1.11254826e+01 -5.16240501e+00</_>
    <_>
      7.31268346e-01 -1.09371628e+02 5.17554436e+01 -1.09569084e+02
      -4.43923569e+01 -2.62564316e+01 8.69107246e+00 5.76684303e+01
      -2.44942074e+01 4.93481445e+01 4.58707657e+01 -1.86863728e+01
      -1.13662090e+01 -1.02689972e+01 -2.56967640e+00 -5.43657398e+00
      8.63211536e+00 -3.37259626e+00 4.46970797e+00 -5.19709063e+00
      5.46361864e-01 -4.77731609e+00 -1.55024538e+01 -1.49871912e+01
      4.02797842e+00 2.74557090e+00 6.50202990e+00 8.55574131e+00
      -7.82499027e+00 3.98958588e+00 -3.13520837e+00 8.24149036e+00
      4.24212933e+00 -1.03870285e+00 -4.55439329e+00</_>
    <_>
      -3.94451523e+01 1.91434155e+01 1.30502148e+01 1.67680321e+01
      2.50980835e+01 -4.48600197e+01 -2.14679003e+00 -4.25993013e+00
      -8.35361290e+00 1.30156040e+01 7.79481220e+00 2.11984806e+01
      1.90417767e+01 -3.56834221e+01 -3.47031364e+01 7.94773531e+00
      -8.41280460e+00 1.13345492e+00 -1.19588079e+01 -2.50735130e+01
      1.84406548e+01 5.52209997e+00 2.58211941e-01 -1.17296820e+01
      -9.94146442e+00 7.90526533e+00 -5.03698444e+00 -5.33854294e+00
      -1.24709673e+01 -6.71106911e+00 9.28688717e+00 -4.51839113e+00
      2.36071730e+00 -1.06006756e+01 -2.29563284e+00</_>
    <_>
      -2.26155128e+01 1.02088604e+01 1.02302771e+01 1.11578255e+01
      1.89685173e+01 -2.67095490e+01 -1.93635044e+01 1.04965811e+01
      6.30455637e+00 -1.18736515e+01 -4.33172655e+00 -7.92890549e+00
      -4.32239189e+01 2.46054096e+01 -4.45639849e+00 -2.19558010e+01
      1.05716400e+01 1.52307558e+00 3.11862469e+00 -2.61722393e+01
      3.06949387e+01 -5.02991066e+01 1.47520523e+01 -2.38798285e+00
      -3.33022714e+00 -1.04790621e+01 -7.24599409e+00 -6.82877541e+00
      -3.31304512e+01 -3.34783411e+00 2.68768291e+01 -4.37578278e+01
      1.88014736e+01 1.18194933e+01 -2.43187962e+01</_>
    <_>
      -4.87484932e+01 2.31117496e+01 1.23132162e+01 1.79413929e+01
      2.44750576e+01 -5.04004173e+01 1.20115004e+01 -1.25088091e+01
      -1.46479473e+01 2.56786613e+01 1.23916931e+01 3.56581802e+01
      2.07507801e+01 -4.32857056e+01 -3.65438004e+01 4.81022882e+00
      3.66886377e+00 -6.01780033e+00 -5.99935007e+00 -3.74885635e+01
      2.26137657e+01 -1.23456221e+01 2.80630064e+00 -5.15569067e+00
      -3.98041606e+00 8.98749733e+00 3.13330722e+00 -1.74693317e+01
      -1.43612776e+01 -1.60198689e+01 2.77283478e+00 9.57734394e+00
      -1.87077916e+00 -1.54297638e+01 2.83000469e+00</_>
    <_>
      4.76284075e+00 -1.29745132e+02 -5.12404394e+00 -7.28386536e+01
      -6.10594711e+01 -5.51217842e+01 -1.62588730e+01 -3.46987762e+01
      2.04089904e+00 5.53144169e+00 3.45137453e+00 -1.56736021e+01
      -1.21415272e+01 -1.48028641e+01 -6.17967129e+00 -7.92412043e+00
      2.47533092e+01 -2.24895916e+01 -2.32168598e+01 -1.94098914e+00
      6.81597042e+00 6.67672873e+00 1.59106817e+01 -2.63477778e+00
      5.06536341e+00 4.65851212e+00 7.70830202e+00 6.38039017e+00
      -9.26146984e+00 7.82951534e-01 -8.33711243e+00 4.57986355e+00
      -3.01059461e+00 3.21148610e+00 -4.59259844e+00</_>
    <_>
      -1.99106407e+01 9.11711273e+01 -1.29661377e+02 -9.09553528e+01
      -7.00401382e+01 3.53976364e+01 -4.70955162e+01 9.47372627e+00
      -2.14952431e+01 1.79875698e+01 3.69220424e+00 3.42373695e+01
      -6.08575325e+01 -1.35470572e+01 -9.33800888e+00 1.48426256e+01
      -2.03312912e+01 4.18895769e+00 -6.99111509e+00 -1.33108110e+01
      -8.52178383e+00 1.42403021e+01 6.04670143e+00 -2.57508240e+01
      2.87691593e+01 -1.03142834e+00 9.65716171e+00 1.25976257e+01
      -2.54851580e+00 -2.02560654e+01 7.18054533e+00 7.84054518e+00
      9.38566589e+00 -8.88777637e+00 -6.97595406e+00</_>
    <_>
      4.43344917e+01 1.64364204e+01 4.35141869e+01 4.81990509e+01
      -5.84257774e+01 4.17004318e+01 -3.27383919e+01 -3.02867641e+01
      -9.95428925e+01 -2.08795891e+01 3.71115065e+00 -2.42904339e+01
      6.62472820e+00 -1.00580788e+01 4.66014767e+00 -9.71155071e+00
      8.77971888e-01 -3.11393166e+01 1.43319702e+01 -1.26297817e+01
      3.48083049e-01 1.81287384e+00 -4.41270262e-01 -1.54878168e+01
      1.98795104e+00 1.25613222e+01 1.44719000e+01 9.92274189e+00
      -4.43176842e+00 -9.95867825e+00 -4.33884382e+00 6.48616648e+00
      -2.56187820e+00 8.29284191e+00 -1.03883734e+01</_>
    <_>
      1.22248001e+02 6.24867668e+01 -2.20798798e+01 -1.03477640e+01
      -3.21232147e+01 -6.82320480e+01 2.94695015e+01 1.57266665e+01
      -1.60044460e+01 -1.40746431e+01 -5.11494398e+00 -1.89490929e+01
      4.84848900e+01 1.91935616e+01 1.85177212e+01 -2.51249142e+01
      3.02621269e+01 -3.40562987e+00 8.31202507e+00 -1.07375727e+01
      1.47867041e+01 5.13528109e+00 -4.75010443e+00 -9.85931969e+00
      2.08787036e+00 4.56216860e+00 -2.58870673e+00 3.99370003e+00
      -7.69839191e+00 9.21406841e+00 -1.66562271e+01 8.10901546e+00
      8.67302227e+00 -4.40546894e+00 -2.66003466e+00</_>
    <_>
      -3.42061806e+01 1.85272331e+01 1.73341446e+01 2.31640224e+01
      3.47875824e+01 -6.07914581e+01 -7.04712524e+01 3.55483398e+01
      1.19671040e+01 -2.15718689e+01 8.88131738e-01 -3.42985916e+01
      5.74605179e+00 -2.73747520e+01 -1.87449455e+01 1.33238087e+01
      -2.04551964e+01 4.39631033e+00 -7.05299568e+00 2.35357494e+01
      -4.35054827e+00 6.40791321e+01 -1.50877495e+01 -2.05581608e+01
      7.68488467e-01 1.12925663e+01 7.06799328e-01 6.23262405e+00
      4.06541491e+00 8.19739437e+00 1.20464287e+01 6.24992180e+00
      -8.67915154e+00 1.37456779e+01 6.81583107e-01</_>
    <_>
      -3.04802227e+00 -6.38313293e+01 6.68584900e+01 -9.26470566e+01
      -1.60094891e+01 1.35701618e+01 3.66793022e+01 1.18096588e+02
      -3.10526485e+01 4.51221809e+01 6.96753235e+01 -1.61773605e+01
      -9.62737560e+00 -1.20998602e+01 -2.55042982e+00 -4.35718346e+00
      1.00693283e+01 -6.62155056e+00 -4.51906586e+00 -5.49612856e+00
      -1.68863153e+00 4.24391651e+00 7.04229307e+00 1.34215903e+00
      4.77386296e-01 9.36262608e+00 1.30164318e+01 8.94536591e+00
      -5.82108879e+00 -6.79484129e-01 -1.11248875e+01 2.96960449e+00
      1.01975460e+01 -5.70384884e+00 -6.32785749e+00</_>
    <_>
      -4.93432283e+00 -1.17362442e+01 1.37891521e+01 -4.79228306e+00
      1.23044662e+01 2.16624069e+01 3.17190723e+01 3.01771603e+01
      1.42272415e+01 -5.67563400e+01 -1.46962633e+01 3.09547653e+01
      -8.98197746e+00 -3.38020592e+01 1.59380856e+01 -4.20574999e+00
      5.68569803e+00 3.87510276e+00 7.84515667e+00 -1.57109385e+01
      -1.16658676e+00 5.31168175e+00 8.54621124e+00 4.88533974e+01
      -1.93486893e+00 -7.12576771e+00 2.13045311e+01 3.85496674e+01
      8.87869263e+00 1.96473179e+01 1.66917992e+01 6.62217560e+01
      5.55169144e+01 -4.91340733e+00 -1.02140770e+01</_>
    <_>
      -8.71854172e+01 6.33378296e+01 -5.44715080e+01 -2.45271511e+01
      -6.91030579e+01 -4.84116745e+00 -4.81268734e-01 -5.24781227e+00
      -1.56284761e+01 3.17349243e+01 8.94944191e+00 5.42699394e+01
      1.75912361e+01 -8.97070599e+00 -1.66439095e+01 -3.60621567e+01
      2.27128773e+01 -8.12424088e+00 1.74939957e+01 4.43837500e+00
      -2.01840744e+01 -9.37172711e-01 1.58984184e-01 -2.48394594e-01
      -1.72982178e+01 3.91900902e+01 1.02952433e+00 2.69617596e+01
      -2.55898952e+01 -4.51589495e-01 -3.50934887e+00 1.26331549e+01
      -2.40430031e+01 -5.11936808e+00 -1.22138143e+00</_>
    <_>
      1.13363438e+01 -1.55332474e+02 -9.77625427e+01 1.48113556e+01
      -6.26134224e+01 -6.03809853e+01 -1.45622978e+01 -5.95759659e+01
      1.24529686e+01 -4.19382324e+01 5.33809357e+01 -1.17602091e+01
      -7.02040148e+00 -1.38844824e+01 -9.51189137e+00 -9.34871578e+00
      4.46899109e+01 -4.47728920e+01 -7.29860687e+01 1.56001015e+01
      2.52197433e+00 -2.08562922e+00 9.57410455e-01 -4.76040840e+00
      3.01728415e+00 -7.12983990e+00 7.50398970e+00 8.77397919e+00
      -2.70124108e-01 6.40856457e+00 8.41721535e+00 3.90929937e+00
      -1.06603527e+00 -1.14644289e+01 4.42783880e+00</_>
    <_>
      2.27962227e+01 2.10800982e+00 -7.11354542e+00 -9.48640728e+00
      3.03179474e+01 2.27681122e+01 -4.02713919e+00 -1.13575964e+01
      2.83249969e+01 1.52733145e+01 7.84600878e+00 -1.38333979e+01
      1.04902239e+01 -1.05694866e+01 1.99647319e+00 -1.01469717e+01
      1.37918863e+01 1.10984478e+01 2.69825220e+00 -1.71211071e+01
      -7.25230455e+00 -1.94501567e+00 -5.37119818e+00 -8.54499149e+00
      -4.95157242e-01 2.25372906e+01 9.91738605e+00 6.69045448e+00
      -1.02723150e+01 1.57595873e+00 -2.58980446e+01 5.71144772e+00
      3.17814407e+01 -3.20554852e-01 -1.42370958e+01</_>
    <_>
      -8.68647995e+01 3.49661674e+01 -6.47839584e+01 -4.60043831e+01
      -9.27060089e+01 2.12936954e+01 5.16667099e+01 2.41729546e+00
      2.45450363e+01 -3.07285271e+01 -6.56912422e+00 -9.32622070e+01
      -1.60730495e+01 -1.68820248e+01 -8.57483292e+00 1.05554762e+01
      1.79028549e+01 -1.87070236e+01 -9.72298622e+00 -2.77885303e+01
      1.36305990e+01 1.00171528e+01 -2.98151207e+00 -2.33078880e+01
      5.65867519e+00 1.55873976e+01 -1.09043608e+01 -3.53423452e+00
      7.14985847e+00 -9.63181305e+00 -6.31589031e+00 -4.67681503e+00
      -2.98980856e+00 3.42764044e+00 -7.16311598e+00</_>
    <_>
      -8.37989120e+01 6.31059723e+01 -4.83694611e+01 -1.81462955e+01
      -5.75019417e+01 -2.18555336e+01 -4.36086845e+01 2.39489536e+01
      3.70621991e+00 3.99943900e+00 4.83428907e+00 -1.43684030e+00
      1.85577793e+01 -2.37870045e+01 -8.16435146e+00 -1.64129791e+01
      1.07631664e+01 -2.83516240e+00 1.93992443e+01 1.84679260e+01
      -4.26451254e+00 -1.83630199e+01 7.91688395e+00 -1.53232012e+01
      1.89174194e+01 -3.71730947e+00 2.32649231e+01 7.17132044e+00
      3.56223464e+00 -5.88660121e-01 4.66482210e+00 -4.45956707e+00
      9.91466236e+00 6.60854995e-01 -1.11872959e+01</_>
    <_>
      -1.15764594e+00 -8.84772034e+01 -8.63507156e+01 7.27922287e+01
      5.63182688e+00 -1.35550272e+00 3.33788528e+01 5.31056671e+01
      -2.32284584e+01 6.98288422e+01 -8.29180984e+01 -1.95215740e+01
      -1.96042538e+01 -2.58541527e+01 2.87513494e+00 -1.46208534e+01
      1.01594858e+01 -5.22326279e+00 1.29877844e+01 -9.30236816e+00
      5.53422785e+00 3.71390724e+00 -3.99855763e-01 -1.05555296e+01
      5.07372856e+00 2.35743189e+00 1.34172764e+01 4.82747126e+00
      -6.45903826e+00 1.60279238e+00 -4.44637966e+00 4.51724482e+00
      -7.36209059e+00 1.47100031e+00 -2.77414155e+00</_>
    <_>
      7.78568459e+00 -1.63450623e+02 -1.24945702e+02 5.32131500e+01
      -4.40884132e+01 -4.96269646e+01 1.99059069e+00 -2.46765270e+01
      5.87930822e+00 -3.12502823e+01 6.21125603e+01 -1.05728426e+01
      -1.42004671e+01 -1.45785151e+01 -7.83900404e+00 -4.37839031e+00
      3.18840408e+01 -3.22855072e+01 -5.45817757e+01 -3.97879541e-01
      -1.69547439e+00 -2.73971367e+00 3.30859154e-01 -2.24452162e+00
      3.43142176e+00 1.44942284e+01 2.13612728e+01 7.10954666e+00
      -1.23973351e+01 3.22025967e+00 -9.93751907e+00 3.72066712e+00
      3.79048991e+00 -8.26296926e-01 -7.82419634e+00</_>
    <_>
      1.38410004e+02 6.85736389e+01 -8.71841717e+00 7.59163666e+00
      -6.15650711e+01 -7.56309738e+01 3.09220791e+01 1.84582710e+01
      -2.77928104e+01 -1.54296331e+01 -4.59319973e+00 -2.11079445e+01
      3.35649910e+01 2.87373447e+00 1.22138977e+01 -1.88749371e+01
      5.05204620e+01 2.82082138e+01 4.43690252e+00 -9.47508812e+00
      1.34433651e+01 5.12480497e+00 -6.31449127e+00 -7.23184919e+00
      4.67611760e-01 6.66077232e+00 5.88655996e+00 6.33321285e+00
      -7.81443453e+00 3.12048697e+00 -1.41051292e+01 3.80056715e+00
      4.63737011e+00 -3.20067048e+00 -3.16440988e+00</_>
    <_>
      -8.66888809e+01 6.20172577e+01 -5.11087189e+01 -2.17228165e+01
      -6.52572403e+01 -8.45442200e+00 3.85809034e-01 -6.17384148e+00
      -1.55700140e+01 3.28637238e+01 9.66880322e+00 5.22412910e+01
      1.77020645e+01 -9.98665714e+00 -1.41495209e+01 -3.33652458e+01
      2.11573296e+01 -7.38261461e+00 1.63545265e+01 6.95461559e+00
      -1.77403965e+01 7.86323428e-01 -4.99134809e-01 -1.37963402e+00
      -1.12867785e+01 3.77060814e+01 3.35551238e+00 2.65131359e+01
      -2.37003632e+01 5.45420349e-01 -3.82382894e+00 1.06274214e+01
      -1.86535301e+01 -3.84545207e+00 -3.19245744e+00</_>
    <_>
      -9.20973778e+00 1.68982041e+00 8.11213589e+00 4.76545525e+00
      1.24814930e+01 -1.34208953e+00 1.60398693e+01 -6.17427492e+00
      3.21406698e+00 -1.04120245e+01 -6.03617144e+00 -4.24289083e+00
      -2.48432803e+00 1.41405449e+01 -1.85016365e+01 -2.40639520e+00
      -2.93273125e+01 2.64375973e+01 -1.08597460e+01 2.46884403e+01
      -2.00127392e+01 -4.37538052e+00 8.63028145e+00 -9.55878735e+00
      -3.57283745e+01 -2.96902332e+01 3.08311005e+01 -6.12874126e+00
      -1.91322975e+01 -1.60299015e+01 -1.38790808e+01 1.54100904e+01
      -1.11208935e+01 1.22991858e+01 7.89763510e-01</_>
    <_>
      -1.55571055e+00 -6.33797684e+01 3.24241676e+01 -5.51225548e+01
      -1.22882233e+01 4.87859488e+00 2.41966476e+01 6.93602219e+01
      -1.26787958e+01 1.06134872e+01 2.96809158e+01 1.35274115e+01
      -1.19926405e+01 -1.88517113e+01 1.85871449e+01 1.02604456e+01
      1.54103079e+01 -1.51185095e+00 2.18147874e+00 -5.75693417e+00
      -1.72748871e+01 -2.80167847e+01 -7.95478134e+01 -3.93331032e+01
      1.01547565e+01 2.92355037e+00 4.41561967e-01 3.36984897e+00
      -3.37501740e+00 -5.95672989e+00 -8.22950840e+00 -2.61363411e+00
      -1.09932795e+01 2.30625200e+00 -3.72172618e+00</_>
    <_>
      -5.28560715e+01 2.92737103e+01 -2.48243666e+00 2.02939892e+00
      -6.40448904e+00 -1.90751152e+01 5.59123535e+01 -3.15970592e+01
      -8.55275154e+00 9.10072708e+00 3.98924589e+00 -1.29420757e+01
      -3.33237228e+01 1.85275364e+01 5.01244736e+00 -1.70390015e+01
      -2.48544955e+00 1.05608015e+01 2.48250842e+00 2.33859005e+01
      -8.84094524e+00 8.05057049e+00 9.77183402e-01 -2.22344837e+01
      -1.65189114e+01 -3.76917381e+01 2.41213608e+01 2.24416847e+01
      -2.94510517e+01 -3.42066121e+00 -1.38171482e+01 8.23077202e+00
      -7.77369797e-01 -1.15599174e+01 -3.22571850e+00</_>
    <_>
      -7.27237244e+01 2.48977947e+01 -4.00929260e+00 -1.71804154e+00
      -8.85413837e+00 -6.75758972e+01 -4.61559563e+01 2.25452843e+01
      5.29729366e+00 -3.19722843e+00 7.14323711e+00 -4.26775208e+01
      -5.09590416e+01 -4.30205107e+00 3.89489365e+01 -1.76438084e+01
      3.67611275e+01 -2.09401779e+01 1.83845749e+01 -4.94559717e+00
      -8.18331778e-01 8.69148076e-01 3.78698277e+00 -1.13028059e+01
      9.36274719e+00 -1.62159996e+01 7.30662155e+00 1.02610579e+01
      -5.12150669e+00 5.21149337e-01 -9.66996861e+00 3.95904207e+00
      -3.75486970e+00 5.58822775e+00 6.39408302e+00</_>
    <_>
      -7.07584915e+01 5.00638885e+01 -4.12903709e+01 -1.68689499e+01
      -6.20874023e+01 5.12815142e+00 -8.61653042e+00 3.28142190e+00
      -1.15477762e+01 4.05524683e+00 1.98692679e+00 -1.86292229e+01
      -4.54236174e+00 5.48004484e+00 4.31995430e+01 8.82920074e+00
      -1.22808495e+01 2.37311989e-01 -5.17202377e+00 -3.18925915e+01
      1.09286394e+01 -4.09870005e+00 -6.31665182e+00 5.25403082e-01
      -2.60781040e+01 2.68823280e+01 1.23967743e+01 1.57129917e+01
      -1.23220634e+01 7.09818888e+00 -2.06789188e+01 8.50020313e+00
      -8.87165451e+00 5.26272154e+00 1.80079424e+00</_>
    <_>
      -9.89654846e+01 6.17115707e+01 -1.67921734e+01 9.07057571e+00
      -1.90147743e+01 -7.44323578e+01 -2.97273331e+01 7.18455505e+00
      -3.24857450e+00 1.99233875e+01 2.28176632e+01 -5.09410629e+01
      -8.53697968e+00 -4.50761108e+01 6.40256195e+01 2.02186089e+01
      2.31626816e+01 -2.22499142e+01 1.37937574e+01 3.30216074e+00
      -2.61671371e+01 3.60726814e+01 -9.40110493e+00 -2.15072012e+00
      -7.04815292e+00 -2.20897427e+01 -1.78075294e+01 2.08354053e+01
      -9.22333431e+00 1.05805035e+01 3.02240777e+00 8.53004360e+00
      1.13730793e+01 1.85323963e+01 -6.89495897e+00</_>
    <_>
      -6.02309570e+01 3.10085278e+01 7.47940779e+00 1.79724541e+01
      1.97913570e+01 -6.02993164e+01 -1.86675224e+01 6.93086481e+00
      -3.95640159e+00 9.52115631e+00 9.88191986e+00 -6.27693653e+00
      1.01781635e+01 -4.09992104e+01 -1.21255407e+01 1.93368835e+01
      -9.49559593e+00 3.33937943e-01 -8.02949524e+00 -1.59082193e+01
      1.69223309e+01 2.52184696e+01 -9.89792252e+00 -1.54675913e+01
      8.67610264e+00 1.93037033e+01 1.92463660e+00 6.52581406e+00
      -1.12169199e+01 -1.74489364e-01 -6.97766304e+00 7.55901575e+00
      6.27375126e+00 -7.04053545e+00 -5.25601053e+00</_>
    <_>
      1.15089706e+02 6.88942871e+01 -8.62766647e+01 -7.78088150e+01
      3.84048233e+01 -2.99356575e+01 2.50088668e+00 -7.80341291e+00
      -5.26630745e+01 -5.36240292e+00 6.93447781e+00 -8.81993866e+00
      -4.35322304e+01 -3.68439026e+01 -1.22660751e+01 1.16838713e+01
      -8.03210449e+00 -1.17489548e+01 3.63420010e+00 -1.66131287e+01
      -2.61602898e+01 7.10043252e-01 9.72086716e+00 -1.03426428e+01
      1.43638096e+01 -3.47655743e-01 5.66574621e+00 1.18071926e+00
      3.06370091e+00 6.12734365e+00 -2.88864636e+00 6.35283327e+00
      -1.15103741e+01 -7.43520880e+00 -2.39777870e+01</_>
    <_>
      3.80389094e+00 -1.46716705e+02 6.59631252e-01 -9.01038818e+01
      -7.27444687e+01 -8.50509720e+01 -3.79666214e+01 -1.02646645e+02
      1.99713898e+01 -1.93575172e+01 -5.45008583e+01 5.08669853e+00
      -1.39592848e+01 -2.71893139e+01 1.12555161e+01 -2.02979898e+00
      1.38930635e+01 -5.26334715e+00 8.57779694e+00 -8.87058353e+00
      5.51983058e-01 -2.35996675e+00 -1.39216566e+01 -9.28445816e+00
      8.58348656e+00 7.62451410e+00 9.54275513e+00 5.24236107e+00
      -1.08314457e+01 1.33673623e-01 -7.92715311e+00 4.65802050e+00
      -3.67764354e+00 3.24337983e+00 -5.06473970e+00</_>
    <_>
      9.52807999e+00 -1.56197357e+02 -1.46137634e+02 1.01342369e+02
      -1.51876402e+01 -2.43667679e+01 2.23784790e+01 3.66257439e+01
      -1.72767982e+01 1.96671696e+01 3.26483002e+01 -6.57900476e+00
      -1.28901234e+01 -2.14979076e+01 7.83589315e+00 -1.00088243e+01
      -1.37518702e+01 2.34162025e+01 6.03662415e+01 -1.99040737e+01
      8.40471268e-01 6.90672207e+00 9.97249842e-01 -1.78173389e+01
      -5.54817247e+00 1.03470707e+01 6.17545366e+00 5.74356270e+00
      8.08412492e-01 3.37896681e+00 -4.44125462e+00 2.99602723e+00
      7.09888506e+00 -8.20837784e+00 -2.39634871e+00</_>
    <_>
      4.44333982e+00 -7.34855576e+01 -7.76473389e+01 7.54017410e+01
      1.81588783e+01 2.95220833e+01 3.74219704e+01 1.00482788e+02
      -3.41970978e+01 1.41899521e+02 -2.36421356e+02 -4.79732933e+01
      -1.36650457e+01 -5.36482620e+01 2.76562047e+00 -1.64405785e+01
      3.80994072e+01 -4.50886040e+01 -6.19982338e+01 1.07543955e+01
      -5.07096148e+00 -1.32894456e+00 -7.29383826e-01 3.49148750e-01
      3.21788931e+00 1.05569935e+01 2.04832554e+01 6.01263189e+00
      -1.27125082e+01 1.01158209e+01 -1.83395898e+00 2.64208674e+00
      2.62119126e+00 -4.05784702e+00 -3.28559303e+00</_>
    <_>
      -8.48335800e+01 5.75885582e+01 -3.28441658e+01 -8.32291603e+00
      -2.52157116e+01 -4.08862686e+01 -3.81329803e+01 2.23909359e+01
      -1.93469203e+00 7.19896078e+00 7.74225473e+00 6.54855490e-01
      -6.81210458e-01 -3.57026520e+01 -7.58171558e-01 -7.24444532e+00
      1.24235506e+01 -5.36979628e+00 5.00111198e+00 -3.97633209e+01
      -1.08236351e+01 3.23145342e+00 -3.09432054e+00 -4.92211056e+00
      -4.43996811e+01 1.46944780e+01 1.76457062e+01 1.01959686e+01
      1.54812574e+01 1.48056612e+01 -2.71751728e+01 5.30005360e+00
      -1.46942930e+01 5.16058922e+00 2.21921015e+00</_>
    <_>
      1.70955887e+01 8.97510242e+00 -1.49367714e+01 -1.81872921e+01
      3.15118427e+01 3.31833839e+01 -2.94863009e+00 -2.70691719e+01
      3.26734085e+01 2.37641220e+01 1.34126272e+01 -2.05536613e+01
      -7.23697042e+00 -7.86858273e+00 2.63620877e+00 -1.17784929e+01
      3.26323929e+01 -8.77640367e-01 9.89390373e+00 -3.07095451e+01
      3.34591556e+00 7.22188759e+00 5.51167774e+00 -1.06845322e+01
      2.60859642e+01 6.37025595e+00 1.23725538e+01 1.02069702e+01
      -1.68815613e+01 -7.43487072e+00 -1.55077972e+01 1.08544941e+01
      -2.63287163e+01 1.78541107e+01 -1.84989777e+01</_>
    <_>
      1.49951920e+02 8.14095612e+01 -4.40588036e+01 -2.82294350e+01
      -2.63759823e+01 -1.12608002e+02 5.29766693e+01 3.24946098e+01
      -1.07777472e+01 -2.00530167e+01 -1.10714073e+01 -2.09014225e+01
      5.97812386e+01 2.42646465e+01 1.93997078e+01 -2.65622501e+01
      5.27471085e+01 2.73463764e+01 3.19250059e+00 -8.24702740e+00
      2.16714020e+01 5.26683331e+00 -8.06216526e+00 -9.61171818e+00
      -5.96332073e+00 8.71007824e+00 -6.23096883e-01 7.96542263e+00
      -5.77425051e+00 1.14094162e+00 -1.61143093e+01 7.72259045e+00
      8.14935398e+00 -3.21294641e+00 -4.67476547e-01</_>
    <_>
      1.11482306e+01 -1.55616898e+02 -1.37212036e+02 7.78254242e+01
      -3.31820869e+01 -3.48884354e+01 1.07590656e+01 -6.10225387e-02
      -3.47833395e+00 -7.83274984e+00 5.69795990e+01 -1.03692741e+01
      -1.31366854e+01 -1.15500603e+01 3.42330247e-01 -5.74604845e+00
      9.69452095e+00 -4.01421213e+00 1.44437227e+01 -1.07749510e+01
      5.19093227e+00 3.73821998e+00 9.64245081e-01 -6.47168446e+00
      1.01004725e+01 3.42355394e+00 4.43301439e+00 6.11810732e+00
      -9.68141842e+00 3.50811362e-01 -6.39631462e+00 4.99997473e+00
      -7.86380196e+00 6.62514973e+00 -5.26038742e+00</_>
    <_>
      -6.19852905e+01 3.53779526e+01 -2.67283344e+00 6.84669828e+00
      -5.00242853e+00 -3.75648689e+01 4.81169167e+01 -3.67319221e+01
      -1.86915569e+01 3.62028580e+01 1.65967751e+01 1.45633602e+01
      -7.11033583e+00 -1.34196482e+01 1.03573389e+01 -1.66742802e+00
      1.14038639e+01 -5.33539057e+00 2.35140157e+00 5.91530991e+00
      3.69235897e+00 -1.10238533e+01 8.23481750e+00 -7.01603460e+00
      1.30364342e+01 1.08028994e+01 -1.28182125e+01 1.03954096e+01
      -9.46486664e+00 -3.01205921e+00 8.24925780e-01 8.39387131e+00
      -4.56868553e+00 -6.20768070e+00 6.37152386e+00</_>
    <_>
      4.27477341e+01 2.06189289e+01 -2.10005379e+01 -2.16166096e+01
      3.44046326e+01 3.87993050e+01 -2.12378883e+01 -3.09358139e+01
      2.75626755e+01 2.46229324e+01 1.97720051e+01 -2.50546055e+01
      4.78470516e+00 -2.51226387e+01 6.00408459e+00 -1.87838020e+01
      1.55077829e+01 -7.64436483e+00 9.34761906e+00 -1.07536821e+01
      1.47419012e+00 3.74621129e+00 2.22399569e+00 -2.43578701e+01
      -3.53817892e+00 1.49265909e+01 2.23719501e+01 1.60062256e+01
      4.51870680e-01 -1.10765085e+01 8.47761154e+00 1.09619343e+00
      -2.07297349e+00 4.83509493e+00 2.11290669e+00</_>
    <_>
      6.67416229e+01 3.77397957e+01 -5.49334297e+01 -5.23195801e+01
      4.78693085e+01 3.15178890e+01 -1.44110632e+01 -3.39969978e+01
      1.38370361e+01 2.65313606e+01 2.50441895e+01 -2.39819584e+01
      -4.97280273e+01 -6.06000404e+01 -8.31739712e+00 -1.16832018e+00
      -1.54666495e+00 -2.82584076e+01 2.40598469e+01 1.22766066e+01
      2.89240170e+01 -6.82926369e+00 -1.17074461e+01 3.35711002e-01
      -1.25333109e+01 1.66306286e+01 1.81597233e+01 -1.11623299e+00
      -1.52262754e+01 -5.03133249e+00 -2.21843987e+01 2.04934859e+00
      1.48192062e+01 3.02630138e+01 1.03939714e+01</_>
    <_>
      7.42437649e+00 -5.04696732e+01 2.03123779e+01 -5.57520027e+01
      -6.62893581e+00 4.87719536e+00 1.48060532e+01 4.62091331e+01
      -6.53797388e+00 1.44788876e+01 2.59643707e+01 4.99193811e+00
      -1.38417540e+01 -1.99158421e+01 1.26309872e+01 5.33523130e+00
      1.38122587e+01 -3.23735309e+00 8.69021714e-01 -7.15384674e+00
      -1.29233685e+01 -2.45081387e+01 -6.83590622e+01 -3.15254936e+01
      1.11702118e+01 1.64446068e+00 -3.96088921e-02 6.13187504e+00
      -4.15799236e+00 -6.61998272e+00 -8.64850903e+00 2.80545759e+00
      -6.81520605e+00 7.85806751e+00 -3.82894158e+00</_>
    <_>
      9.45621109e+01 4.85380859e+01 3.67293663e+01 5.58897514e+01
      -1.07499290e+02 -2.74896030e+01 9.67200279e+00 8.02022076e+00
      5.32391663e+01 2.71981583e+01 9.64700317e+00 4.68467057e-01
      -3.61140556e+01 -2.01073132e+01 -2.72279859e+00 1.11438751e+00
      -4.94995594e+00 -1.37612047e+01 4.43941116e+00 -1.35548773e+01
      8.89279187e-01 2.01619840e+00 1.84764051e+00 -1.02215710e+01
      8.28609180e+00 4.80611658e+00 5.39972544e+00 3.89543700e+00
      -1.07849503e+01 -9.42175269e-01 -1.02145643e+01 8.05142498e+00
      -5.12146807e+00 1.12941914e+01 -1.11167421e+01</_>
    <_>
      -3.54811001e+00 -1.09039932e+02 4.01760178e+01 -1.15168655e+02
      -5.96469154e+01 -6.99964142e+01 -3.08057442e+01 -7.40118332e+01
      9.72183132e+00 9.62834358e+00 -8.11170349e+01 5.40351868e+00
      -1.56756563e+01 -2.61791592e+01 1.39440174e+01 -1.41747272e+00
      -9.38242912e+00 2.22008705e+01 6.02358055e+01 -2.50292377e+01
      5.02346373e+00 9.91638899e-01 -1.54587755e+01 -1.38103094e+01
      8.73431778e+00 5.99685907e+00 4.19665909e+00 5.05592442e+00
      -3.73409486e+00 -3.14840913e+00 -1.07228079e+01 -4.65888232e-01
      2.94881940e+00 -1.69708133e+00 -3.61811495e+00</_>
    <_>
      -6.77675552e+01 3.29296989e+01 9.04378510e+00 1.80243225e+01
      2.27585430e+01 -6.85997162e+01 -3.77965393e+01 2.50602283e+01
      7.54264116e+00 -1.53761559e+01 4.74905682e+00 -4.55067863e+01
      -4.18946419e+01 -1.44533253e+01 6.15527391e+00 -1.18530769e+01
      2.43022404e+01 -1.56796961e+01 2.21503468e+01 -1.11083746e+01
      1.01420820e+00 2.36277027e+01 -9.79805470e+00 -7.78704929e+00
      1.93216820e+01 6.82771778e+00 2.27617416e+01 1.83066273e+00
      9.88351643e-01 6.00851238e-01 -1.44612169e+01 1.04009314e+01
      -5.31642342e+00 3.58316326e+00 2.19861791e-01</_>
    <_>
      -8.75806656e+01 3.28516350e+01 -2.14775505e+01 -1.54172277e+01
      -3.77437248e+01 -1.58273926e+01 9.05614014e+01 -2.85875931e+01
      -2.55760193e+00 -4.75830078e+00 7.38950539e+00 -4.91821671e+01
      -2.81158962e+01 -1.62605057e+01 1.74556599e+01 -4.26279783e+00
      1.13326645e+01 -8.07600498e+00 6.26535702e+00 5.61834431e+00
      -4.13499832e+01 1.63148880e+01 -7.98860168e+00 -9.55048084e+00
      -2.08920784e+01 2.74959316e+01 4.23306561e+00 1.22657652e+01
      -3.74492073e+01 -1.05829501e+00 -1.49573507e+01 1.69918275e+00
      1.47296352e+01 -1.73936920e+01 -8.24802494e+00</_>
    <_>
      -5.95050659e+01 3.39163971e+01 -2.14581847e+00 6.69169188e+00
      -4.07692480e+00 -3.58271332e+01 4.68809395e+01 -3.53793449e+01
      -1.74732685e+01 3.37066345e+01 1.53187494e+01 1.27871647e+01
      -9.48889351e+00 -1.09473124e+01 9.24151993e+00 -2.65022349e+00
      1.07525053e+01 -4.43509912e+00 1.79470754e+00 4.82573605e+00
      4.76642847e+00 -1.02044697e+01 7.75981331e+00 -7.95292950e+00
      1.02516966e+01 7.42514372e+00 -1.12317038e+01 1.11394014e+01
      -9.92281151e+00 -3.21463394e+00 7.46332526e-01 8.28485489e+00
      -5.73583221e+00 -7.28607321e+00 6.88533735e+00</_>
    <_>
      -8.67522507e+01 6.29512825e+01 -5.78469658e+01 -2.29353905e+01
      -6.52054291e+01 -2.25777206e+01 -4.82601662e+01 2.13453064e+01
      3.68308997e+00 1.00469713e+01 7.12898636e+00 -8.78348160e+00
      -1.93055820e+01 -3.62786937e+00 2.84530048e+01 -1.60500927e+01
      3.86736336e+01 -1.70198803e+01 1.61283035e+01 1.91568637e+00
      -1.78487225e+01 -9.79450321e+00 5.16635895e+00 -1.01184678e+00
      -1.41683550e+01 -1.15211411e+01 -1.61897888e+01 1.43296413e+01
      -9.35913086e+00 -3.17126942e+00 4.57897806e+00 -7.20395982e-01
      8.12582588e+00 1.18003864e+01 -9.99209118e+00</_>
    <_>
      -3.61443949e+00 -1.29789108e+02 -5.33509102e+01 -1.29795027e+01
      -4.63013458e+01 -6.13826675e+01 -1.47416229e+01 -4.91820297e+01
      1.77246895e+01 -5.25899734e+01 3.05206146e+01 -8.58003902e+00
      -1.12878742e+01 -2.36853752e+01 -1.97715340e+01 -5.46062660e+00
      4.12862167e+01 -4.56014977e+01 -9.76251144e+01 2.93779993e+00
      -9.37901974e+00 -6.34478045e+00 -4.92746162e+00 -4.98103905e+00
      -1.04130936e+01 1.99227295e+01 2.60721912e+01 6.04875994e+00
      1.74297392e-01 6.93001699e+00 -1.48881884e+01 2.75140166e+00
      1.83248558e+01 -9.61299515e+00 -5.61075401e+00</_>
    <_>
      1.13686295e+01 -1.56808075e+02 -1.38851913e+02 7.95100784e+01
      -3.29861412e+01 -3.48488045e+01 1.12756071e+01 9.63931859e-01
      -3.84615421e+00 -7.11492538e+00 5.71640244e+01 -1.05203075e+01
      -1.34031029e+01 -1.15301208e+01 6.53448880e-01 -5.18422890e+00
      9.02326775e+00 -3.04124045e+00 1.73307247e+01 -1.12512589e+01
      5.35677671e+00 3.82497358e+00 9.49392796e-01 -6.21904230e+00
      1.03991871e+01 3.87231827e+00 5.52043962e+00 5.96285439e+00
      -1.03989868e+01 1.47715044e+00 -6.19968748e+00 4.76302958e+00
      -8.69735146e+00 7.26288271e+00 -5.16174603e+00</_>
    <_>
      6.64209223e+00 -1.21114273e+02 4.58095741e+01 -1.21671364e+02
      -6.26388016e+01 -5.11197166e+01 -1.56282578e+01 -1.29262896e+01
      -1.06078320e+01 2.79792976e+01 -2.33555865e+00 -1.39506588e+01
      -7.48891497e+00 -1.58855619e+01 3.91403127e+00 -7.52495670e+00
      8.09640598e+00 -7.05348063e+00 1.60540524e+01 -4.47028732e+00
      3.97282362e+00 3.21858430e+00 3.74439061e-01 -1.30419350e+01
      7.45117140e+00 -3.92835116e+00 3.37438679e+00 6.75542545e+00
      -4.01793957e+00 2.35838509e+00 1.87916911e+00 4.59622860e+00
      -1.05240822e+01 -2.29204845e+00 -7.29228640e+00</_>
    <_>
      -2.90073700e+01 1.17636328e+01 1.06486998e+01 1.27479563e+01
      2.22031116e+01 -3.16029472e+01 1.79740131e-01 -1.60713458e+00
      -2.95887256e+00 3.32410574e+00 1.05240560e+00 7.37196398e+00
      -7.81344032e+00 -7.21456766e+00 -2.04751549e+01 -2.67126012e+00
      -4.50277805e+00 6.15563011e+00 -5.71084452e+00 -4.81825447e+00
      1.18196077e+01 -9.18854809e+00 4.79164743e+00 -1.47641611e+01
      6.87191343e+00 1.81488361e+01 1.97911406e+00 1.57429714e+01
      5.16842508e+00 9.95986938e+00 -1.15367012e+01 -6.35248566e+00
      8.55096042e-01 1.61350381e+00 2.29851270e+00</_>
    <_>
      -6.97178116e+01 4.39903145e+01 -6.70463896e+00 1.10749140e+01
      3.82364482e-01 -6.04690361e+01 -4.46869888e+01 1.99934750e+01
      1.42387378e+00 -2.22208142e+00 8.28940105e+00 -4.11694374e+01
      -2.53996391e+01 -1.45251560e+01 2.76665974e+01 3.15892148e+00
      1.28818970e+01 -6.99930573e+00 5.74573088e+00 -1.04372416e+01
      1.29649954e+01 4.40410728e+01 -1.62565956e+01 -1.74946270e+01
      1.45342178e+01 -1.09711847e+01 2.01415329e+01 2.39260883e+01
      -9.08721256e+00 2.24752799e-01 8.54823589e+00 -2.44943943e+01
      8.62859249e+00 -2.34810323e-01 -5.44590712e+00</_>
    <_>
      -9.61510925e+01 5.47716522e+01 -3.72637215e+01 -1.97687626e+01
      -6.10053177e+01 -9.88579941e+00 6.53190536e+01 -2.17020416e+01
      5.23474073e+00 -4.32258129e+00 6.02836180e+00 -6.74382401e+01
      -9.37810326e+00 -1.57884903e+01 2.09977379e+01 1.06817894e+01
      -1.02778921e+01 4.17667246e+00 8.36666775e+00 1.47563391e+01
      -1.36593351e+01 9.98237991e+00 -5.68100023e+00 -1.65876331e+01
      5.10871792e+00 -1.05418649e-03 1.43282719e+01 3.11006594e+00
      -2.34305305e+01 -4.31743002e+00 -1.11008739e+01 6.63944578e+00
      9.00062752e+00 -7.82178307e+00 -6.99007988e+00</_>
    <_>
      1.39346649e+02 6.84245758e+01 1.11457860e+00 1.90688725e+01
      -7.35048218e+01 -7.99364090e+01 3.69753189e+01 2.75483913e+01
      5.63579941e+01 1.49597940e+01 1.36682463e+00 -3.68080586e-01
      1.39640846e+01 4.87604856e+00 8.32913780e+00 -1.46252708e+01
      2.93901753e+00 -1.91108303e+01 7.69414330e+00 -1.91099625e+01
      -6.17022800e+00 5.03088188e+00 6.78453445e-02 -1.96451626e+01
      -4.15757895e+00 1.44620895e+01 2.56152153e+01 1.93124428e+01
      3.59208798e+00 -1.69761543e+01 8.57636166e+00 -1.46565449e+00
      2.00962806e+00 -5.89080429e+00 -7.51713693e-01</_>
    <_>
      -7.17146835e+01 4.31462708e+01 -1.60123310e+01 -1.90312207e+00
      -2.47462711e+01 -2.81056747e+01 5.02386627e+01 -3.46165390e+01
      -1.49556236e+01 3.31680717e+01 1.55940914e+01 -2.28940582e+00
      -8.59435081e+00 -1.09115868e+01 2.85688248e+01 3.31889248e+00
      9.20315266e+00 -2.03411436e+00 2.84173250e+00 1.29893827e+01
      -4.51792049e+00 -2.72780061e+00 3.50286412e+00 -5.24523163e+00
      7.79422665e+00 1.51814871e+01 -1.83980122e+01 2.66766911e+01
      -6.96158791e+00 5.43381834e+00 4.40161848e+00 5.92900038e+00
      1.42645252e+00 -4.74681807e+00 -2.23825026e+00</_>
    <_>
      6.14513054e+01 2.53237858e+01 7.02437210e+01 8.04973373e+01
      -1.01822853e+02 4.77030487e+01 -4.15929298e+01 -3.64352646e+01
      -1.12273064e+02 -1.47938795e+01 1.14735575e+01 -3.36433144e+01
      -2.89172096e+01 -5.46538086e+01 -1.34560089e+01 -2.64636159e+00
      5.26064262e+01 5.11236153e+01 -3.96566987e-01 -4.40702534e+00
      5.99187279e+00 2.07722640e+00 -3.29123080e-01 -1.41675005e+01
      -2.10867897e-01 8.45099735e+00 1.66009827e+01 1.23059931e+01
      -2.22063136e+00 -8.00389957e+00 6.31065607e+00 -1.58050346e+00
      -2.62042689e+00 -4.64836121e+00 -2.97510684e-01</_>
    <_>
      7.60488176e+00 -1.63352722e+02 -1.23314636e+02 5.03068542e+01
      -4.56686211e+01 -5.08972893e+01 8.52530658e-01 -2.79064579e+01
      7.22433233e+00 -3.37698593e+01 6.30555687e+01 -1.07946234e+01
      -1.43257637e+01 -1.44599495e+01 -8.63009739e+00 -4.55617046e+00
      3.43759651e+01 -3.56275635e+01 -6.15617943e+01 8.03487241e-01
      -1.66746151e+00 -3.23273396e+00 7.99826503e-01 -1.62387884e+00
      3.58217692e+00 1.46032209e+01 2.24329872e+01 7.15821123e+00
      -1.27940531e+01 2.90836453e+00 -1.07136536e+01 3.42024827e+00
      3.98157096e+00 -2.65372843e-01 -7.77654886e+00</_>
    <_>
      -5.68044243e+01 3.20779610e+01 -6.77069569e+00 -1.32388282e+00
      -1.30272799e+01 -1.57796803e+01 5.70965919e+01 -2.92088375e+01
      -7.07839632e+00 5.70007324e+00 2.89845538e+00 -1.53225965e+01
      -3.38483315e+01 1.68062057e+01 1.64322722e+00 -2.10546417e+01
      1.61655867e+00 7.17673874e+00 6.90786076e+00 1.70342808e+01
      -8.04948330e+00 9.95787621e+00 -1.50866938e+00 -2.03999462e+01
      -1.21279869e+01 -3.79566193e+01 2.63126087e+01 2.05410423e+01
      -3.23281746e+01 -2.90851355e+00 -1.16585522e+01 5.81553125e+00
      3.09295225e+00 -1.41011896e+01 -9.51753795e-01</_>
    <_>
      -3.00381637e+00 -7.42462540e+01 7.75324097e+01 -1.08666153e+02
      -1.98830509e+01 1.20377884e+01 3.84815674e+01 1.34065170e+02
      -3.78389587e+01 5.74094238e+01 8.11047211e+01 -1.98296776e+01
      -1.10710592e+01 -1.21245346e+01 -3.06362462e+00 -6.12558794e+00
      1.16734352e+01 -8.39635754e+00 -4.78376436e+00 -5.22816324e+00
      4.41001272e+00 1.09139185e+01 2.73446045e+01 -1.71683121e+00
      -2.33246684e+00 1.18702984e+01 1.33556547e+01 9.89980221e+00
      -4.37318945e+00 1.64279008e+00 -1.04675598e+01 5.07548571e+00
      1.12949629e+01 -4.34283733e+00 -6.12418652e+00</_>
    <_>
      1.06082735e+01 -1.52087677e+02 -1.32544128e+02 7.40530396e+01
      -3.27852554e+01 -3.49071960e+01 9.64442062e+00 -2.33720803e+00
      -1.83350551e+00 -9.89808464e+00 5.63341370e+01 -1.02921057e+01
      -1.30834751e+01 -8.92650700e+00 -1.51362979e+00 -1.37216389e+00
      1.25424271e+01 -6.11864758e+00 1.06182394e+01 -1.01971197e+01
      4.93801975e+00 2.86380410e+00 1.19366813e+00 -5.90412426e+00
      9.71034050e+00 4.68863535e+00 6.32443523e+00 6.56237411e+00
      -1.01509342e+01 2.60844409e-01 -6.69717836e+00 5.56574774e+00
      -8.36643887e+00 8.00909519e+00 -6.63498163e+00</_>
    <_>
      7.66670837e+01 3.11259727e+01 5.39873695e+01 6.75086365e+01
      -8.99446945e+01 1.56285315e+01 -1.96393070e+01 -1.60296917e+01
      -4.12007065e+01 6.24740124e+00 1.18107920e+01 -1.28463459e+01
      -4.98978271e+01 -4.88078651e+01 -1.71892128e+01 7.53614950e+00
      1.89500370e+01 2.29351349e+01 2.94976026e-01 -2.11238327e+01
      -9.92905998e+00 -2.72148561e+00 -3.87648582e+00 -4.10998344e+00
      2.94578290e+00 2.58176861e+01 1.92244625e+01 6.45214748e+00
      -1.37086277e+01 1.83342159e+00 -2.53529491e+01 2.58952284e+00
      1.31126394e+01 1.10934949e+00 -1.41133213e+01</_>
    <_>
      -6.38480759e+01 3.48789902e+01 -2.70497394e+00 5.50064754e+00
      -6.49452496e+00 -3.30085831e+01 6.29728355e+01 -4.31045303e+01
      -1.82585869e+01 3.27005463e+01 1.37582254e+01 4.16835546e+00
      -2.96041794e+01 8.70393562e+00 1.96559544e+01 -1.17164936e+01
      1.06114922e+01 -8.46459121e-02 4.81712484e+00 2.57474461e+01
      -4.62185717e+00 6.56239080e+00 1.05519187e+00 -1.37726746e+01
      1.71550694e+01 9.39339256e+00 -2.53438354e+00 2.38680019e+01
      -4.72987509e+00 8.51088810e+00 -6.37566090e+00 -3.45035338e+00
      8.41408730e+00 5.23643076e-01 -6.38943481e+00</_>
    <_>
      -5.52592506e+01 2.55036812e+01 5.70317554e+00 1.42262220e+01
      1.36696348e+01 -5.02116776e+01 7.02824736e+00 -6.35210943e+00
      -1.03309479e+01 1.90872059e+01 9.55398750e+00 1.61131134e+01
      2.73600693e+01 -4.81945610e+01 -3.09956207e+01 1.01143503e+01
      -5.20429134e+00 -1.15153766e+00 -1.06131506e+00 -2.04295845e+01
      1.41482763e+01 -3.01354179e+01 1.36492271e+01 -1.50064211e+01
      -7.82323694e+00 -4.97232586e-01 8.62677193e+00 9.70040226e+00
      2.79244161e+00 5.36151981e+00 -7.82593632e+00 5.35541964e+00
      -8.43414879e+00 5.58173704e+00 -3.94367981e+00</_>
    <_>
      1.40629761e+02 7.89953232e+01 -7.38516006e+01 -6.20659866e+01
      1.62565670e+01 -6.67171326e+01 2.36543407e+01 9.19169807e+00
      -2.75982132e+01 -8.78843307e+00 1.48991764e+00 -1.76456413e+01
      3.82867765e+00 -1.69271641e+01 2.22252345e+00 -8.62767410e+00
      2.08616962e+01 5.91699409e+00 7.45772934e+00 -3.08149266e+00
      6.44079304e+00 1.55652404e+00 -3.40933895e+00 -1.09007616e+01
      -5.55339193e+00 1.08435345e+01 1.78178787e+01 1.17102642e+01
      -3.22768950e+00 -1.21911211e+01 6.17309332e+00 -1.98559439e+00
      6.20528507e+00 7.73373485e-01 1.11052332e+01</_>
    <_>
      -6.06497993e+01 9.02935715e+01 -1.31648102e+02 -8.06335983e+01
      -1.20836563e+02 4.74735451e+01 -9.84242935e+01 4.60624352e+01
      -3.82058907e+00 1.59623318e+01 -6.38538408e+00 9.99588013e+01
      -1.51687794e+01 1.71706715e+01 -4.47730637e+01 -5.59409142e+01
      7.54167843e+00 1.39656811e+01 6.88611937e+00 1.57751436e+01
      5.85566235e+00 1.53452263e+01 -7.31768465e+00 -8.12447453e+00
      5.88399220e+00 3.29074645e+00 1.97889919e+01 1.23759067e+00
      -2.02279377e+01 1.38585386e+01 -7.78568172e+00 5.80022764e+00
      7.25130558e+00 -1.04175653e+01 1.36017883e+00</_>
    <_>
      -7.15435257e+01 4.29716187e+01 -1.39582367e+01 -5.89892156e-02
      -2.18328152e+01 -3.08338470e+01 5.32083893e+01 -3.81686287e+01
      -1.76886349e+01 3.83919945e+01 1.73894444e+01 4.73675203e+00
      -4.74880791e+00 -1.30546274e+01 2.72992096e+01 3.52087879e+00
      9.14387417e+00 -1.68971086e+00 2.83956289e+00 1.56193132e+01
      -3.08095479e+00 -7.84077787e+00 5.47014666e+00 -6.29988909e+00
      1.29958830e+01 1.60485592e+01 -1.19219227e+01 2.68296242e+01
      -1.91837132e+00 5.21681118e+00 5.49392223e-01 6.07200861e+00
      1.17043781e+00 -5.48310423e+00 -2.73354387e+00</_>
    <_>
      -2.33737659e+01 9.16955261e+01 -1.32274033e+02 -9.18753204e+01
      -7.69566269e+01 3.88379707e+01 -5.30580826e+01 1.34353571e+01
      -2.00206432e+01 1.80960464e+01 1.81782854e+00 4.38403435e+01
      -5.81110268e+01 -7.45055628e+00 -1.47060423e+01 8.31354141e+00
      -1.57709913e+01 4.65898657e+00 -5.25997448e+00 -1.05127478e+01
      -7.62453890e+00 1.63637104e+01 4.22088480e+00 -2.49682579e+01
      2.34667168e+01 -4.31910157e-01 7.65665817e+00 1.55786676e+01
      -5.85119200e+00 -1.85540276e+01 4.40718699e+00 8.27339458e+00
      9.01855659e+00 -8.92641926e+00 -8.00831795e+00</_>
    <_>
      -2.58332753e+00 -1.42706327e+01 2.01729393e+01 -1.00669889e+01
      9.51823139e+00 3.74289246e+01 4.66816292e+01 5.22630272e+01
      2.11965065e+01 -1.07079697e+02 -2.18069267e+01 8.29983292e+01
      -1.47488260e+01 -7.66777573e+01 8.29836273e+01 4.61696243e+00
      3.30255356e+01 -1.81263123e+01 7.66687632e+00 2.26528893e+01
      9.40253258e+00 1.50824862e+01 3.39817924e+01 -3.96494102e+01
      8.28355885e+00 -4.02790189e-01 2.52362442e+00 3.25462413e+00
      -1.43702774e+01 -6.02384615e+00 -3.14645219e+00 -5.40075874e+00
      -1.67248211e+01 3.83886957e+00 -6.19834852e+00</_>
    <_>
      -5.53421364e+01 8.82477951e+01 -1.27336632e+02 -8.04344788e+01
      -1.04066681e+02 4.10731049e+01 -8.01082916e+01 3.67996521e+01
      -7.47907877e+00 1.61281967e+01 -4.29162502e+00 7.62488022e+01
      -3.83700523e+01 1.62636814e+01 -2.08708115e+01 -3.44403419e+01
      2.66757393e+00 1.22918682e+01 1.94000411e+00 -7.32968044e+00
      -5.90854263e+00 1.69033604e+01 -7.56001282e+00 -3.91083169e+00
      -1.06061106e+01 2.13383656e+01 1.17805014e+01 1.36395683e+01
      -2.43407516e+01 7.36483622e+00 -1.72024384e+01 9.26647949e+00
      -3.59381151e+00 6.33241713e-01 -5.44606829e+00</_>
    <_>
      2.41320586e+00 -1.44177246e+02 -2.97169113e+00 -8.62160187e+01
      -7.16356888e+01 -8.30698395e+01 -3.68894081e+01 -9.81305923e+01
      1.83240318e+01 -1.54516830e+01 -5.11810837e+01 1.59145164e+00
      -1.33280725e+01 -2.50723972e+01 9.99086285e+00 3.39985549e-01
      1.27305117e+01 -3.19998693e+00 1.04631081e+01 -1.15497704e+01
      -7.76403666e-01 -3.84196973e+00 -1.57634487e+01 -1.01110744e+01
      6.33679438e+00 5.55729532e+00 6.42410517e+00 9.91230392e+00
      -1.01612625e+01 -3.73987928e-02 -8.41406059e+00 4.13105583e+00
      -1.02928329e+00 1.48725808e+00 -5.16299963e+00</_>
    <_>
      -2.75602150e+00 -1.87565346e+01 2.31888218e+01 -1.01792212e+01
      1.65075073e+01 3.59696274e+01 4.42869987e+01 5.73771439e+01
      1.96917362e+01 -9.83697968e+01 -1.88924141e+01 8.11686020e+01
      -9.77870274e+00 -7.75530701e+01 7.78242340e+01 6.70416021e+00
      2.78464985e+01 -9.85515308e+00 -1.72511828e+00 1.15247269e+01
      -1.51403418e+01 9.42680550e+00 1.13140841e+01 -4.69066772e+01
      -8.72415543e+00 1.54362583e+01 4.55120611e+00 -1.92774963e+01
      3.37483191e+00 -1.57821627e+01 -2.88630104e+01 -3.51275063e+01
      -7.66779137e+00 -1.66344166e+01 4.61236143e+00</_>
    <_>
      1.36780167e+02 6.51684494e+01 4.90772667e+01 7.19556885e+01
      -1.40398560e+02 -5.95700645e+01 2.70688705e+01 2.31719151e+01
      1.08671906e+02 4.58095818e+01 1.38528852e+01 1.48307142e+01
      -4.72388916e+01 -2.17826824e+01 -6.03938055e+00 1.38568938e+00
      -2.47834721e+01 -3.95517807e+01 8.85542870e+00 -1.42408457e+01
      -1.13863163e+01 2.16397619e+00 3.48931718e+00 -1.04985743e+01
      7.98188877e+00 2.46461987e+00 5.45512581e+00 4.15394878e+00
      -4.51766062e+00 5.91311264e+00 -4.66695452e+00 5.23636293e+00
      -3.93884802e+00 -4.04117012e+00 -8.71658325e+00</_>
    <_>
      -6.14852524e+01 3.08242722e+01 4.89605522e+00 1.19392433e+01
      1.13669147e+01 -4.46135712e+01 4.15917244e+01 -3.04120903e+01
      -1.91074581e+01 3.64787979e+01 1.62707920e+01 2.87557392e+01
      5.00657415e+00 -2.81827888e+01 -1.37629995e+01 -1.90442252e+00
      1.07333002e+01 -5.10677910e+00 8.49706352e-01 -1.53588696e+01
      4.74344969e+00 -1.39824171e+01 6.27869940e+00 -6.17489767e+00
      3.87011480e+00 2.76651459e+01 -9.35282886e-01 -3.09849024e+00
      -4.63558346e-01 -5.49480534e+00 -1.09438086e+00 1.14824219e+01
      -3.64766455e+00 -5.99541140e+00 -1.06865895e+00</_>
    <_>
      -2.98181973e+01 1.72235241e+01 1.32441263e+01 1.73050308e+01
      2.39706993e+01 -4.49998665e+01 -5.51311417e+01 2.89502354e+01
      1.50706186e+01 -2.57950153e+01 -4.49332333e+00 -3.97807388e+01
      -4.65039825e+01 2.23634109e+01 3.79467702e+00 -2.28277702e+01
      9.79719162e+00 7.34384596e-01 1.41935587e+01 2.21207714e+01
      1.94440918e+01 -6.76052551e+01 2.65660992e+01 -1.00212965e+01
      3.57977333e+01 2.33143997e+01 -9.71766853e+00 -2.26945877e+01
      -1.84177246e+01 -2.73197632e+01 1.64322491e+01 2.54317741e+01
      -6.42727995e+00 -3.10339069e+01 -1.17801666e+01</_>
    <_>
      3.18222404e-01 -1.26713913e+02 7.37534332e+01 -1.52704727e+02
      -6.51223679e+01 -7.33196335e+01 -3.30688858e+01 -5.84703636e+01
      2.70055389e+00 2.85706120e+01 -8.34555817e+01 4.53381300e-01
      -9.35274410e+00 -3.04243565e+01 1.56180334e+01 -4.76505327e+00
      -2.08287392e+01 3.54071999e+01 8.62361908e+01 -2.66309299e+01
      -1.28054571e+00 8.69284344e+00 1.64666455e-02 -1.12506151e+01
      -2.59747434e+00 1.14399214e+01 4.51953793e+00 3.38805294e+00
      3.94166335e-02 -3.17092562e+00 -7.94506741e+00 5.42549467e+00
      8.57301617e+00 -5.56375265e+00 -4.05948973e+00</_>
    <_>
      4.35108566e+01 2.05207386e+01 -2.15213127e+01 -2.17911110e+01
      3.46804962e+01 3.79540291e+01 -1.94414215e+01 -3.05188446e+01
      2.63804321e+01 2.44501209e+01 1.84382782e+01 -2.49850445e+01
      7.21188021e+00 -2.38905697e+01 6.38549232e+00 -1.91825809e+01
      1.66053925e+01 -5.70819569e+00 8.12115288e+00 -1.21378336e+01
      1.32928956e+00 4.18163013e+00 2.70062375e+00 -2.48351517e+01
      -2.89607859e+00 1.46950016e+01 2.20882282e+01 1.49586935e+01
      1.07892334e+00 -1.10581970e+01 9.92769432e+00 1.21564126e+00
      -2.24962401e+00 3.84869838e+00 5.25247753e-01</_>
    <_>
      -8.46088943e+01 4.00657959e+01 -3.56964760e+01 -4.41529160e+01
      -7.06576157e+01 1.04285316e+01 8.25960388e+01 1.61249781e+00
      1.17285089e+01 -2.30388985e+01 5.62226725e+00 -8.35880356e+01
      -1.80961056e+01 -2.52231102e+01 1.29101753e+00 6.05343723e+00
      3.74465322e+00 -1.05710249e+01 1.04842253e+01 -1.61597576e+01
      -5.72113943e+00 1.13670521e+01 1.99467182e-01 -2.09298649e+01
      -4.02325678e+00 1.97238503e+01 -3.88123870e+00 -3.94029570e+00
      -1.60101414e+01 -3.44659853e+00 -9.21610069e+00 -9.64403534e+00
      -7.31374359e+00 3.70109320e-01 -7.60099232e-01</_>
    <_>
      -8.08415146e+01 5.97660980e+01 -4.40948029e+01 -1.60580311e+01
      -5.43756714e+01 -2.14498596e+01 -3.81959877e+01 2.25818539e+01
      4.22959232e+00 1.71614540e+00 4.14339828e+00 -2.14355898e+00
      1.84426346e+01 -2.37188911e+01 -1.44970446e+01 -2.07117538e+01
      1.38528051e+01 -5.24830532e+00 2.30038719e+01 1.95447731e+01
      -3.69862294e+00 -2.23055096e+01 8.47740650e+00 -1.36815176e+01
      2.43460274e+01 -5.50357246e+00 2.27455921e+01 -2.95681286e+00
      2.34997058e+00 -5.38459587e+00 1.04051371e+01 -4.41343117e+00
      1.42012730e+01 -2.83881783e+00 -9.30805206e+00</_>
    <_>
      1.13323045e+00 -1.27328697e+02 7.52529449e+01 -1.53295898e+02
      -6.43120346e+01 -7.38402252e+01 -3.41133041e+01 -5.91742554e+01
      2.52134705e+00 2.87436314e+01 -8.56607132e+01 4.01676035e+00
      -9.83372593e+00 -3.16923180e+01 1.92696152e+01 -4.36787558e+00
      -2.10366821e+01 3.64114113e+01 8.78298035e+01 -2.63556404e+01
      -1.20801806e+00 7.16106701e+00 -3.94614911e+00 -1.50209885e+01
      -2.29257178e+00 1.02884369e+01 4.47261763e+00 4.32774734e+00
      -7.40403771e-01 -2.07165098e+00 -7.58430338e+00 7.36398458e+00
      9.01846886e+00 -5.24348640e+00 -5.26883602e+00</_>
    <_>
      1.36548042e+01 2.86472464e+00 7.21374655e+00 5.87955093e+00
      -1.44274817e+01 1.88437786e+01 -8.83864498e+00 -9.26760960e+00
      -2.35245438e+01 -8.78298283e+00 -7.87659168e-01 -4.71166039e+00
      1.69524307e+01 1.85466499e+01 1.32657137e+01 -8.59320164e+00
      -1.62805996e+01 -4.95180473e+01 9.81162453e+00 -7.15230703e-01
      8.21217060e+00 9.59357381e-01 -3.34882307e+00 1.76644421e+00
      1.54055882e+01 -2.44115772e+01 -3.28640480e+01 -2.47182388e+01
      -1.41811123e+01 2.76470432e+01 -1.28952103e+01 4.16099930e+00
      9.82736111e+00 5.42449093e+00 2.81046562e+01</_>
    <_>
      1.01139326e+01 -1.63782654e+02 -1.43929535e+02 8.31760712e+01
      -3.23674927e+01 -3.79288902e+01 1.27799902e+01 3.81644869e+00
      -4.90582275e+00 -1.03698263e+01 6.50994339e+01 -6.52879143e+00
      -1.45485439e+01 -1.33658218e+01 3.20285559e+00 -5.44129038e+00
      4.18956280e+00 2.35342908e+00 2.56370735e+01 -1.26945744e+01
      5.17797804e+00 3.54461598e+00 4.35859680e-01 -1.08489866e+01
      6.68076134e+00 8.01461792e+00 7.96954155e+00 6.75039864e+00
      -1.04412327e+01 3.99941295e-01 -6.82134724e+00 3.26706553e+00
      -5.07001209e+00 3.36686158e+00 -5.87908506e+00</_>
    <_>
      -6.81306686e+01 3.94577141e+01 -5.36848907e+01 -4.21923294e+01
      -6.03380432e+01 9.52278328e+00 1.33018694e+01 1.59353533e+01
      8.04022408e+00 -2.12707005e+01 -5.05302620e+00 -1.54116192e+01
      -3.51380234e+01 -5.33333969e+00 -2.20815334e+01 -1.25116339e+01
      2.71870384e+01 -1.48923931e+01 8.06918335e+00 -3.39081688e+01
      -6.28500366e+00 1.13247862e+01 -2.45180559e+00 -1.16052570e+01
      -2.51133785e+01 2.70518799e+01 -1.58771276e+01 1.15008173e+01
      -4.35017824e+00 -3.25994730e+00 -1.11433125e+01 1.14132261e+00
      1.60210347e+00 -5.17246388e-02 -5.11909819e+00</_>
    <_>
      -5.72465019e+01 2.81824455e+01 1.25725517e+01 1.92331734e+01
      2.41808968e+01 -5.71219978e+01 1.27618656e+01 -1.35085554e+01
      -1.51138906e+01 2.47832565e+01 1.30112867e+01 2.32092743e+01
      9.25435638e+00 -3.62043495e+01 -2.28591499e+01 -1.06967330e+00
      4.87187481e+00 -5.17966843e+00 -1.90733016e+00 -1.27155647e+01
      5.04141426e+00 1.04741821e+01 -2.30286717e+00 -1.02664232e+01
      -2.70091128e+00 1.70392532e+01 7.60327578e+00 -1.38807430e+01
      1.14060764e+01 -5.32087612e+00 1.57109225e+00 1.36345263e+01
      3.94396758e+00 -5.36263800e+00 -3.91007137e+00</_>
    <_>
      1.93739395e+01 -3.80122681e+01 -5.13626747e+01 3.28749237e+01
      4.39415026e+00 1.19711313e+01 9.00500774e+00 2.13109875e+01
      1.72788346e+00 3.71293678e+01 -3.37591934e+01 -1.15880547e+01
      -6.64016867e+00 -5.90415061e-01 -6.81372213e+00 2.44818420e+01
      2.43757477e+01 -1.10932884e+01 2.18844719e+01 -1.12182512e+01
      1.72518098e+00 4.56805325e+00 5.17479658e-01 -1.71312733e+01
      -4.20778608e+00 3.84641099e+00 -8.23996544e+00 7.61783791e+00
      5.84412718e+00 -1.83134422e+01 -2.25121460e+01 6.59003592e+00
      1.26853104e+01 6.00126266e+00 -6.89242029e+00</_>
    <_>
      -8.30893936e+01 5.59094162e+01 -2.49966602e+01 -3.43409777e-01
      -2.53055477e+01 -4.81001244e+01 -2.77739143e+01 5.35453224e+00
      -1.14780560e+01 2.62952938e+01 1.56827726e+01 2.38495998e+01
      8.79768085e+00 -3.35723686e+01 -5.15349150e+00 -1.60746498e+01
      2.70939388e+01 -1.89503174e+01 1.48430281e+01 -6.14126587e+00
      -4.41577530e+00 3.76485939e+01 -1.31153755e+01 -4.69397879e+00
      -3.42062402e+00 -1.87990554e-02 6.96328735e+00 7.88985348e+00
      -1.19136190e+01 -2.10764360e+00 2.95146561e+00 1.04726124e+01
      -9.37149048e+00 2.30778813e+00 -9.08385277e+00</_>
    <_>
      6.41285753e+00 -1.20817238e+02 4.84077797e+01 -1.24798920e+02
      -6.33882179e+01 -5.16729507e+01 -1.60913506e+01 -1.35983686e+01
      -1.03445511e+01 2.79717979e+01 -3.28219199e+00 -1.44925346e+01
      -7.52994108e+00 -1.59568691e+01 3.29293656e+00 -7.41616774e+00
      9.58358097e+00 -8.48889732e+00 1.25035524e+01 -3.72608376e+00
      3.88390326e+00 3.37973666e+00 1.52917004e+00 -1.22963371e+01
      7.03652048e+00 -3.49341822e+00 4.03383636e+00 6.86293316e+00
      -4.06775713e+00 1.93667531e+00 2.17530489e+00 4.39794588e+00
      -1.00299826e+01 -2.52061367e+00 -6.95898581e+00</_>
    <_>
      -7.90563736e+01 4.32325020e+01 9.05852127e+00 2.24863167e+01
      2.22103481e+01 -8.20549164e+01 -1.83086624e+01 1.33029842e+00
      -1.26092796e+01 2.25703049e+01 1.93665466e+01 4.96544933e+00
      2.10827122e+01 -6.50362015e+01 -1.73256207e+01 9.26440525e+00
      1.28970366e+01 -1.68311253e+01 4.41961765e+00 -3.32035522e+01
      3.69975305e+00 -2.05751443e+00 6.18925190e+00 -1.72718830e+01
      -2.32984238e+01 -2.36396904e+01 1.41750994e+01 1.10985842e+01
      1.23944683e+01 1.07728777e+01 -1.06331806e+01 -2.53169990e+00
      -7.50434303e+00 1.23802366e+01 -6.31580687e+00</_>
    <_>
      -4.89642601e+01 2.32155762e+01 1.51823969e+01 2.18973866e+01
      3.36806870e+01 -6.79222488e+01 -7.88284149e+01 4.77884483e+01
      1.54466639e+01 -2.69720783e+01 -5.58051288e-01 -5.25826645e+01
      -3.09769154e+01 -6.70136452e+00 5.57884359e+00 -8.69872379e+00
      3.86015272e+00 1.38179410e+00 1.37250576e+01 2.11734295e+01
      -1.49089813e+01 -2.44629402e+01 1.14653177e+01 -1.62589397e+01
      1.70595074e+01 3.35959206e+01 1.13053408e+01 4.00935459e+00
      1.41744699e+01 -4.28049183e+00 -3.09930248e+01 3.53407784e+01
      -3.24839735e+00 -2.01492119e+01 1.32749023e+01</_>
    <_>
      -4.14847641e+01 1.70698032e+01 1.27941284e+01 1.56675863e+01
      2.45752945e+01 -3.96584740e+01 2.33290119e+01 -1.56575537e+01
      -1.32548971e+01 2.06466446e+01 6.87437868e+00 3.14464321e+01
      -1.37029588e+00 -1.96894131e+01 -3.18701344e+01 -6.06556273e+00
      4.74496698e+00 2.02479303e-01 -3.08272910e+00 -2.96145267e+01
      2.34603100e+01 -2.59332905e+01 6.12910700e+00 -1.09464598e+01
      2.52953053e+00 7.27839804e+00 1.23207073e+01 1.28331184e+00
      -5.14091206e+00 -3.00467753e+00 -1.40054789e+01 1.69691515e+00
      2.68762517e+00 -1.15136700e+01 3.46854973e+00</_>
    <_>
      -6.48660421e+00 -1.23084236e+02 -4.81463814e+01 -1.53168240e+01
      -4.46131554e+01 -6.23954582e+01 -1.23270302e+01 -5.03656120e+01
      1.36582813e+01 -4.06962662e+01 2.95063744e+01 -7.68903065e+00
      -1.14491291e+01 -2.10593662e+01 -1.49079885e+01 -6.19012070e+00
      3.45886497e+01 -3.65897141e+01 -7.94005966e+01 4.27407563e-01
      -1.13306980e+01 -3.51506877e+00 -3.21406722e+00 -4.58482838e+00
      -1.05769825e+01 1.76934376e+01 2.49488182e+01 5.33589745e+00
      -1.66361761e+00 5.48511505e+00 -1.44858618e+01 3.69485569e+00
      1.98049278e+01 -1.22052164e+01 -3.72145629e+00</_>
    <_>
      3.83800926e+01 1.50800543e+01 -1.58830137e+01 -1.66318569e+01
      1.67313995e+01 2.57217579e+01 -1.15689964e+01 -2.28142300e+01
      2.41078339e+01 1.84227066e+01 1.36179543e+01 -1.64841499e+01
      9.34851170e+00 -9.72360706e+00 6.98870564e+00 -1.12548523e+01
      2.35108414e+01 3.01141024e+00 2.37439561e+00 -1.51410475e+01
      -1.08896093e+01 7.95687771e+00 7.91451359e+00 -1.69641743e+01
      1.50253439e+01 -6.09167814e+00 -4.87267590e+00 1.09881306e+01
      5.27027416e+00 -3.94734907e+00 1.05844431e+01 7.58766413e+00
      2.42481530e-02 -9.38795090e+00 4.71433640e-01</_>
    <_>
      9.96133900e+00 -1.68826584e+02 -1.46600647e+02 8.21294098e+01
      -3.54220390e+01 -4.14291039e+01 1.16253395e+01 -8.62704277e-01
      -3.71198368e+00 -1.57488031e+01 7.26840439e+01 -6.19809484e+00
      -1.51230621e+01 -1.29090729e+01 2.64256167e+00 -5.29164124e+00
      6.09277534e+00 2.48109907e-01 2.09476471e+01 -1.16966209e+01
      5.60704088e+00 3.12440968e+00 5.19299507e-01 -9.91326523e+00
      7.33712530e+00 8.93997383e+00 1.06738205e+01 6.89048290e+00
      -1.20548096e+01 2.01561141e+00 -5.85487318e+00 3.02658272e+00
      -6.90673256e+00 3.75847507e+00 -6.02815962e+00</_>
    <_>
      -4.04468765e+01 3.20029259e+01 -1.40952969e+01 8.52081716e-01
      -3.26247368e+01 3.69188190e+00 -1.06503544e+01 -9.18674660e+00
      -3.43584442e+01 1.30486813e+01 2.14637661e+00 2.79404087e+01
      -3.48560486e+01 3.81241302e+01 2.75865841e+01 -3.57318344e+01
      1.48520508e+01 -2.48664341e+01 7.32291269e+00 -3.91291351e+01
      -2.14301729e+00 1.94397202e+01 -1.74047165e+01 1.17146845e+01
      -4.13465118e+01 4.30897675e+01 -1.87332976e+00 3.60300279e+00
      -3.14586792e+01 1.40751565e+00 -1.23594484e+01 7.10338449e+00
      -5.77696133e+00 3.60280490e+00 2.41506743e+00</_>
    <_>
      -2.94818807e+00 -6.39514198e+01 6.69708939e+01 -9.25675125e+01
      -1.57637339e+01 1.37629881e+01 3.67687759e+01 1.18101822e+02
      -3.07595425e+01 4.42331696e+01 6.90245667e+01 -1.52402353e+01
      -9.57094002e+00 -1.27518606e+01 -1.45455360e+00 -4.08451653e+00
      1.03942299e+01 -6.68230677e+00 -4.55474138e+00 -5.04097748e+00
      -1.61755180e+00 5.97621775e+00 1.04722385e+01 2.95398331e+00
      1.47150010e-01 9.87224865e+00 1.26341925e+01 8.42924881e+00
      -4.96772194e+00 -2.63205433e+00 -1.35376549e+01 -8.34264338e-01
      8.32834625e+00 -7.02363062e+00 -5.91228771e+00</_>
    <_>
      1.07643623e+01 -1.54298553e+02 -9.25276031e+01 9.35117817e+00
      -6.33895531e+01 -6.10938148e+01 -1.57787504e+01 -6.16785088e+01
      1.25445480e+01 -4.04722862e+01 4.57937279e+01 -1.12582607e+01
      -7.71739721e+00 -1.47724333e+01 -8.78646088e+00 -9.29366302e+00
      4.32256622e+01 -4.50069809e+01 -7.16708603e+01 1.50327034e+01
      2.62581801e+00 -2.43708563e+00 3.52335989e-01 -4.70168829e+00
      3.84865475e+00 -6.23409748e+00 7.17242098e+00 7.09475946e+00
      -1.95973372e+00 7.01016712e+00 6.62821150e+00 5.03178406e+00
      -1.92079973e+00 -9.76599121e+00 2.38827085e+00</_>
    <_>
      1.36342743e+02 6.55061798e+01 4.39514732e+01 6.59998169e+01
      -1.33429245e+02 -6.19239731e+01 2.82608776e+01 2.35237675e+01
      1.00544083e+02 4.08458176e+01 1.19357405e+01 1.23457947e+01
      -3.87901993e+01 -1.72795372e+01 -3.66587400e+00 -1.00497866e+00
      -2.10048828e+01 -3.70550804e+01 8.84311390e+00 -1.38527594e+01
      -8.79652882e+00 2.47745156e+00 2.69129777e+00 -1.03442307e+01
      7.34117413e+00 2.85826468e+00 4.83903551e+00 3.35133600e+00
      -5.18012905e+00 4.41870022e+00 -5.33755064e+00 5.98444033e+00
      -2.86838603e+00 -1.77872336e+00 -7.07123423e+00</_>
    <_>
      -7.78930092e+00 -2.17148471e+00 2.78003907e+00 -2.44065690e+00
      2.03892183e+00 7.69392824e+00 1.22586632e+01 1.02926207e+01
      1.18513031e+01 -2.20636044e+01 -4.27283144e+00 -1.38322935e+01
      6.29005766e+00 -1.10145254e+01 -2.08381348e+01 5.42362070e+00
      -4.94849443e+00 2.33176017e+00 8.86373711e+00 -1.33228550e+01
      -1.20505695e+01 1.92967949e+01 -1.85981731e+01 9.03064270e+01
      1.94701805e+01 2.48339248e+00 2.57889032e+00 1.76247997e+01
      1.21883850e+01 -2.67522736e+01 -2.46860332e+01 -3.53481026e+01
      -9.98252010e+00 -2.19428177e+01 -3.58688188e+00</_>
    <_>
      3.31819382e+01 1.94994125e+01 -1.80482807e+01 -1.78440742e+01
      9.31292725e+00 1.67229404e+01 9.39036369e+00 -1.47508507e+01
      3.57421341e+01 6.31933975e+00 6.80490971e+00 -3.07228165e+01
      -2.25960708e+00 -1.20751247e+01 -1.35767794e+01 -8.25922871e+00
      1.51806469e+01 -4.41264105e+00 1.10114861e+01 -1.79796181e+01
      -4.83943731e-01 2.27654552e+00 1.76778626e+00 -1.20734844e+01
      8.54739761e+00 1.32212257e+01 5.75343084e+00 3.62969232e+00
      -1.11200352e+01 -2.88515449e+00 -1.40851450e+01 5.95051432e+00
      -1.12666950e+01 1.80031624e+01 -1.06113825e+01</_>
    <_>
      -9.53885345e+01 5.15963173e+01 -1.57864857e+01 -1.03346121e+00
      -2.36042786e+01 -3.80059471e+01 7.27165604e+01 -3.58295479e+01
      -1.40810528e+01 2.50050297e+01 1.58195763e+01 -2.68599186e+01
      -4.95639205e-01 -3.23564758e+01 1.70093288e+01 1.00656881e+01
      -2.12725449e+00 7.05266953e-01 8.89496803e+00 4.95626783e+00
      -3.12570190e+01 -1.02045834e+00 -7.73357987e-01 -1.10391741e+01
      -1.38334723e+01 1.46302891e+01 1.53871346e+01 1.39916716e+01
      -1.76045094e+01 3.28431368e+00 -1.64236031e+01 7.56492615e-01
      1.71937599e+01 -1.34534092e+01 -4.81864929e+00</_>
    <_>
      -3.60886421e+01 6.21650696e+01 -6.81471024e+01 -4.55233727e+01
      -1.90705318e+01 -5.93931484e+00 2.00722766e+00 -1.49433889e+01
      -1.75365257e+01 2.25376797e+01 1.24810295e+01 -7.45953465e+00
      -6.24728394e+01 -1.86855927e+01 2.61245651e+01 3.02913094e+01
      -2.56653953e+00 -3.18108726e+00 -1.22903976e+01 -4.72485542e+01
      -2.36809330e+01 9.58503056e+00 4.67745495e+00 -1.35765066e+01
      -6.69146729e+00 1.38029451e+01 -1.22698698e+01 2.11999493e+01
      -2.40478587e+00 -1.34487057e+01 -1.20113392e+01 1.53349943e+01
      2.24971437e+00 -4.06091690e+00 -1.39705646e+00</_>
    <_>
      -2.60557137e+01 8.91838932e+00 1.34374151e+01 7.51479435e+00
      1.90839062e+01 -1.05053902e+01 3.17889614e+01 -7.61903906e+00
      5.68296146e+00 -2.45716858e+01 -1.07058010e+01 -1.64426575e+01
      -1.64105911e+01 1.38862600e+01 -4.58190308e+01 -1.26311159e+01
      -3.50553436e+01 2.91144753e+01 -1.08809366e+01 1.34957333e+01
      -2.66407156e+00 -1.32681303e+01 1.13083353e+01 -3.43840485e+01
      -4.74210625e+01 -4.39612236e+01 3.71158028e+01 2.04006824e+01
      -2.90577469e+01 -5.70654809e-01 -2.77545071e+01 3.13363266e+00
      -1.05565386e+01 -1.09308596e+01 -3.05784345e+00</_>
    <_>
      -2.53496909e+00 -1.88994637e+01 2.35810146e+01 -1.01444235e+01
      1.69091282e+01 3.66142883e+01 4.48058205e+01 5.83007469e+01
      2.00265560e+01 -1.00633354e+02 -1.93719482e+01 8.40769424e+01
      -1.00470972e+01 -7.96482315e+01 8.06880722e+01 7.12632322e+00
      2.88217144e+01 -1.04942169e+01 -1.62643301e+00 1.27456226e+01
      -1.44144964e+01 1.04491177e+01 1.40557127e+01 -4.72952843e+01
      -8.31068611e+00 1.54372625e+01 4.74844551e+00 -1.87592278e+01
      3.00913715e+00 -1.61338482e+01 -2.97007046e+01 -3.64390793e+01
      -8.88938618e+00 -1.66654873e+01 4.42177629e+00</_>
    <_>
      9.39253235e+00 -1.54315857e+02 -1.44595367e+02 1.00694412e+02
      -1.45223856e+01 -2.34072361e+01 2.26376305e+01 3.77569237e+01
      -1.75909901e+01 2.18205147e+01 2.74023056e+01 -7.23073721e+00
      -1.28630409e+01 -2.21632614e+01 7.79760075e+00 -1.00908976e+01
      -1.27790298e+01 2.20269184e+01 5.80188217e+01 -1.92898254e+01
      7.69732475e-01 6.70082712e+00 8.39101791e-01 -1.77956257e+01
      -5.45143414e+00 1.02958450e+01 6.30742168e+00 5.67822313e+00
      6.72258377e-01 3.38931847e+00 -4.58383036e+00 2.76626468e+00
      6.97805309e+00 -8.14211369e+00 -2.28880548e+00</_>
    <_>
      -2.55572205e+01 1.12537136e+01 1.16068001e+01 1.46546783e+01
      2.35405960e+01 -3.67872200e+01 -2.59609146e+01 1.15861320e+01
      3.50026703e+00 -2.93624425e+00 2.77422380e+00 -4.96667624e+00
      -5.76907098e-01 -1.76137791e+01 -1.61501846e+01 8.81192112e+00
      -4.68454647e+00 -3.48554134e-01 -5.46666241e+00 -1.87607136e+01
      1.94554405e+01 3.04683857e+01 -1.48352661e+01 -1.97655523e+00
      1.41045821e+00 -1.52069163e+00 -2.87442684e+00 -8.87845516e+00
      -3.24054222e+01 -8.52996635e+00 2.11318245e+01 -2.08687096e+01
      1.42392836e+01 1.08654356e+01 -3.36023903e+01</_>
    <_>
      -8.77555313e+01 4.25260010e+01 -4.18013954e+01 -4.14269180e+01
      -7.37802734e+01 1.09365683e+01 8.23842316e+01 -2.75338888e-01
      1.42176485e+01 -2.65795536e+01 -1.62958711e-01 -8.88726044e+01
      -1.41880999e+01 -2.67550964e+01 3.41124266e-01 4.30532503e+00
      4.38848162e+00 -9.95634460e+00 9.80077839e+00 -1.93907108e+01
      -4.58208847e+00 7.97771692e+00 -1.93675947e+00 -1.87874184e+01
      -4.88819170e+00 2.17252808e+01 -1.76625121e+00 -3.90667391e+00
      -1.54505119e+01 -7.23597646e-01 -9.41972828e+00 -8.23057842e+00
      -1.25079641e+01 -5.35922289e-01 4.57045697e-02</_>
    <_>
      -3.08201065e+01 1.67379951e+01 1.61424847e+01 2.15576286e+01
      3.26990242e+01 -5.58615990e+01 -7.00911484e+01 3.63083344e+01
      1.28063030e+01 -2.16918335e+01 1.43710122e-01 -3.60870667e+01
      2.72748804e+00 -2.18364658e+01 -1.18866043e+01 1.03333883e+01
      -1.82978401e+01 5.57995081e+00 -4.24978876e+00 2.59544182e+01
      -1.01873932e+01 4.84445381e+01 -1.08557234e+01 -1.54464273e+01
      5.01617718e+00 1.97255459e+01 2.06395030e-01 -4.01385736e+00
      3.26341462e+00 6.62554920e-01 8.80211830e+00 1.42650909e+01
      -6.87352562e+00 5.00852919e+00 5.02034235e+00</_>
    <_>
      -4.02542038e+01 1.67605495e+01 1.36502953e+01 1.83597069e+01
      3.18829098e+01 -4.97497597e+01 -3.58085098e+01 2.07567959e+01
      5.51577377e+00 -1.21451159e+01 -1.96251082e+00 -1.64191151e+01
      -5.26813278e+01 1.55123434e+01 -3.97933769e+00 -2.27439480e+01
      1.86513367e+01 -2.32177401e+00 1.08908672e+01 -2.62725773e+01
      2.42178955e+01 -3.83957863e+01 6.78644228e+00 -6.13854599e+00
      1.08561163e+01 9.43888187e+00 1.28215208e+01 1.43255734e+00
      -2.84238300e+01 -7.38760328e+00 -1.73395503e+00 -2.26254158e+01
      1.55199556e+01 -1.13784084e+01 -1.99160271e+01</_>
    <_>
      -6.21990471e+01 1.31176567e+01 1.03939714e+01 -2.28824444e+01
      -1.51531935e+01 -4.97826624e+00 7.96888580e+01 8.10628128e+00
      6.96594763e+00 -4.69485283e+01 -5.23953438e+00 -1.06624594e+01
      -5.04347153e+01 -2.56499119e+01 -1.73563042e+01 -3.78425331e+01
      4.08224907e+01 -2.72660294e+01 2.85869942e+01 -3.96864815e+01
      1.99723053e+01 2.05529861e+01 -1.01324615e+01 -1.05206089e+01
      7.18713617e+00 1.96026599e+00 8.58010387e+00 -9.98073673e+00
      2.12230659e+00 5.91300392e+00 7.15439129e+00 2.45370369e+01
      -8.68554306e+00 2.57783580e+00 9.89501095e+00</_>
    <_>
      -5.68021545e+01 3.17047710e+01 5.02579594e+00 1.59020901e+01
      1.61538754e+01 -5.94705162e+01 -4.39336624e+01 2.13148994e+01
      5.60482502e+00 -8.10335159e+00 3.99033332e+00 -3.40579071e+01
      -5.44146729e+01 1.01775455e+01 2.42091713e+01 -2.45019283e+01
      3.05436115e+01 -1.28921099e+01 2.03694801e+01 -6.69278479e+00
      5.03701544e+00 -3.59280128e+01 1.13300924e+01 -1.62856174e+00
      9.58419037e+00 -2.27333832e+00 5.91005659e+00 -1.40420961e+01
      -6.50855303e+00 -1.06158199e+01 1.02814522e+01 -4.26045561e+00
      7.87836027e+00 5.52509725e-01 -1.41418982e+01</_>
    <_>
      -4.88094521e+00 -1.16059666e+01 1.33738489e+01 -4.56728268e+00
      1.19554806e+01 2.13613701e+01 3.09635601e+01 2.92966614e+01
      1.39312391e+01 -5.48066483e+01 -1.43927336e+01 2.91373920e+01
      -8.04311657e+00 -3.18360481e+01 1.38960257e+01 -3.66683793e+00
      3.98660755e+00 4.72541475e+00 7.34183550e+00 -1.41276970e+01
      -2.97435856e+00 5.74491167e+00 6.62497997e+00 5.49639435e+01
      -1.94462359e+00 -8.61005688e+00 2.06376190e+01 3.78353539e+01
      1.06619854e+01 1.39014921e+01 1.21547251e+01 5.88565521e+01
      5.02808533e+01 -8.00031471e+00 -9.95799160e+00</_>
    <_>
      -5.84909210e+01 3.14130821e+01 1.43941851e+01 2.39335728e+01
      3.05939674e+01 -7.23188400e+01 -3.09663620e+01 9.63114548e+00
      -5.79668665e+00 9.02083683e+00 1.24354820e+01 2.09828973e+00
      2.58251514e+01 -5.82920609e+01 -3.30051613e+01 1.93332100e+01
      -9.10386944e+00 -6.03130245e+00 -7.96055412e+00 -2.30937901e+01
      1.56986504e+01 3.09552822e+01 -6.18743896e+00 -2.05190754e+01
      -2.03645763e+01 -5.37073088e+00 -8.87504518e-01 8.60155869e+00
      -5.33688116e+00 7.50504303e+00 5.26694155e+00 -4.48255777e+00
      -7.43238592e+00 1.43678102e+01 -2.07928734e+01</_>
    <_>
      -4.94884396e+00 -1.29259672e+01 1.89690685e+01 -1.05960608e+01
      8.10506725e+00 3.72822266e+01 4.87586136e+01 5.07193031e+01
      2.13588161e+01 -1.07307411e+02 -2.19674149e+01 7.82890701e+01
      -1.54415827e+01 -7.65073090e+01 7.77248917e+01 3.05657458e+00
      3.40915794e+01 -1.99513569e+01 9.96036816e+00 1.79962845e+01
      1.01539803e+01 1.62383900e+01 3.36517754e+01 -3.51198158e+01
      1.02249708e+01 -1.34111732e-01 2.94768739e+00 2.37820435e+00
      -1.19949350e+01 -3.55800223e+00 -2.65184665e+00 -5.24703121e+00
      -1.63016224e+01 4.29143190e+00 -6.25566387e+00</_>
    <_>
      3.36608672e+00 -1.45544144e+02 3.64290714e+00 -9.13266983e+01
      -7.09262772e+01 -8.36887817e+01 -3.61913567e+01 -9.51585770e+01
      1.63130627e+01 -1.11555738e+01 -5.43994865e+01 3.22539854e+00
      -1.44078522e+01 -2.58219223e+01 1.04138069e+01 -2.99005175e+00
      1.01731129e+01 -9.90231574e-01 1.83047123e+01 -1.22555122e+01
      1.90476036e+00 -1.91028929e+00 -1.32836676e+01 -9.96543503e+00
      8.52739906e+00 5.02960539e+00 8.18786907e+00 6.92447758e+00
      -1.11483984e+01 1.00966561e+00 -8.13756657e+00 3.58992553e+00
      -3.07909536e+00 2.35724592e+00 -3.72804475e+00</_>
    <_>
      -1.04577522e+02 6.34094543e+01 -5.31570930e+01 -3.38777504e+01
      -8.53106537e+01 1.07281256e+01 7.11845932e+01 -9.71725559e+00
      1.60960083e+01 -2.52197666e+01 -2.99539661e+00 -8.40675354e+01
      1.32522001e+01 -3.58488808e+01 -1.13570795e+01 1.37961502e+01
      -1.39220304e+01 3.03618431e+00 1.79758625e+01 -9.41236496e+00
      -3.86836433e+00 -1.47790337e+01 1.26945746e+00 -1.95188255e+01
      3.92021489e+00 9.94554615e+00 3.62322354e+00 1.05810957e+01
      -1.19840565e+01 6.95320368e+00 -5.81735754e+00 -1.08652334e+01
      -6.73345387e-01 -5.39490986e+00 2.61422932e-01</_>
    <_>
      -8.07940674e+01 4.34112549e+01 3.69227481e+00 1.86166630e+01
      1.38966684e+01 -7.26376038e+01 7.11416483e+00 -1.27358904e+01
      -1.81401043e+01 3.55157509e+01 2.19726200e+01 1.74856911e+01
      2.19066849e+01 -6.27806969e+01 -1.02234716e+01 1.43011885e+01
      1.26792889e+01 -1.58275957e+01 2.27018309e+00 -3.32398949e+01
      5.16865349e+00 1.79984684e+01 -6.96522570e+00 -5.60799074e+00
      -6.92024231e+00 7.89670646e-01 9.84205532e+00 -2.17135644e+00
      -1.02002211e+01 -3.93575454e+00 -4.48705101e+00 4.36910820e+00
      3.93808007e+00 -2.81387329e+00 -8.37908363e+00</_>
    <_>
      -3.92243309e+01 1.76190109e+01 1.54836214e+00 1.27803278e+00
      3.10199738e-01 -1.30611506e+01 3.83697739e+01 -1.05307102e+01
      2.12194896e+00 -8.45346928e+00 -2.48259947e-01 -1.75316811e+01
      -8.57793427e+00 -1.40977917e+01 -2.28949566e+01 -3.97531939e+00
      -3.05815744e+00 -5.79676807e-01 3.75351214e+00 -2.44028149e+01
      3.00268483e+00 1.45802488e+01 -1.14501829e+01 -9.99796510e-01
      -1.45436783e+01 -1.62020433e+00 4.11331415e+00 -1.64975033e+01
      -3.06126881e+01 -1.05279808e+01 7.82572412e+00 7.22406292e+00
      1.17018290e+01 -6.86307430e+00 -1.75217781e+01</_>
    <_>
      -8.64380951e+01 4.84682350e+01 -8.33835030e+00 8.84070301e+00
      -5.44332409e+00 -5.76236572e+01 2.60621204e+01 -2.15501423e+01
      -2.15548496e+01 4.38993607e+01 2.20684090e+01 3.30104027e+01
      2.85538979e+01 -6.02727356e+01 -1.70094929e+01 7.33043575e+00
      1.89398346e+01 -1.58903036e+01 6.82167768e+00 -3.52164841e+01
      8.07009792e+00 -1.35095940e+01 3.80119014e+00 -3.77977395e+00
      2.29810929e+00 3.21188402e+00 7.96475410e+00 -3.12640858e+00
      -1.09288340e+01 -8.49133587e+00 -3.62690210e+00 7.53070593e+00
      3.92082667e+00 -1.25035429e+01 2.55597973e+00</_>
    <_>
      -2.66737270e+00 -8.37261047e+01 -8.34614258e+01 7.00017319e+01
      4.92824125e+00 3.39332193e-01 3.39550934e+01 5.37171288e+01
      -2.37886372e+01 7.71751938e+01 -1.00102501e+02 -2.11342182e+01
      -1.91800919e+01 -2.95725384e+01 2.66025591e+00 -1.33704481e+01
      1.83355770e+01 -1.35925150e+01 5.40870571e+00 -9.17454529e+00
      6.96837378e+00 1.77785146e+00 -2.74949360e+00 -7.66199064e+00
      9.27069092e+00 4.01651430e+00 1.21984425e+01 3.87936711e+00
      -6.34846926e+00 1.50091648e+00 -2.72904563e+00 5.20125866e+00
      -1.11786089e+01 4.04142809e+00 -2.02281928e+00</_>
    <_>
      1.77200890e+01 2.44204407e+01 -1.78008575e+01 -1.69271393e+01
      8.59018803e+00 3.14650154e+01 -3.22432137e+00 -2.92049446e+01
      1.74460945e+01 1.67549095e+01 1.61161613e+01 -2.29069176e+01
      -4.68186188e+00 -2.09369831e+01 -1.53732240e+00 -2.13233891e+01
      2.38994675e+01 -1.39540446e+00 1.03976936e+01 -1.01388264e+01
      1.05397022e+00 4.12166119e+00 3.33933085e-01 -1.00781050e+01
      4.45593023e+00 6.64455366e+00 -5.12714863e+00 -2.38147900e-01
      -1.12944889e+01 1.08126564e+01 -8.62268925e+00 1.41935110e+00
      1.37966919e+00 9.84814548e+00 1.33250570e+01</_>
    <_>
      1.41501526e+02 7.93260498e+01 -7.41345596e+01 -6.22517357e+01
      1.62956886e+01 -6.92472610e+01 2.50318565e+01 1.01297245e+01
      -2.87117996e+01 -1.02898817e+01 5.40690899e-01 -1.83803387e+01
      7.49135685e+00 -1.48107967e+01 3.33103299e+00 -9.79139900e+00
      2.28964996e+01 7.44692183e+00 7.43896008e+00 -3.41809368e+00
      7.59840059e+00 1.27688432e+00 -4.08589268e+00 -1.07142496e+01
      -5.17169189e+00 1.13681507e+01 1.79301910e+01 1.17471094e+01
      -4.75184155e+00 -1.23847466e+01 5.32345867e+00 -2.19077897e+00
      7.48651457e+00 3.61687851e+00 1.26938095e+01</_>
    <_>
      -5.41217041e+00 -1.44511204e+01 1.75075321e+01 -6.87384176e+00
      1.29494123e+01 3.11591816e+01 4.19208870e+01 4.44650154e+01
      1.96524429e+01 -8.75932922e+01 -2.01461697e+01 6.49532623e+01
      -1.60228882e+01 -6.04568062e+01 5.87940598e+01 5.31929255e+00
      2.28351860e+01 -8.19589520e+00 9.59758949e+00 7.18210220e+00
      6.45251989e+00 1.09583502e+01 2.67641926e+01 -6.24289131e+00
      9.81408787e+00 7.48013544e+00 1.39736662e+01 1.41460476e+01
      -2.06565170e+01 -1.56076550e+00 -1.06220961e+01 9.68157005e+00
      7.79755926e+00 6.72783613e+00 -1.34608736e+01</_>
    <_>
      -6.07654076e+01 2.99334488e+01 1.17294207e+01 1.95048122e+01
      2.34561806e+01 -5.94448357e+01 2.00578995e+01 -1.85584698e+01
      -1.94387493e+01 3.40369186e+01 1.68478336e+01 4.09350128e+01
      1.99971352e+01 -5.10442810e+01 -3.58442993e+01 2.14866590e+00
      1.31998520e+01 -1.31345081e+01 -1.62882543e+00 -4.79280281e+01
      2.69206886e+01 -1.09703064e+01 3.42103034e-01 -5.42333412e+00
      -4.12606430e+00 -2.09751296e+00 9.64307117e+00 -2.09985962e+01
      -1.53007679e+01 -1.61313877e+01 -7.74095893e-01 8.74882984e+00
      1.56385851e+00 -1.54557419e+01 -4.90754604e+00</_>
    <_>
      9.88619995e+00 -1.61815659e+02 -1.41998901e+02 8.21346054e+01
      -3.13698330e+01 -3.64834328e+01 1.32531977e+01 5.59795523e+00
      -5.47060299e+00 -6.22520638e+00 5.52350159e+01 -8.12766171e+00
      -1.46186752e+01 -1.49522505e+01 2.81325984e+00 -5.69745779e+00
      6.85390949e+00 -8.08145106e-01 1.90883255e+01 -1.15116463e+01
      4.85711050e+00 2.97400951e+00 2.17991471e-01 -9.47507572e+00
      7.02906513e+00 8.65185356e+00 1.00365477e+01 7.00360775e+00
      -1.13376122e+01 1.98875034e+00 -6.40424347e+00 2.89775896e+00
      -5.17981911e+00 3.13414741e+00 -5.85650253e+00</_>
    <_>
      -4.85952644e+01 2.28848724e+01 5.06168604e+00 9.72842693e+00
      1.05269203e+01 -3.41020050e+01 3.42706261e+01 -2.36716404e+01
      -1.37704144e+01 2.37740669e+01 8.03284550e+00 1.92250118e+01
      -2.18451328e+01 4.65796232e-01 -4.20765591e+00 -9.98508072e+00
      9.63356876e+00 -6.20088391e-02 -5.21807075e-01 -9.66490364e+00
      1.69619846e+01 -2.74698758e+00 6.45641863e-01 -9.17917919e+00
      1.71014595e+01 2.55573425e+01 1.70799005e+00 4.81835222e+00
      1.08084793e+01 2.73198438e+00 -2.53973508e+00 -1.41236329e+00
      1.05709624e+00 6.16129923e+00 -3.82018775e-01</_>
    <_>
      7.25015461e-01 -1.06512177e+02 4.94842224e+01 -1.06135590e+02
      -4.35127220e+01 -2.67783184e+01 7.79998732e+00 5.11814842e+01
      -2.21915970e+01 4.36522255e+01 4.07721214e+01 -1.57870636e+01
      -1.10120335e+01 -1.14353790e+01 -9.02257919e-01 -4.91276598e+00
      9.27360439e+00 -3.64229107e+00 2.69153690e+00 -4.32452250e+00
      -1.13703227e+00 -6.90066576e+00 -2.18060913e+01 -1.67490711e+01
      4.02446413e+00 1.41377473e+00 6.47849846e+00 8.67789459e+00
      -6.25636053e+00 3.37318921e+00 -1.92226517e+00 7.85690641e+00
      1.60106754e+00 -6.52898073e-01 -3.52976251e+00</_>
    <_>
      -5.59279799e-01 -9.30662994e+01 8.99685974e+01 -1.42725876e+02
      -4.17239532e+01 -2.47086072e+00 3.01913280e+01 1.26961960e+02
      -4.57045631e+01 8.89925461e+01 8.96667786e+01 -4.09877663e+01
      -1.32933369e+01 2.05150914e+00 -1.22369614e+01 -7.21786690e+00
      1.47632608e+01 -1.25405674e+01 8.25283432e+00 2.61396378e-01
      2.07680054e+01 1.81635227e+01 4.51463852e+01 -5.01464987e+00
      9.59517765e+00 -6.42996609e-01 5.64103556e+00 8.24406052e+00
      -1.66633854e+01 1.94033825e+00 -4.05550241e+00 2.25434232e+00
      -1.57512751e+01 9.78352070e+00 -3.05984187e+00</_>
    <_>
      -5.74647760e+00 -3.12688007e+01 3.00068913e+01 -3.18905487e+01
      6.26725817e+00 1.62107029e+01 3.36918945e+01 6.98665543e+01
      -8.62280464e+00 -6.27465487e+00 3.26715088e+01 1.78294163e+01
      -1.18965435e+01 -1.48890905e+01 9.06341457e+00 5.66386461e+00
      1.06041327e+01 1.99948215e+00 -1.60349216e+01 -1.40220070e+01
      -3.95395393e+01 -6.60771179e+01 -1.77479462e+02 -3.83539162e+01
      1.93569317e+01 -1.06534204e+01 -2.02271789e-01 1.32354670e+01
      1.64611399e+00 2.64745307e+00 4.11670923e+00 9.26194286e+00
      -6.85697603e+00 3.88268501e-01 -2.66435337e+00</_>
    <_>
      -6.33092117e+01 1.26391630e+01 9.85037708e+00 -2.41553345e+01
      -1.71792393e+01 -5.13090801e+00 8.24122849e+01 5.82934237e+00
      8.04186916e+00 -4.79296303e+01 -6.21402693e+00 -1.66534996e+01
      -5.05197182e+01 -2.50414124e+01 -2.40379200e+01 -3.96505928e+01
      4.05363121e+01 -2.80445576e+01 3.07668934e+01 -4.17018242e+01
      2.07219200e+01 2.00104561e+01 -1.32533369e+01 -7.06404066e+00
      1.00414190e+01 4.14930868e+00 8.55462074e+00 -1.05184984e+01
      5.66800737e+00 8.27795887e+00 1.04519377e+01 2.74237785e+01
      -7.18138123e+00 3.36699677e+00 9.47930717e+00</_>
    <_>
