<?xml version="1.0"?>
<opencv_storage>
<opencv_ml_svm>
  <format>3</format>
  <svmType>C_SVC</svmType>
  <kernel>
    <type>RBF</type>
    <gamma>5.0000000000000001e-04</gamma></kernel>
  <C>1.2500000000000000e-01</C>
  <term_criteria><iterations>5000</iterations></term_criteria>
  <var_count>14</var_count>
  <class_count>4</class_count>
  <class_labels type_id="opencv-matrix">
    <rows>4</rows>
    <cols>1</cols>
    <dt>i</dt>
    <data>
      0 1 2 3</data></class_labels>
  <class_weights type_id="opencv-matrix">
    <rows>4</rows>
    <cols>1</cols>
    <dt>f</dt>
    <data>
      1.44130433e+00 1. 1. 1.28437495e+00</data></class_weights>
  <sv_total>1429</sv_total>
  <support_vectors>
    <_>
      6.84577637e+01 4.39423752e+01 -4.35199203e+01 -4.08126526e+01
      2.05262699e+01 -1.84646475e+00 5.80250120e+00 -1.99651394e+01
      6.31618881e+00 1.20560980e+01 1.52727995e+01 -2.57625561e+01
      -3.17340240e+01 -3.71658821e+01</_>
    <_>
      -7.68074875e+01 5.33192024e+01 -3.84251862e+01 -1.19984493e+01
      -4.48834076e+01 -2.05889816e+01 -3.45809860e+01 1.32964602e+01
      -6.07363176e+00 1.40524778e+01 5.57546616e+00 2.86447215e+00
      -2.67163811e+01 1.15818014e+01</_>
    <_>
      8.76343842e+01 4.48499222e+01 -4.23496437e+01 -3.54032745e+01
      2.04934359e+00 -2.55501461e+01 1.19822006e+01 -1.73734725e+00
      6.42718792e+00 7.95193577e+00 6.91348171e+00 -1.17546387e+01
      -1.14281464e+01 -1.49039316e+01</_>
    <_>
      1.09629807e+02 4.84528961e+01 5.05991650e+00 1.91085167e+01
      -7.15087509e+01 -5.87554169e+01 2.63709183e+01 1.52376375e+01
      6.11882744e+01 2.25044060e+01 8.27869511e+00 3.24956566e-01
      -7.02939701e+00 -3.16796112e+00</_>
    <_>
      -6.57356186e+01 -6.59359694e+00 -3.15027599e+01 -4.49061661e+01
      -5.64105949e+01 -9.24138737e+00 5.40333786e+01 4.30181265e+00
      1.04164028e+00 -8.52133942e+00 -1.66011918e+00 -4.18900070e+01
      -4.32680283e+01 -1.71731110e+01</_>
    <_>
      -5.33925285e+01 3.01831837e+01 -5.01049042e+00 -6.41795695e-02
      -1.02828255e+01 -1.64676704e+01 5.39794922e+01 -2.84928055e+01
      -6.79214478e+00 5.71963215e+00 3.32822919e+00 -1.39930468e+01
      -3.07793770e+01 1.56185303e+01</_>
    <_>
      7.32379556e-01 -1.10541176e+02 5.29932556e+01 -1.11902565e+02
      -4.52325783e+01 -2.71244392e+01 8.29528332e+00 5.72570801e+01
      -2.47983913e+01 5.04960442e+01 4.49226151e+01 -1.92599792e+01
      -1.13968363e+01 -1.04850473e+01</_>
    <_>
      8.04546051e+01 3.88923607e+01 -3.99600563e+01 -2.99505405e+01
      1.61694264e+00 -2.18735199e+01 1.23075199e+01 -2.36735511e+00
      1.06996040e+01 9.19964123e+00 5.65829659e+00 -1.04685097e+01
      -1.02837181e+01 -1.33487215e+01</_>
    <_>
      -1.13541145e+01 -1.06866302e+02 3.26196976e+01 -1.05786682e+02
      -6.07119331e+01 -7.16192551e+01 -1.86945877e+01 -7.78541183e+01
      9.54274654e+00 -1.44233704e+00 -6.20835037e+01 -5.27196944e-01
      -7.96863127e+00 -3.01463737e+01</_>
    <_>
      -4.89642601e+01 2.32155762e+01 1.51823969e+01 2.18973866e+01
      3.36806870e+01 -6.79222488e+01 -7.88284149e+01 4.77884483e+01
      1.54466639e+01 -2.69720783e+01 -5.58051288e-01 -5.25826645e+01
      -3.09769154e+01 -6.70136452e+00</_>
    <_>
      -8.45118484e+01 4.59683533e+01 -3.33798141e+01 -2.80859451e+01
      -6.31612167e+01 1.76097183e+01 8.33692551e+01 -6.56977272e+00
      1.85491371e+01 -4.35048103e+01 -8.92773056e+00 -7.25724640e+01
      -1.26139545e+01 -2.19918690e+01</_>
    <_>
      3.80942965e+00 -1.46362228e+02 -3.19878983e+00 -8.49137650e+01
      -7.11907349e+01 -8.31797791e+01 -3.59420662e+01 -9.80945282e+01
      1.87484684e+01 -1.79732952e+01 -5.01427422e+01 3.66673565e+00
      -1.42398710e+01 -2.61310406e+01</_>
    <_>
      -6.54743958e+01 3.40860329e+01 -9.00112152e+00 -4.39696455e+00
      -1.99806290e+01 -1.51636963e+01 6.88076477e+01 -2.91090450e+01
      -3.11356950e+00 4.14034486e-01 2.51576734e+00 -2.54547443e+01
      -3.46627235e+01 6.27349949e+00</_>
    <_>
      1.07934704e+01 -1.13459549e+01 -4.35818529e+00 -3.54653311e+00
      2.10448837e+01 3.41955147e+01 -5.71138287e+00 -1.61668186e+01
      3.46882057e+01 1.92281704e+01 1.00100412e+01 -1.39626389e+01
      1.81596985e+01 5.86576843e+00</_>
    <_>
      1.36342743e+02 6.55061798e+01 4.39514732e+01 6.59998169e+01
      -1.33429245e+02 -6.19239731e+01 2.82608776e+01 2.35237675e+01
      1.00544083e+02 4.08458176e+01 1.19357405e+01 1.23457947e+01
      -3.87901993e+01 -1.72795372e+01</_>
    <_>
      -3.60886421e+01 6.21650696e+01 -6.81471024e+01 -4.55233727e+01
      -1.90705318e+01 -5.93931484e+00 2.00722766e+00 -1.49433889e+01
      -1.75365257e+01 2.25376797e+01 1.24810295e+01 -7.45953465e+00
      -6.24728394e+01 -1.86855927e+01</_>
    <_>
      4.44574699e+01 1.65181904e+01 4.26123848e+01 4.73812943e+01
      -5.72045937e+01 4.08726425e+01 -3.22866364e+01 -3.01221828e+01
      -1.01836113e+02 -2.17125092e+01 3.29034495e+00 -2.48188477e+01
      7.32509804e+00 -9.00946331e+00</_>
    <_>
      -3.04802227e+00 -6.38313293e+01 6.68584900e+01 -9.26470566e+01
      -1.60094891e+01 1.35701618e+01 3.66793022e+01 1.18096588e+02
      -3.10526485e+01 4.51221809e+01 6.96753235e+01 -1.61773605e+01
      -9.62737560e+00 -1.20998602e+01</_>
    <_>
      -3.22620916e+00 -7.27662125e+01 7.62083206e+01 -1.06892197e+02
      -1.96827927e+01 1.26165762e+01 3.86714096e+01 1.32892548e+02
      -3.70428391e+01 5.62072525e+01 8.03530273e+01 -2.04440937e+01
      -1.04939756e+01 -1.17557487e+01</_>
    <_>
      -2.02157068e+00 -1.88110237e+01 2.34726791e+01 -9.79579735e+00
      1.70838127e+01 3.58752365e+01 4.36984291e+01 5.74355240e+01
      1.94915009e+01 -9.89028702e+01 -1.89550018e+01 8.40144043e+01
      -9.80568027e+00 -7.87577133e+01</_>
    <_>
      -8.02896042e+01 3.73659477e+01 -3.07668839e+01 -4.45101471e+01
      -6.53647079e+01 6.17972040e+00 8.07786560e+01 5.88985729e+00
      6.75159788e+00 -1.48488884e+01 4.70783710e+00 -7.78289948e+01
      -1.61763306e+01 -2.44144478e+01</_>
    <_>
      1.06899166e+01 -1.53349869e+02 -1.33640747e+02 7.39816208e+01
      -3.36482773e+01 -3.51444435e+01 9.80988503e+00 -2.50410533e+00
      -2.34012127e+00 -9.11772919e+00 5.45191116e+01 -1.09683895e+01
      -1.33761768e+01 -1.04688520e+01</_>
    <_>
      -2.98181973e+01 1.72235241e+01 1.32441263e+01 1.73050308e+01
      2.39706993e+01 -4.49998665e+01 -5.51311417e+01 2.89502354e+01
      1.50706186e+01 -2.57950153e+01 -4.49332333e+00 -3.97807388e+01
      -4.65039825e+01 2.23634109e+01</_>
    <_>
      1.41501526e+02 7.93260498e+01 -7.41345596e+01 -6.22517357e+01
      1.62956886e+01 -6.92472610e+01 2.50318565e+01 1.01297245e+01
      -2.87117996e+01 -1.02898817e+01 5.40690899e-01 -1.83803387e+01
      7.49135685e+00 -1.48107967e+01</_>
    <_>
      9.35728073e+01 4.72117004e+01 4.02533836e+01 5.97007637e+01
      -1.09673363e+02 -2.59109116e+01 9.76266670e+00 7.07969522e+00
      5.29547806e+01 2.80956936e+01 9.50560760e+00 -8.20509911e-01
      -3.78707924e+01 -2.16227436e+01</_>
    <_>
      -7.15435257e+01 4.29716187e+01 -1.39582367e+01 -5.89892156e-02
      -2.18328152e+01 -3.08338470e+01 5.32083893e+01 -3.81686287e+01
      -1.76886349e+01 3.83919945e+01 1.73894444e+01 4.73675203e+00
      -4.74880791e+00 -1.30546274e+01</_>
    <_>
      9.86579208e+01 4.96302872e+01 -4.66353760e+01 -3.91147881e+01
      1.39295578e+01 7.77016059e-02 -2.16352105e+00 -1.76344185e+01
      3.21564980e+01 3.29477272e+01 2.46927795e+01 -1.41373558e+01
      -4.62748375e+01 -5.90482903e+01</_>
    <_>
      -9.32738190e+01 4.87199745e+01 -6.05291824e+01 -2.28474941e+01
      -7.61528473e+01 -1.63994102e+01 -1.37116957e+01 1.39052019e+01
      3.23406792e+00 1.18616743e+01 4.28567505e+00 -6.46593451e-01
      2.42147102e+01 -3.36980705e+01</_>
    <_>
      -7.73875427e+01 1.66396198e+01 -9.44118738e-01 -2.76894207e+01
      -2.96556759e+01 -2.64511681e+01 6.57612762e+01 2.35345078e+00
      -8.12469578e+00 4.73824596e+00 2.11539631e+01 -3.42244034e+01
      -1.41019297e+01 -3.32610664e+01</_>
    <_>
      -7.79710617e+01 4.06963692e+01 7.01962519e+00 1.83518524e+01
      1.71758270e+01 -6.81113663e+01 1.70158939e+01 -1.51747437e+01
      -1.84404392e+01 3.22430801e+01 1.93553314e+01 2.06790485e+01
      1.43571863e+01 -5.49555435e+01</_>
    <_>
      -8.68791809e+01 5.16594315e+01 -2.26150227e+01 1.66528368e+00
      -1.67370033e+01 -5.20625572e+01 -4.12782822e+01 2.27362556e+01
      2.78534383e-01 1.12624121e+01 1.00671167e+01 -1.17695312e+01
      -1.33627777e+01 -2.23057346e+01</_>
    <_>
      5.52811470e+01 4.39210777e+01 3.89089050e+01 5.75703430e+01
      -1.05872589e+02 -7.64101076e+00 -6.76193523e+00 -4.54524565e+00
      -2.53450751e+00 1.64995842e+01 1.12658596e+01 -7.10586739e+00
      -2.75696602e+01 -2.89712620e+01</_>
    <_>
      -9.15659790e+01 7.12440414e+01 -8.39709854e+01 -5.16431885e+01
      -1.07344894e+02 2.98526115e+01 -1.02108908e+01 2.83032246e+01
      1.75234814e+01 -2.09104519e+01 -1.02306757e+01 1.13379097e+01
      3.34663391e+01 -2.98258381e+01</_>
    <_>
      -9.72067108e+01 6.19451866e+01 -2.51683273e+01 2.03507215e-01
      -2.92990494e+01 -5.79807663e+01 -2.61710606e+01 9.95132351e+00
      6.54181361e-01 1.29093885e+01 1.80567226e+01 -4.37811890e+01
      -1.61349964e+00 -4.24720612e+01</_>
    <_>
      -2.38090348e+00 -8.64810410e+01 -8.28295288e+01 6.85576782e+01
      4.81458902e+00 7.06484079e-01 3.44986343e+01 5.85473480e+01
      -2.42464771e+01 7.51216125e+01 -9.14794998e+01 -2.31924400e+01
      -1.80212574e+01 -2.93304195e+01</_>
    <_>
      -2.80434775e+00 -1.14553246e+02 3.69166641e+01 -1.12667770e+02
      -5.88367386e+01 -7.31162262e+01 -3.00378857e+01 -7.58556290e+01
      9.61856079e+00 7.08462286e+00 -7.18528366e+01 4.06206465e+00
      -1.75522003e+01 -2.48503761e+01</_>
    <_>
      -8.77041931e+01 6.08992462e+01 -4.50714455e+01 -1.66616440e+01
      -5.72163200e+01 -1.73558235e+01 1.55533361e+00 -7.95308208e+00
      -1.60731087e+01 3.53481712e+01 1.26210527e+01 4.51839600e+01
      2.36003780e+01 -2.15814114e+01</_>
    <_>
      -1.44791212e+01 4.94944334e+00 9.72745228e+00 6.61560202e+00
      1.39600430e+01 -5.66769314e+00 2.08331413e+01 -8.62853432e+00
      3.75876141e+00 -1.30363913e+01 -7.24280310e+00 -9.27451992e+00
      -3.07236075e+00 1.74022045e+01</_>
    <_>
      1.78388901e+01 3.30085659e+00 -3.71214938e+00 -7.30354261e+00
      2.26795444e+01 3.38968430e+01 -1.27106342e+01 -2.80325336e+01
      3.18140831e+01 1.76899300e+01 1.58149862e+01 -1.95732937e+01
      2.45572510e+01 -5.94596767e+00</_>
    <_>
      -3.90242648e+00 -1.53359985e+01 1.80261974e+01 -6.86204529e+00
      1.33675089e+01 3.19988575e+01 4.15122147e+01 4.54224625e+01
      1.87889366e+01 -8.58485260e+01 -1.94521332e+01 6.80415955e+01
      -1.42016878e+01 -6.15750122e+01</_>
    <_>
      -4.49544106e+01 4.53684711e+00 1.04131050e+01 -1.48357058e+01
      -3.09924030e+00 4.94710207e+00 5.26347885e+01 2.94156532e+01
      1.77986755e+01 -6.77428360e+01 -1.01845341e+01 -3.86953115e+00
      -2.44185524e+01 -3.84759598e+01</_>
    <_>
      -8.07940674e+01 4.34112549e+01 3.69227481e+00 1.86166630e+01
      1.38966684e+01 -7.26376038e+01 7.11416483e+00 -1.27358904e+01
      -1.81401043e+01 3.55157509e+01 2.19726200e+01 1.74856911e+01
      2.19066849e+01 -6.27806969e+01</_>
    <_>
      2.12700891e+00 -1.43772324e+02 -2.01005912e+00 -8.76604233e+01
      -7.21015167e+01 -8.29708633e+01 -3.69059029e+01 -9.82019348e+01
      1.88777103e+01 -1.70932255e+01 -5.03826981e+01 9.31521118e-01
      -1.31414995e+01 -2.56932869e+01</_>
    <_>
      1.63164200e+02 8.65145950e+01 -4.59616547e+01 -2.86003208e+01
      -3.30434761e+01 -1.20294540e+02 5.56941719e+01 3.61116753e+01
      -4.82391596e+00 -1.84257698e+01 -1.07949352e+01 -2.00370865e+01
      6.27059059e+01 2.39415989e+01</_>
    <_>
      -5.48831367e+01 1.72655239e+01 1.00011492e+01 -5.81131363e+00
      3.49464941e+00 -1.17043076e+01 5.12606812e+01 1.45489998e+01
      1.02479095e+01 -4.78262939e+01 -7.72501755e+00 -1.03450394e+01
      -4.29717789e+01 -2.63283005e+01</_>
    <_>
      7.80969906e+00 -1.63708084e+02 -1.24858109e+02 5.29620705e+01
      -4.41819954e+01 -4.99314423e+01 1.78639674e+00 -2.52929897e+01
      6.09232283e+00 -3.16860771e+01 6.29046631e+01 -1.04860001e+01
      -1.42330523e+01 -1.44560061e+01</_>
    <_>
      2.12700891e+00 -1.43772324e+02 -2.01005912e+00 -8.76604233e+01
      -7.21015167e+01 -8.29708633e+01 -3.69059029e+01 -9.82019348e+01
      1.88777103e+01 -1.70932255e+01 -5.03826981e+01 9.31521118e-01
      -1.31414995e+01 -2.56932869e+01</_>
    <_>
      1.42032806e+02 7.96627426e+01 -7.30420532e+01 -6.09294052e+01
      1.40524483e+01 -7.14054565e+01 2.59446068e+01 1.12126169e+01
      -2.95368500e+01 -1.13930397e+01 -2.49134868e-01 -1.83900566e+01
      1.01828833e+01 -1.17804270e+01</_>
    <_>
      2.27048826e+00 -5.83797684e+01 2.29913635e+01 -5.11717224e+01
      -9.78777981e+00 4.73473883e+00 1.87232742e+01 5.29105415e+01
      -6.26917410e+00 1.02710876e+01 2.51095390e+01 8.28978539e+00
      -1.10676012e+01 -1.93868332e+01</_>
    <_>
      -5.75898132e+01 2.22441788e+01 1.10149469e+01 5.19932032e+00
      8.59439754e+00 -4.17787361e+01 6.83468475e+01 -4.61194992e+01
      -2.63197269e+01 4.18928490e+01 1.61006851e+01 2.59970379e+01
      -5.34588013e+01 1.99101562e+01</_>
    <_>
      -5.60884819e+01 2.69866199e+01 1.40257654e+01 1.93181591e+01
      2.61941891e+01 -5.56310081e+01 1.60632877e+01 -1.32769766e+01
      -1.40581312e+01 2.06780491e+01 1.13054590e+01 2.44785938e+01
      8.55918598e+00 -3.69438515e+01</_>
    <_>
      -8.11437302e+01 4.80539856e+01 -2.72526340e+01 -2.49925494e+00
      -2.59628181e+01 -4.66054077e+01 -4.97320480e+01 2.61058750e+01
      5.56804800e+00 1.05502021e+00 8.42140102e+00 -1.93843746e+01
      -1.42696114e+01 -1.65370922e+01</_>
    <_>
      5.21895933e+00 2.82000923e+00 7.17029452e-01 9.61148441e-01
      -6.42312622e+00 7.51486206e+00 -5.97852659e+00 -4.15191031e+00
      -1.77931523e+00 -5.17035544e-01 3.39790583e-01 -6.45662248e-02
      1.38604665e+00 1.13158436e+01</_>
    <_>
      1.38482785e+00 -5.80671654e+01 2.50190010e+01 -5.21670456e+01
      -1.02701597e+01 4.55953503e+00 1.78913574e+01 5.13050232e+01
      -5.61529016e+00 8.71097469e+00 2.49349747e+01 9.36068439e+00
      -1.06501627e+01 -1.71147594e+01</_>
    <_>
      -2.81253624e+00 -1.88636780e+01 2.36171093e+01 -1.02821407e+01
      1.67532043e+01 3.69781799e+01 4.53990555e+01 5.84907570e+01
      2.03688889e+01 -1.01537979e+02 -1.96712704e+01 8.39663773e+01
      -1.00355282e+01 -8.01856003e+01</_>
    <_>
      -5.40139771e+00 -5.70575655e-01 7.34326601e+00 5.53005171e+00
      1.43646317e+01 -3.87202811e+00 1.27515972e+00 6.68552577e-01
      3.44689798e+00 -1.03704774e+00 -4.61695337e+00 7.71565628e+00
      3.14498997e+00 1.05650311e+01</_>
    <_>
      -4.31181870e+01 2.09275990e+01 1.23567667e+01 1.67747002e+01
      2.39411907e+01 -4.64775658e+01 3.05270481e+00 -7.37677240e+00
      -1.05995264e+01 1.71839123e+01 9.45861816e+00 2.37786217e+01
      1.65684566e+01 -3.59940529e+01</_>
    <_>
      -4.01080399e+01 1.84414310e+01 1.25786991e+01 1.91611938e+01
      3.11749535e+01 -5.32750244e+01 -6.20151711e+01 3.57892952e+01
      1.25434427e+01 -2.17921162e+01 -3.95744395e+00 -3.24698982e+01
      -4.15705376e+01 9.90514183e+00</_>
    <_>
      -9.17196655e+01 7.43995972e+01 -9.02102737e+01 -5.48365974e+01
      -1.13492783e+02 3.28471909e+01 -1.94271965e+01 2.98823662e+01
      1.42056036e+01 -1.64885864e+01 -9.76448059e+00 2.75255260e+01
      3.42007370e+01 -2.37760448e+01</_>
    <_>
      -1.50712624e+01 -5.15937500e+01 -3.91620064e+01 1.40940094e+01
      -4.78345156e+00 -1.87798214e+01 6.60509109e+00 1.28783512e+01
      1.29464710e+00 -1.66559565e+00 -2.42821980e+01 -1.42584705e+01
      -1.86740360e+01 -4.15055513e+00</_>
    <_>
      1.67302780e+01 5.85547256e+00 -6.75273800e+00 -9.66277981e+00
      2.89708176e+01 2.29482498e+01 -1.30622196e+01 -1.07939301e+01
      2.42400188e+01 8.97709274e+00 5.12239075e+00 -9.37364101e+00
      3.41518211e+00 -1.79803288e+00</_>
    <_>
      -3.72564201e+01 6.08472214e+01 -7.28209305e+01 -4.80006294e+01
      -4.14036560e+01 8.45658493e+00 -8.47335529e+00 -3.76161671e+00
      -1.40437880e+01 1.55320415e+01 5.91875124e+00 -8.62254238e+00
      -5.23283615e+01 -5.29770231e+00</_>
    <_>
      4.44842567e+01 2.22135239e+01 -2.42325325e+01 -2.56598911e+01
      3.38619270e+01 4.18535347e+01 -1.59588947e+01 -3.73050308e+01
      4.08851089e+01 3.61319618e+01 2.68516541e+01 -2.56975441e+01
      2.88122034e+00 -3.30939903e+01</_>
    <_>
      -8.71179199e+01 5.09941940e+01 -2.72417641e+01 -5.06447172e+00
      -3.35313301e+01 -3.08574371e+01 2.83906975e+01 -1.64262524e+01
      -1.13282833e+01 3.29600296e+01 1.35334558e+01 1.53722668e+01
      2.40500526e+01 -3.61161308e+01</_>
    <_>
      1.03259171e+02 6.24085999e+01 -8.76941299e+01 -8.13346558e+01
      4.82804871e+01 5.96373081e+00 -1.71290627e+01 -2.50802078e+01
      -4.77290001e+01 8.95563793e+00 1.83186264e+01 -7.57197380e+00
      -8.12374344e+01 -6.63252029e+01</_>
    <_>
      -2.36686001e+01 1.04851532e+01 1.12047958e+01 1.61705437e+01
      2.48262615e+01 -4.12351074e+01 -6.58433380e+01 3.61867485e+01
      1.99108009e+01 -2.68571987e+01 -5.14206219e+00 -4.97102699e+01
      -2.97675610e+01 1.46698484e+01</_>
    <_>
      -2.43546047e+01 8.99726009e+00 9.52971840e+00 1.16024513e+01
      2.40008221e+01 -2.77334499e+01 -2.82002831e+01 1.75378761e+01
      6.51355457e+00 -1.21557007e+01 -6.04639959e+00 -5.08688116e+00
      -3.81325378e+01 2.08815975e+01</_>
    <_>
      2.63629360e+01 7.01789331e+00 2.70668049e+01 2.76975574e+01
      -2.53313770e+01 4.01738205e+01 -2.94488297e+01 -2.69899921e+01
      -1.04882812e+02 -3.26280098e+01 -5.01025581e+00 -1.54747944e+01
      5.62049408e+01 4.54820099e+01</_>
    <_>
      1.20490349e+02 5.45638580e+01 6.29970779e+01 8.30910034e+01
      -1.38448334e+02 -3.70168991e+01 1.32688656e+01 1.27774858e+01
      7.55660095e+01 3.72139511e+01 1.35213041e+01 8.95015812e+00
      -3.49432869e+01 -2.27596760e+01</_>
    <_>
      -8.22028275e+01 4.94347839e+01 -1.03634062e+01 7.09011173e+00
      -9.51393032e+00 -5.83725624e+01 -1.40613518e+01 4.59285688e+00
      -2.89585543e+00 9.96128368e+00 1.38877754e+01 -3.45402985e+01
      -2.12309456e+01 -2.09962444e+01</_>
    <_>
      -8.02558060e+01 4.32674026e+01 2.83055758e+00 1.87197971e+01
      1.65638504e+01 -7.49712296e+01 -2.74395199e+01 1.03666220e+01
      -8.13667393e+00 1.64294758e+01 1.47021856e+01 -8.57230949e+00
      -1.74332657e+01 -3.22221489e+01</_>
    <_>
      -4.21423435e+00 -4.31184530e+00 3.55001855e+00 -4.70915794e+00
      -1.41559467e-01 1.48759336e+01 1.97918930e+01 6.46065474e+00
      1.20165424e+01 -2.52332325e+01 -7.49721384e+00 -8.79401970e+00
      7.37951815e-01 -6.30844474e-01</_>
    <_>
      9.98410416e+00 -1.35482819e+02 -1.32160431e+02 9.92911224e+01
      -6.37125540e+00 -1.50381670e+01 2.28512135e+01 4.53053932e+01
      -1.84477882e+01 2.76134262e+01 1.75877647e+01 -4.72382784e+00
      -7.77482700e+00 -2.07115402e+01</_>
    <_>
      -5.14249725e+01 2.90792789e+01 -3.96347761e+00 1.11040103e+00
      -8.26318264e+00 -1.71499367e+01 5.20116234e+01 -2.87939644e+01
      -7.58782530e+00 7.51145506e+00 3.45690322e+00 -1.29986448e+01
      -2.97135868e+01 1.67931461e+01</_>
    <_>
      2.61676865e+01 9.19544888e+00 -1.97103043e+01 -2.22986927e+01
      3.44690247e+01 3.21428680e+01 -6.60122347e+00 -2.58276939e+01
      2.79237804e+01 2.09971294e+01 1.39468985e+01 -1.78693733e+01
      -8.96187210e+00 -2.64614677e+01</_>
    <_>
      -3.04971933e+00 -1.13210236e+02 3.79875870e+01 -1.11461472e+02
      -5.84795990e+01 -7.16243744e+01 -3.03342419e+01 -7.32709656e+01
      9.30650043e+00 9.48098469e+00 -7.61548691e+01 3.90828800e+00
      -1.59767618e+01 -2.54166279e+01</_>
    <_>
      2.10278549e+01 2.59392834e+01 -2.20639725e+01 -2.02562065e+01
      8.81634617e+00 3.04387531e+01 -7.67964363e+00 -2.58713608e+01
      2.07264748e+01 1.78723259e+01 1.57869568e+01 -1.78497200e+01
      -7.49099493e+00 -1.95097237e+01</_>
    <_>
      9.77898026e+00 -1.57904343e+02 -1.48492294e+02 1.03423607e+02
      -1.52272644e+01 -2.47801857e+01 2.27153568e+01 3.69821663e+01
      -1.75243053e+01 1.86367073e+01 3.72785492e+01 -5.64326525e+00
      -1.29243240e+01 -2.10881462e+01</_>
    <_>
      -5.22807617e+01 2.40711727e+01 9.15207958e+00 1.17016325e+01
      1.36196575e+01 -3.62897339e+01 6.16162910e+01 -4.20047646e+01
      -2.02654934e+01 3.05074940e+01 1.01314735e+01 2.16761131e+01
      -5.08658180e+01 2.49890251e+01</_>
    <_>
      1.31782135e+02 7.34673004e+01 -6.88985291e+01 -5.86422462e+01
      1.89192142e+01 -5.74845543e+01 2.01894550e+01 5.78332806e+00
      -2.17444477e+01 -6.00089216e+00 2.96161461e+00 -1.88561707e+01
      6.21811485e+00 -1.74713001e+01</_>
    <_>
      -1.04290482e+02 6.10377960e+01 -1.81149616e+01 7.89378548e+00
      -1.71213703e+01 -7.13545227e+01 -5.77161407e+00 -4.50360346e+00
      -1.27938757e+01 3.59764633e+01 2.46962566e+01 -1.49483891e+01
      7.16058636e+00 -5.31942558e+01</_>
    <_>
      -8.29929886e+01 4.55314903e+01 2.09347939e+00 1.56583767e+01
      7.05980396e+00 -6.56891251e+01 3.64159317e+01 -3.14862309e+01
      -2.59858303e+01 4.71157303e+01 2.34963570e+01 3.49205971e+01
      2.37499390e+01 -5.70922699e+01</_>
    <_>
      -4.72348862e+01 2.31046314e+01 1.13425121e+01 1.44777861e+01
      1.83639889e+01 -3.87944908e+01 3.55875549e+01 -2.60069790e+01
      -1.46005373e+01 2.07910519e+01 7.65856218e+00 2.44288235e+01
      2.03577876e+00 -1.06791544e+01</_>
    <_>
      -7.36533508e+01 3.96003189e+01 1.01829243e+01 2.26413212e+01
      2.46542244e+01 -7.85072327e+01 -2.16423321e+01 4.26751518e+00
      -9.21676254e+00 1.47056570e+01 1.58285255e+01 5.05180418e-01
      1.50492468e+01 -5.85387573e+01</_>
    <_>
      -6.06162109e+01 1.09646797e+01 9.36623383e+00 -2.11746025e+01
      -1.42962093e+01 -4.05439854e+00 8.05982361e+01 6.59424257e+00
      8.34864140e+00 -5.00137444e+01 -7.73712254e+00 -1.14431009e+01
      -5.02263260e+01 -2.50927181e+01</_>
    <_>
      -9.63913116e+01 6.81694565e+01 -5.16796761e+01 -1.82756214e+01
      -5.98761253e+01 -3.04085999e+01 -3.21827126e+01 1.32413063e+01
      -2.34486032e+00 2.04526176e+01 1.29323111e+01 1.40410423e+01
      1.98739414e+01 -3.64656792e+01</_>
    <_>
      -2.41589165e+01 9.02298260e+00 1.52431707e+01 1.74350739e+01
      3.07379341e+01 -3.92039642e+01 -3.25450134e+01 1.80506554e+01
      4.62803507e+00 -6.69883585e+00 1.29568219e+00 -3.94627380e+00
      1.60824203e+01 -2.84141979e+01</_>
    <_>
      -5.18754721e+00 -1.56450653e+01 1.84326630e+01 -8.37433815e+00
      1.23810472e+01 3.47338638e+01 4.54460449e+01 4.90478325e+01
      2.07491302e+01 -9.38711472e+01 -2.10766201e+01 7.13456650e+01
      -1.57073803e+01 -6.77823181e+01</_>
    <_>
      -9.48208389e+01 4.22801476e+01 -3.49753113e+01 -3.98580170e+01
      -6.95938339e+01 2.66300659e+01 9.99297867e+01 1.01223392e+01
      2.80428810e+01 -7.37748795e+01 -1.77444229e+01 -8.34452286e+01
      -2.58115997e+01 -3.41515884e+01</_>
    <_>
      -4.09103775e+00 -1.29095413e+02 -5.40898933e+01 -1.16033373e+01
      -4.57534637e+01 -6.19728966e+01 -1.25183105e+01 -5.12187691e+01
      1.60062428e+01 -4.83795013e+01 3.27495728e+01 -9.50969696e+00
      -1.32332850e+01 -1.99701538e+01</_>
    <_>
      2.19930210e+01 6.65316439e+00 1.35398178e+01 1.26390457e+01
      -1.14208965e+01 2.80338936e+01 -1.88824654e+01 -1.92989960e+01
      -6.91522751e+01 -2.23152752e+01 -4.11149502e+00 -9.75595474e+00
      4.15110931e+01 3.88729210e+01</_>
    <_>
      -4.94356251e+00 -1.14967051e+01 1.32845440e+01 -4.49477291e+00
      1.19794025e+01 2.09527187e+01 3.11919136e+01 2.87378349e+01
      1.37472553e+01 -5.39913673e+01 -1.40278902e+01 2.81650467e+01
      -8.62597656e+00 -3.11541367e+01</_>
    <_>
      -8.38361893e+01 4.95724335e+01 -2.64956284e+01 -4.61616850e+00
      -3.21478806e+01 -3.11060123e+01 2.02411518e+01 -1.27191381e+01
      -9.57490063e+00 3.01512165e+01 1.25481234e+01 1.48805094e+01
      2.21708336e+01 -3.27771149e+01</_>
    <_>
      -9.25707779e+01 5.27070045e+01 -2.50724869e+01 -7.82956886e+00
      -3.86329727e+01 -3.20740738e+01 5.43756981e+01 -2.95249729e+01
      -1.15484638e+01 3.07519073e+01 1.70316620e+01 -1.53864193e+01
      1.73016605e+01 -4.22392998e+01</_>
    <_>
      9.91135883e+00 -1.35435471e+02 -1.31551941e+02 9.84099197e+01
      -6.59780645e+00 -1.47452955e+01 2.30109901e+01 4.58476906e+01
      -1.87739716e+01 2.98638420e+01 1.12392998e+01 -6.25363445e+00
      -8.08145618e+00 -2.20128498e+01</_>
    <_>
      -6.46638870e+01 3.67054787e+01 -3.29066443e+00 6.91502237e+00
      -5.74668360e+00 -3.86602898e+01 5.09315567e+01 -3.81598816e+01
      -1.92159863e+01 3.77307625e+01 1.72437687e+01 1.34990931e+01
      -5.68345308e+00 -1.56109333e+01</_>
    <_>
      1.42093643e+02 8.15029831e+01 -6.00647469e+01 -4.56021500e+01
      -5.18983603e+00 -9.79274521e+01 3.78140717e+01 2.54029255e+01
      -3.81122704e+01 -2.34593983e+01 -9.72276497e+00 -1.60433884e+01
      3.74255333e+01 1.39710197e+01</_>
    <_>
      -8.27503204e+01 5.39656906e+01 -2.39833698e+01 -8.86985600e-01
      -2.64316807e+01 -4.57778816e+01 -1.90874825e+01 2.90711832e+00
      -9.56507206e+00 2.25154629e+01 1.47340965e+01 1.45777540e+01
      7.82637644e+00 -3.35761375e+01</_>
    <_>
      -1.03251556e+02 6.16737366e+01 -3.13039627e+01 -3.43753028e+00
      -3.62973671e+01 -4.96571465e+01 -4.07678556e+00 1.87977254e+00
      -5.09228373e+00 2.48147430e+01 1.75653934e+01 -2.03498745e+01
      1.47279606e+01 -4.77284851e+01</_>
    <_>
      1.36663437e+02 8.04470215e+01 -9.66768723e+01 -8.46407928e+01
      3.26899872e+01 -4.32013435e+01 7.94073248e+00 -2.13422441e+00
      -3.88650398e+01 1.14318419e+00 1.00548592e+01 -7.79748869e+00
      -5.38726387e+01 -4.85136147e+01</_>
    <_>
      -1.33900893e+00 -1.10869759e+02 1.30343266e+01 -8.03823929e+01
      -5.41060829e+01 -6.34243584e+01 -2.29652977e+01 -6.92977448e+01
      1.59349632e+01 -1.90450630e+01 -3.11496696e+01 -3.66557455e+00
      -9.93999577e+00 -2.29866199e+01</_>
    <_>
      -1.76207721e+00 -6.39567604e+01 3.34652328e+01 -5.80430679e+01
      -1.38683681e+01 3.94394135e+00 2.31033478e+01 6.87651749e+01
      -1.30785408e+01 1.21871128e+01 3.23240204e+01 1.12222652e+01
      -1.21717825e+01 -1.67040939e+01</_>
    <_>
      -9.65359116e+01 5.98921242e+01 -2.30030155e+01 4.14123011e+00
      -2.46683178e+01 -6.55814209e+01 -3.14263000e+01 7.86960697e+00
      -5.15415192e-01 1.67815189e+01 2.14304638e+01 -4.34393005e+01
      1.14050043e+00 -4.84015808e+01</_>
    <_>
      -8.73046017e+00 -1.12797424e+02 2.75780945e+01 -1.01157227e+02
      -6.02555771e+01 -7.55816650e+01 -2.27481174e+01 -8.55049667e+01
      1.21475306e+01 -6.89809847e+00 -6.26624222e+01 3.21729541e-01
      -8.19795227e+00 -3.01587639e+01</_>
    <_>
      1.01648130e+01 -1.64133896e+02 -1.44633118e+02 8.40515671e+01
      -3.18683376e+01 -3.76463165e+01 1.31621513e+01 4.64507580e+00
      -5.38526583e+00 -9.24116230e+00 6.36607895e+01 -6.63840961e+00
      -1.46662836e+01 -1.39839058e+01</_>
    <_>
      7.94896469e+01 5.37232666e+01 -4.82041283e+01 -3.93049049e+01
      5.00231552e+00 -2.74903259e+01 9.44268131e+00 -5.09466469e-01
      -1.24058771e+01 3.55347490e+00 5.69191122e+00 -1.21800194e+01
      -4.25254402e+01 -2.82673817e+01</_>
    <_>
      9.70696793e+01 4.65040054e+01 -3.85484352e+01 -2.98951817e+01
      9.55887318e+00 -1.56463575e+01 6.59535599e+00 -6.57062387e+00
      2.60621738e+01 2.34209270e+01 1.52174368e+01 -9.77913189e+00
      -2.97423782e+01 -3.58788452e+01</_>
    <_>
      8.00192547e+00 -1.34762192e+02 -1.03650108e+02 5.85420341e+01
      -2.14973202e+01 -2.91808929e+01 1.51317959e+01 1.11674509e+01
      -5.78652573e+00 -1.53200722e+01 6.62827301e+01 5.44245815e+00
      -1.18877344e+01 -1.34612885e+01</_>
    <_>
      8.80872011e-01 -1.20285820e+02 7.20615234e+01 -1.44341843e+02
      -5.91487427e+01 -6.76931992e+01 -3.01082802e+01 -5.10679321e+01
      2.02383518e+00 2.62759628e+01 -7.81465607e+01 4.62068176e+00
      -9.66494179e+00 -3.00230541e+01</_>
    <_>
      -8.82341919e+01 5.92523384e+01 -4.42895355e+01 -1.92670135e+01
      -5.70607109e+01 -1.85191269e+01 -1.95829849e+01 1.72309647e+01
      3.44651532e+00 3.70917273e+00 4.96660042e+00 -5.36888409e+00
      4.12313938e+00 -1.87345695e+01</_>
    <_>
      -1.24060655e+00 -1.30696259e+02 -2.29984856e+00 -8.76147690e+01
      -6.99128876e+01 -7.45344162e+01 -3.26421700e+01 -8.46906662e+01
      1.59927568e+01 -1.45435162e+01 -4.88205109e+01 1.44781280e+00
      -1.40147715e+01 -2.43154316e+01</_>
    <_>
      7.54347467e+00 -1.61357544e+02 -1.22140526e+02 5.06528702e+01
      -4.41523743e+01 -4.90720100e+01 1.65805161e+00 -2.51880703e+01
      6.33718395e+00 -2.96138153e+01 5.57938690e+01 -1.18269339e+01
      -1.43047333e+01 -1.51992083e+01</_>
    <_>
      -8.30893936e+01 5.59094162e+01 -2.49966602e+01 -3.43409777e-01
      -2.53055477e+01 -4.81001244e+01 -2.77739143e+01 5.35453224e+00
      -1.14780560e+01 2.62952938e+01 1.56827726e+01 2.38495998e+01
      8.79768085e+00 -3.35723686e+01</_>
    <_>
      -5.28530388e+01 2.74044018e+01 2.16516514e+01 3.00417023e+01
      4.60468292e+01 -8.47343674e+01 -9.35080643e+01 4.99549675e+01
      1.47620916e+01 -3.00982761e+01 1.90978020e-01 -4.96214828e+01
      -2.11059456e+01 -2.34907036e+01</_>
    <_>
      -8.89310455e+00 -1.83357477e+00 2.31811810e+00 -3.12088776e+00
      1.20860660e+00 8.18923473e+00 1.29178715e+01 1.14556437e+01
      1.31473246e+01 -2.50459805e+01 -5.01700687e+00 -1.67941246e+01
      5.06767225e+00 -1.12515602e+01</_>
    <_>
      3.85267143e+01 1.42286577e+01 -2.11862717e+01 -2.40770798e+01
      3.65681190e+01 5.14676323e+01 -2.01257744e+01 -3.93331566e+01
      4.33740959e+01 3.60063057e+01 2.76397629e+01 -2.91000443e+01
      6.23021364e+00 -3.15383472e+01</_>
    <_>
      -2.54515381e+01 -5.51494694e+00 -1.47576351e+01 2.02164421e+01
      1.24240980e+01 -1.13730555e+01 1.35784817e+01 3.55775619e+00
      1.90240681e+00 1.68554859e+01 -2.64165573e+01 3.53591180e+00
      -4.53255424e+01 3.22387352e+01</_>
    <_>
      1.43090179e+02 7.96916885e+01 -7.20152054e+01 -6.00104103e+01
      1.35532627e+01 -7.49425659e+01 2.83725395e+01 1.27074480e+01
      -2.86773872e+01 -1.28466902e+01 -1.23180354e+00 -2.00341740e+01
      1.77656193e+01 -8.29389572e+00</_>
    <_>
      -2.46400070e+01 8.97462654e+00 1.33911257e+01 1.43996840e+01
      2.62654781e+01 -3.22919617e+01 -9.58917236e+00 2.92201424e+00
      -3.63532752e-01 2.87828279e+00 2.32749677e+00 1.34902630e+01
      6.35549355e+00 -2.04754314e+01</_>
    <_>
      1.03133896e+02 6.22688980e+01 -8.49880905e+01 -7.83012772e+01
      4.40164413e+01 8.41716290e+00 -1.87856121e+01 -2.61170921e+01
      -4.87184715e+01 9.85039139e+00 1.88486900e+01 -7.18942595e+00
      -8.59925232e+01 -6.92149811e+01</_>
    <_>
      -9.77334518e+01 6.64807434e+01 -5.69339638e+01 -2.40095711e+01
      -6.80247955e+01 -2.00093822e+01 -3.49707985e+01 2.55491848e+01
      9.81945419e+00 -1.37649977e+00 4.16955805e+00 -1.10211277e+01
      1.71120319e+01 -3.36602325e+01</_>
    <_>
      3.09265537e+01 6.39819956e+00 -1.17675047e+01 -1.61132679e+01
      3.69584541e+01 5.89445763e+01 -1.87497959e+01 -3.99268188e+01
      5.65174217e+01 4.22451401e+01 2.71529179e+01 -3.66147919e+01
      1.88047714e+01 -3.75676117e+01</_>
    <_>
      1.43415833e+01 3.66356230e+00 5.96257639e+00 6.22959709e+00
      -1.63910179e+01 1.70558090e+01 -9.62684441e+00 -1.05183315e+01
      -2.52043362e+01 -8.28357983e+00 9.96549577e-02 -3.80804539e+00
      1.86268425e+01 2.21236782e+01</_>
    <_>
      -8.64357071e+01 4.72121468e+01 -3.38108482e+01 -2.76445122e+01
      -6.33213921e+01 1.45185413e+01 8.27718658e+01 -8.84543705e+00
      1.69206448e+01 -3.76617699e+01 -6.79834795e+00 -7.07619781e+01
      -1.04766064e+01 -2.12795258e+01</_>
    <_>
      -3.31603241e+00 -1.40796852e+01 1.95963383e+01 -1.05472078e+01
      8.70877743e+00 3.77727585e+01 4.71398964e+01 5.21836815e+01
      2.19655151e+01 -1.07458076e+02 -2.19388828e+01 8.05187912e+01
      -1.50085154e+01 -7.63560257e+01</_>
    <_>
      1.23505966e+02 6.32621193e+01 -2.17192669e+01 -9.51889420e+00
      -3.45368805e+01 -7.03382187e+01 3.05620632e+01 1.67490082e+01
      -1.25132771e+01 -1.28651285e+01 -5.05406570e+00 -1.80241776e+01
      4.58103485e+01 1.83330727e+01</_>
    <_>
      1.46893433e+02 7.83351059e+01 -3.55482941e+01 -1.85709858e+01
      -3.78599205e+01 -9.42514038e+01 3.83502235e+01 2.79107761e+01
      7.50313139e+00 -5.63340139e+00 -3.89933348e+00 -1.00466528e+01
      2.20425377e+01 5.36291218e+00</_>
    <_>
      -3.35138474e+01 1.49347782e+01 1.70870533e+01 2.34787235e+01
      3.72968903e+01 -5.98015785e+01 -8.04425735e+01 4.68368721e+01
      1.81772881e+01 -3.03281174e+01 -3.87017083e+00 -4.94383698e+01
      -2.43276882e+01 -3.56168413e+00</_>
    <_>
      1.07533503e+01 -1.52963684e+02 -1.33425552e+02 7.40808563e+01
      -3.35789223e+01 -3.50884399e+01 9.51987171e+00 -2.46346879e+00
      -2.23805952e+00 -9.75839996e+00 5.60974808e+01 -1.03248024e+01
      -1.31687527e+01 -9.69227505e+00</_>
    <_>
      2.21834984e+01 6.70136023e+00 1.36965942e+01 1.29226103e+01
      -1.17335949e+01 2.80056324e+01 -1.89062977e+01 -1.94976349e+01
      -6.96793213e+01 -2.21688156e+01 -3.97968674e+00 -1.01201544e+01
      4.06142807e+01 3.81757202e+01</_>
    <_>
      2.71104107e+01 4.11246300e+00 -8.94211483e+00 -1.44994593e+01
      3.52551231e+01 5.95942688e+01 -2.06738300e+01 -4.16408348e+01
      5.97056999e+01 4.11328239e+01 2.62450237e+01 -3.46746902e+01
      2.97982178e+01 -2.32867661e+01</_>
    <_>
      -3.05633163e+01 8.58781128e+01 -1.20240608e+02 -8.14247284e+01
      -7.44012680e+01 3.24893570e+01 -4.97429314e+01 1.20747414e+01
      -1.63565044e+01 1.82657681e+01 2.50144958e+00 3.68859291e+01
      -5.51175728e+01 -1.76285386e+00</_>
    <_>
      1.08189428e+00 -1.23284340e+02 7.20159225e+01 -1.46240250e+02
      -6.08833923e+01 -6.96160202e+01 -3.09436893e+01 -5.37353630e+01
      2.56730342e+00 2.45961781e+01 -7.92872391e+01 6.27230930e+00
      -1.02980633e+01 -3.17117939e+01</_>
    <_>
      -3.42061806e+01 1.85272331e+01 1.73341446e+01 2.31640224e+01
      3.47875824e+01 -6.07914581e+01 -7.04712524e+01 3.55483398e+01
      1.19671040e+01 -2.15718689e+01 8.88131738e-01 -3.42985916e+01
      5.74605179e+00 -2.73747520e+01</_>
    <_>
      5.03129840e-01 -1.19167633e+02 7.27085190e+01 -1.44024887e+02
      -5.83895340e+01 -6.58511887e+01 -2.77423401e+01 -4.71572189e+01
      1.48883224e+00 2.51223049e+01 -7.61349716e+01 4.84435081e+00
      -1.01924648e+01 -3.10344849e+01</_>
    <_>
      -2.86920395e+01 1.00184021e+01 1.60801830e+01 1.33491392e+01
      2.75317955e+01 -2.62789478e+01 2.45028801e+01 -1.39635649e+01
      -6.37765837e+00 2.96683216e+00 -2.09068418e+00 1.48723383e+01
      -2.36942520e+01 1.23607016e+01</_>
    <_>
      -4.21790352e+01 3.14410591e+00 1.16693888e+01 -1.41057920e+01
      -9.27797079e-01 3.94835067e+00 4.88937988e+01 2.54104671e+01
      1.84554958e+01 -6.95239029e+01 -1.55670395e+01 9.98228490e-01
      -3.03852997e+01 -3.31624794e+01</_>
    <_>
      -6.28732452e+01 3.58298378e+01 1.40248179e-01 1.29215651e+01
      8.89742661e+00 -5.65439339e+01 -4.21222878e+01 2.08321743e+01
      5.07652140e+00 -6.44579077e+00 4.22069454e+00 -3.37563248e+01
      -5.85567970e+01 1.47149763e+01</_>
    <_>
      -2.53496909e+00 -1.88994637e+01 2.35810146e+01 -1.01444235e+01
      1.69091282e+01 3.66142883e+01 4.48058205e+01 5.83007469e+01
      2.00265560e+01 -1.00633354e+02 -1.93719482e+01 8.40769424e+01
      -1.00470972e+01 -7.96482315e+01</_>
    <_>
      -5.07460175e+01 2.56524277e+01 2.01684380e+01 2.67591305e+01
      4.08439064e+01 -7.39549255e+01 -5.07040939e+01 2.25475044e+01
      1.51866508e+00 -6.69825268e+00 6.08447981e+00 -1.17229614e+01
      2.11369729e+00 -3.91211853e+01</_>
    <_>
      -8.89927368e+01 3.80016479e+01 -6.70252762e+01 -5.26418114e+01
      -9.96437073e+01 2.55950813e+01 4.85489349e+01 8.55086708e+00
      2.61869030e+01 -3.44952621e+01 -4.49738789e+00 -9.44799728e+01
      -1.13276491e+01 -1.85144844e+01</_>
    <_>
      -3.96921229e+00 -1.13517769e+02 4.45230637e+01 -1.14705109e+02
      -5.73986092e+01 -7.29240875e+01 -2.90298405e+01 -7.35348053e+01
      9.01958942e+00 1.21548738e+01 -8.06444855e+01 4.32085133e+00
      -1.58919525e+01 -2.57904778e+01</_>
    <_>
      -7.41645889e+01 1.47550812e+01 5.99946737e-01 -2.35365772e+01
      -2.43091297e+01 -2.78965359e+01 5.96062737e+01 8.30671406e+00
      -9.37655067e+00 7.49724007e+00 2.00635643e+01 -2.99967232e+01
      -1.26497135e+01 -3.53232536e+01</_>
    <_>
      -9.29653549e+00 -7.64568253e+01 8.17403336e+01 -1.15677933e+02
      -2.34510784e+01 -3.92053032e+00 3.33755760e+01 1.25887688e+02
      -4.41856232e+01 7.57172394e+01 8.35421677e+01 -2.81508713e+01
      -6.76024437e+00 -1.08115435e+01</_>
    <_>
      -2.33578920e+00 -8.61265106e+01 -8.37406158e+01 6.99971924e+01
      5.16507864e+00 -5.95118478e-02 3.40871506e+01 5.39089203e+01
      -2.27196293e+01 7.20091858e+01 -9.56736298e+01 -2.18578987e+01
      -1.83765469e+01 -2.97937698e+01</_>
    <_>
      -9.69528885e+01 5.62167397e+01 -3.12334213e+01 -1.19065037e+01
      -4.72971039e+01 -2.70400848e+01 5.59062843e+01 -2.70873928e+01
      -1.12550793e+01 3.17298889e+01 1.84458027e+01 -1.25473490e+01
      2.54045467e+01 -4.61632385e+01</_>
    <_>
      -4.16463394e+01 2.68986149e+01 -7.99882984e+00 2.20606804e+00
      7.59477186e+00 -2.98395481e+01 -3.92494049e+01 2.22566814e+01
      3.87831068e+00 -8.79371738e+00 -2.96231461e+00 -7.12524271e+00
      -4.29771652e+01 1.61114578e+01</_>
    <_>
      -6.77985840e+01 3.55063171e+01 1.36197357e+01 2.52108631e+01
      3.28380661e+01 -8.13954468e+01 -4.44464417e+01 1.87215290e+01
      -3.69302583e+00 3.72526455e+00 1.13453226e+01 -1.45170565e+01
      -2.17909298e+01 -3.14078255e+01</_>
    <_>
      -8.99207458e+01 6.22482147e+01 -7.27533188e+01 -5.25701447e+01
      -9.13877258e+01 2.45445995e+01 1.56293793e+01 2.35059757e+01
      1.62176228e+01 -2.91035938e+01 -8.44983292e+00 -2.95689964e+01
      -1.78800812e+01 -9.91724873e+00</_>
    <_>
      6.31948709e+00 -1.30059891e+02 -4.43100834e+00 -7.30114136e+01
      -5.92240448e+01 -5.32450523e+01 -1.46123905e+01 -2.72451363e+01
      -1.53049338e+00 1.27767820e+01 3.27806616e+00 -1.52142935e+01
      -1.24183130e+01 -1.58424978e+01</_>
    <_>
      4.89079905e+00 3.22719979e+00 3.71513993e-01 8.44053388e-01
      -6.78899240e+00 7.61040020e+00 -6.90183544e+00 -3.75841761e+00
      -1.86966956e+00 -4.39402819e-01 3.10710132e-01 4.66990829e-01
      1.05260491e+00 1.18590364e+01</_>
    <_>
      -6.10428429e+01 3.47641449e+01 -2.39062238e+00 6.75869370e+00
      -4.51575518e+00 -3.68191948e+01 4.79949150e+01 -3.64314537e+01
      -1.84316654e+01 3.53171577e+01 1.60064907e+01 1.46722012e+01
      -9.04295063e+00 -1.11882000e+01</_>
    <_>
      -5.41217041e+00 -1.44511204e+01 1.75075321e+01 -6.87384176e+00
      1.29494123e+01 3.11591816e+01 4.19208870e+01 4.44650154e+01
      1.96524429e+01 -8.75932922e+01 -2.01461697e+01 6.49532623e+01
      -1.60228882e+01 -6.04568062e+01</_>
    <_>
      2.00865688e+01 -5.14344931e-01 -4.21335131e-01 -6.99724531e+00
      3.71246414e+01 4.85055313e+01 -1.65778503e+01 -2.64524403e+01
      4.83758202e+01 2.78531189e+01 1.73468971e+01 -2.05160179e+01
      3.10119362e+01 -9.96860027e+00</_>
    <_>
      7.76631317e+01 5.69606094e+01 -5.36392593e+01 -4.25540428e+01
      8.21561909e+00 -3.72826920e+01 1.03993797e+01 -1.51068106e-01
      -2.20110607e+01 -3.61017036e+00 4.11587811e+00 -1.17355700e+01
      -3.16007481e+01 -2.09443607e+01</_>
    <_>
      -3.23053694e+00 -1.12857895e+02 3.29845581e+01 -1.09705093e+02
      -5.96571426e+01 -7.30185471e+01 -3.18313904e+01 -7.90559082e+01
      1.12246742e+01 4.48249626e+00 -7.68878326e+01 6.32980585e+00
      -1.61005249e+01 -2.66179790e+01</_>
    <_>
      1.49823410e+02 8.03484726e+01 -4.44249039e+01 -2.78688164e+01
      -2.87716866e+01 -1.00229340e+02 4.17749748e+01 2.93226681e+01
      -4.03232908e+00 -1.22603559e+01 -6.53909826e+00 -1.34789133e+01
      3.37301140e+01 1.09129543e+01</_>
    <_>
      -3.25859833e+00 -4.79379702e+00 3.73108244e+00 -3.75215650e+00
      7.82009244e-01 1.43069334e+01 1.80523682e+01 6.91516161e+00
      1.16571331e+01 -2.44940643e+01 -6.84294796e+00 -6.86567879e+00
      9.55466986e-01 -6.61102757e-02</_>
    <_>
      -3.04802227e+00 -6.38313293e+01 6.68584900e+01 -9.26470566e+01
      -1.60094891e+01 1.35701618e+01 3.66793022e+01 1.18096588e+02
      -3.10526485e+01 4.51221809e+01 6.96753235e+01 -1.61773605e+01
      -9.62737560e+00 -1.20998602e+01</_>
    <_>
      -6.59880676e+01 3.57623749e+01 -5.58284378e+01 -4.42291222e+01
      -6.06157036e+01 5.65894413e+00 7.88502598e+00 1.58364458e+01
      5.92308664e+00 -1.73732147e+01 -4.49421930e+00 -1.38447752e+01
      -3.47380180e+01 -1.06664019e+01</_>
    <_>
      -7.63421059e+00 -8.04442444e+01 8.54031525e+01 -1.21511398e+02
      -2.50924129e+01 -8.49679947e-01 3.65078621e+01 1.33315811e+02
      -4.62125359e+01 7.96736221e+01 8.89019852e+01 -3.31692581e+01
      -9.97461987e+00 -5.56932831e+00</_>
    <_>
      2.41320586e+00 -1.44177246e+02 -2.97169113e+00 -8.62160187e+01
      -7.16356888e+01 -8.30698395e+01 -3.68894081e+01 -9.81305923e+01
      1.83240318e+01 -1.54516830e+01 -5.11810837e+01 1.59145164e+00
      -1.33280725e+01 -2.50723972e+01</_>
    <_>
      -6.34629478e+01 2.85416145e+01 8.13109398e+00 9.26377010e+00
      1.14684610e+01 -3.46183243e+01 7.03849106e+01 -3.43390045e+01
      -1.54735212e+01 1.52532043e+01 6.84168386e+00 5.22874260e+00
      -3.17537212e+01 -1.06581759e+00</_>
    <_>
      -4.52833176e+01 1.95727615e+01 1.88273067e+01 2.44150105e+01
      3.96174049e+01 -6.33564835e+01 -4.38367043e+01 2.50274220e+01
      4.65157890e+00 -8.69493389e+00 3.25259304e+00 -1.66044254e+01
      -4.19645071e+00 -3.05301971e+01</_>
    <_>
      -4.26999588e+01 1.97686138e+01 1.93108196e+01 2.48286591e+01
      3.93765678e+01 -6.67222672e+01 -6.68279266e+01 3.56648788e+01
      1.35378294e+01 -2.32850304e+01 -1.08432829e+00 -3.92346306e+01
      -3.04723034e+01 -7.34458399e+00</_>
    <_>
      -5.27895470e+01 3.91190605e+01 -8.88659515e+01 -4.62782097e+01
      -7.73306046e+01 1.67419300e+01 -8.64404964e+00 1.43484652e+00
      2.71519452e-01 1.18640299e+01 -9.48342228e+00 5.82793951e+00
      -2.96678886e+01 8.69001675e+00</_>
    <_>
      1.23568916e+02 6.33126335e+01 -2.28485641e+01 -1.08904743e+01
      -3.25630760e+01 -7.10036621e+01 3.07803040e+01 1.68128643e+01
      -1.84967422e+01 -1.57332125e+01 -6.02097511e+00 -1.95176487e+01
      5.07110786e+01 2.06103878e+01</_>
    <_>
      7.72556000e+01 4.09333611e+01 -5.70482597e+01 -5.56998177e+01
      4.89329033e+01 2.79472942e+01 -1.43879795e+01 -3.40826263e+01
      1.51988344e+01 2.89806767e+01 2.65338764e+01 -2.55567265e+01
      -3.86824570e+01 -5.84012108e+01</_>
    <_>
      1.33004883e+02 6.26181526e+01 5.37498169e+01 7.62737885e+01
      -1.43124710e+02 -5.27038536e+01 2.31010132e+01 1.95947437e+01
      1.01724014e+02 4.50690689e+01 1.49015675e+01 1.28020210e+01
      -5.00974236e+01 -2.56182957e+01</_>
    <_>
      1.10915192e+02 6.45989380e+01 -6.69090424e+01 -5.16276817e+01
      3.33769512e+00 -7.17314301e+01 3.00384674e+01 1.79332848e+01
      -2.95303116e+01 -1.39147291e+01 -7.02750254e+00 -1.82809486e+01
      1.91654034e+01 3.42340541e+00</_>
    <_>
      -6.33167000e+01 1.04063873e+01 9.09708786e+00 -2.77296219e+01
      -1.41753778e+01 -1.08724346e+01 6.19027824e+01 2.70961552e+01
      4.04422998e+00 -3.62239990e+01 7.00396729e+00 -2.93665104e+01
      -4.57706604e+01 -2.90587120e+01</_>
    <_>
      1.13164015e+01 -3.86263579e-01 4.19336796e+00 -1.91852939e+00
      3.37425537e+01 4.05506592e+01 -1.61199017e+01 -2.14749107e+01
      4.25891228e+01 1.81824360e+01 9.96694851e+00 -1.42889729e+01
      3.63464699e+01 1.00622473e+01</_>
    <_>
      -2.73126755e+01 -3.06542325e+00 6.71455097e+00 -1.11956720e+01
      -2.46047139e+00 1.46593904e+01 4.40393257e+01 2.61402569e+01
      2.52297173e+01 -7.71922226e+01 -2.33064556e+01 -2.99436111e+01
      -5.57455301e+00 -2.97322636e+01</_>
    <_>
      -8.26449280e+01 1.26758900e+01 -2.14783249e+01 -3.75465546e+01
      -5.37009430e+01 -2.10231190e+01 5.34235191e+01 -5.05211210e+00
      2.51955700e+00 -2.13857913e+00 1.36148119e+01 -4.90869293e+01
      -3.37105894e+00 -3.59082718e+01</_>
    <_>
      6.41285753e+00 -1.20817238e+02 4.84077797e+01 -1.24798920e+02
      -6.33882179e+01 -5.16729507e+01 -1.60913506e+01 -1.35983686e+01
      -1.03445511e+01 2.79717979e+01 -3.28219199e+00 -1.44925346e+01
      -7.52994108e+00 -1.59568691e+01</_>
    <_>
      1.43020926e+01 7.67657948e+00 -1.03358955e+01 -1.27105150e+01
      3.05214500e+01 3.38427048e+01 -4.44479275e+00 -2.93291893e+01
      3.82163887e+01 2.42586002e+01 1.40560122e+01 -2.19239960e+01
      1.31618714e+00 -2.61594248e+00</_>
    <_>
      6.41285753e+00 -1.20817238e+02 4.84077797e+01 -1.24798920e+02
      -6.33882179e+01 -5.16729507e+01 -1.60913506e+01 -1.35983686e+01
      -1.03445511e+01 2.79717979e+01 -3.28219199e+00 -1.44925346e+01
      -7.52994108e+00 -1.59568691e+01</_>
    <_>
      -8.61901398e+01 4.75816193e+01 1.32119417e+00 1.59334679e+01
      5.81828976e+00 -6.76323013e+01 3.85878296e+01 -3.31576691e+01
      -2.69919891e+01 4.98691483e+01 2.48945160e+01 3.59236488e+01
      2.78125191e+01 -6.19375305e+01</_>
    <_>
      -6.41470795e+01 3.34807320e+01 -5.57459259e+00 1.75290453e+00
      -1.23708653e+00 -4.15791245e+01 2.34979954e+01 -1.45193081e+01
      -1.26137819e+01 2.46589909e+01 1.58300343e+01 -2.99857068e+00
      -1.06322355e+01 -2.63094368e+01</_>
    <_>
      1.10304842e+01 -1.40922668e+02 -1.41989883e+02 1.08053726e+02
      -5.95603609e+00 -1.16386976e+01 2.76967049e+01 5.32496910e+01
      -2.16627827e+01 4.02904205e+01 4.40855837e+00 -8.45422268e+00
      -1.26217775e+01 -2.03390560e+01</_>
    <_>
      -6.78674927e+01 3.12146473e+01 -1.42135501e+00 -2.66489267e+00
      -8.32345963e+00 -1.49399071e+01 8.10069199e+01 -2.53821812e+01
      -2.56713319e+00 -1.20546684e+01 -1.27764416e+00 -2.83045444e+01
      -2.63617363e+01 -5.08426046e+00</_>
    <_>
      1.38740250e+02 8.32089767e+01 -8.41068268e+01 -7.17225189e+01
      2.27060204e+01 -7.44201279e+01 2.32464714e+01 1.13622332e+01
      -6.30030022e+01 -2.13852386e+01 -4.59195757e+00 -1.04782667e+01
      -1.27043056e+01 -1.27032385e+01</_>
    <_>
      -5.30590935e+01 1.46777802e+01 1.13745947e+01 -8.44988346e+00
      2.69585681e+00 -1.11727600e+01 4.91524086e+01 1.62627029e+01
      9.44306946e+00 -4.56094055e+01 -7.38617277e+00 -9.16339493e+00
      -4.32345886e+01 -2.44496937e+01</_>
    <_>
      1.25855225e+02 8.05902557e+01 -1.08273506e+02 -9.63738708e+01
      4.42157021e+01 -1.88817825e+01 -1.13279057e+01 -1.40584602e+01
      -6.19388046e+01 2.77561617e+00 1.42069635e+01 6.24214768e-01
      -9.96667633e+01 -6.96975937e+01</_>
    <_>
      -6.42917633e+01 3.50817146e+01 -2.71829796e+00 5.48785686e+00
      -6.68548775e+00 -3.31127129e+01 6.37586060e+01 -4.34718399e+01
      -1.83332767e+01 3.28279343e+01 1.38719282e+01 3.44152117e+00
      -2.94905453e+01 8.49270916e+00</_>
    <_>
      9.80733204e+00 -1.35532104e+02 -1.29673798e+02 9.59765778e+01
      -7.31425333e+00 -1.59467754e+01 2.19693146e+01 4.33046494e+01
      -1.78724766e+01 2.76221180e+01 1.40887175e+01 -5.18371868e+00
      -8.15628242e+00 -2.11009331e+01</_>
    <_>
      -3.61513662e+00 3.45527000e+01 -2.79106712e+01 -2.36305771e+01
      4.11853561e+01 2.42302895e+00 -7.00120592e+00 -2.45318546e+01
      5.22744799e+00 2.27601871e+01 1.39441395e+01 -8.50403845e-01
      -6.01492500e+01 -5.14952135e+00</_>
    <_>
      -1.29757285e+00 -1.10911964e+02 1.68015251e+01 -8.47922668e+01
      -5.47460899e+01 -6.26620712e+01 -2.21461124e+01 -6.95739899e+01
      1.61522102e+01 -1.87954044e+01 -3.62112923e+01 -2.24407506e+00
      -9.91544819e+00 -2.42673168e+01</_>
    <_>
      -3.54811001e+00 -1.09039932e+02 4.01760178e+01 -1.15168655e+02
      -5.96469154e+01 -6.99964142e+01 -3.08057442e+01 -7.40118332e+01
      9.72183132e+00 9.62834358e+00 -8.11170349e+01 5.40351868e+00
      -1.56756563e+01 -2.61791592e+01</_>
    <_>
      -6.02309570e+01 3.10085278e+01 7.47940779e+00 1.79724541e+01
      1.97913570e+01 -6.02993164e+01 -1.86675224e+01 6.93086481e+00
      -3.95640159e+00 9.52115631e+00 9.88191986e+00 -6.27693653e+00
      1.01781635e+01 -4.09992104e+01</_>
    <_>
      -2.66291637e+01 2.97028732e+00 2.47367099e-01 2.59097695e+00
      1.34669943e+01 -6.46488953e+00 1.46929770e+01 -4.41492081e+00
      1.06336718e+01 -4.96447372e+00 -8.18091106e+00 -5.77825689e+00
      -2.42112598e+01 1.89383030e+01</_>
    <_>
      1.04069847e+02 5.34137993e+01 3.99489059e+01 5.84305954e+01
      -1.07073555e+02 -5.06060257e+01 1.83083286e+01 2.21444759e+01
      9.62829971e+01 3.56124916e+01 1.08955288e+01 9.23993301e+00
      -3.78496513e+01 -1.67640533e+01</_>
    <_>
      2.68615685e+01 2.29293013e+00 -1.02210102e+01 -1.24094963e+01
      3.52931595e+01 5.95445824e+01 -2.04390869e+01 -4.21434441e+01
      6.03687859e+01 3.98722649e+01 2.80222473e+01 -3.46174583e+01
      3.17318974e+01 -2.50389595e+01</_>
    <_>
      -3.64499702e+01 2.81568527e+01 -1.08797293e+01 2.19559336e+00
      -2.73114662e+01 3.17635918e+00 -8.97862148e+00 -9.15081596e+00
      -3.43146935e+01 1.01960535e+01 1.95642483e+00 2.29147377e+01
      -2.90337219e+01 3.48615723e+01</_>
    <_>
      -1.90193748e+01 8.04972553e+00 3.10136676e+00 4.80213594e+00
      1.01669989e+01 -1.09568462e+01 -3.19147491e+00 8.00489187e-01
      -2.50527692e+00 -7.35998988e-01 -4.02383280e+00 1.43001413e+01
      -2.80280323e+01 1.92274780e+01</_>
    <_>
      9.89340134e+01 5.30533218e+01 -2.37240934e+00 1.14621344e+01
      -5.24112167e+01 -4.41125641e+01 1.16634922e+01 1.25953951e+01
      2.65075226e+01 1.13804970e+01 5.56784582e+00 -8.11456561e-01
      -2.24925594e+01 -1.34698629e+01</_>
    <_>
      1.07643623e+01 -1.54298553e+02 -9.25276031e+01 9.35117817e+00
      -6.33895531e+01 -6.10938148e+01 -1.57787504e+01 -6.16785088e+01
      1.25445480e+01 -4.04722862e+01 4.57937279e+01 -1.12582607e+01
      -7.71739721e+00 -1.47724333e+01</_>
    <_>
      3.81810799e+01 1.47545080e+01 -1.63916779e+01 -1.62483463e+01
      1.74457951e+01 2.58160019e+01 -1.07964716e+01 -2.14764252e+01
      2.28211727e+01 1.80311680e+01 1.41632318e+01 -1.75521278e+01
      1.10910645e+01 -1.00077333e+01</_>
    <_>
      -9.06573486e+01 4.91483345e+01 7.50178957e+00 2.08336411e+01
      1.40461159e+01 -7.54118729e+01 5.30165138e+01 -4.21675262e+01
      -3.23595238e+01 5.43525009e+01 2.65197105e+01 4.43635941e+01
      2.22953091e+01 -5.83898773e+01</_>
    <_>
      -1.20976753e+01 4.07050514e+00 8.94680119e+00 7.40234900e+00
      1.44059324e+01 -1.14695559e+01 6.67606831e+00 -4.52056503e+00
      9.99996886e-02 -7.70442963e-01 -3.11879230e+00 8.29864216e+00
      7.41978025e+00 2.71303058e+00</_>
    <_>
      -7.10817490e+01 2.50816460e+01 -3.32668519e+00 -1.34428310e+00
      -6.63153744e+00 -6.49102478e+01 -4.31070023e+01 2.61873455e+01
      3.00838828e+00 5.14265478e-01 7.96161127e+00 -4.19717178e+01
      -5.10349998e+01 -4.14341974e+00</_>
    <_>
      5.32093811e+00 4.80764580e+01 -4.71334496e+01 -3.54757767e+01
      6.35378313e+00 4.69962740e+00 -7.13005257e+00 -1.76339035e+01
      -1.50117474e+01 2.02677956e+01 1.17344370e+01 2.30561185e+00
      -6.43821259e+01 -1.60546608e+01</_>
    <_>
      -2.49183512e+00 -1.85570087e+01 2.32967243e+01 -9.82122898e+00
      1.67617817e+01 3.60978928e+01 4.44076385e+01 5.71531830e+01
      1.98620968e+01 -9.97163773e+01 -1.95403099e+01 8.30321121e+01
      -9.94088840e+00 -7.86787338e+01</_>
    <_>
      -3.17073402e+01 1.04298143e+01 1.37799702e+01 1.06801348e+01
      2.21474438e+01 -2.25804691e+01 3.10018578e+01 -1.39641628e+01
      -2.78608298e+00 -3.10635233e+00 -3.11042142e+00 2.48110199e+00
      -3.28029137e+01 1.85806065e+01</_>
    <_>
      2.63209343e+00 -1.19910957e+02 4.62805061e+01 -1.21620300e+02
      -6.10528336e+01 -5.22110176e+01 -1.34533014e+01 -1.06846266e+01
      -8.83779716e+00 2.57482357e+01 -7.03240728e+00 -1.16165895e+01
      -1.06850672e+01 -1.99166088e+01</_>
    <_>
      -9.57759476e+01 5.49496193e+01 -2.83786678e+01 -8.93574429e+00
      -4.28533401e+01 -3.18628578e+01 5.48939476e+01 -3.11782093e+01
      -1.25002403e+01 3.45970306e+01 1.82073994e+01 -1.18030167e+01
      2.40910244e+01 -4.58651123e+01</_>
    <_>
      -3.23566031e+00 -7.14620056e+01 7.48075485e+01 -1.05061302e+02
      -1.93783970e+01 1.27943954e+01 3.82198257e+01 1.30559616e+02
      -3.60503731e+01 5.47339897e+01 7.88296127e+01 -1.95604057e+01
      -1.04499912e+01 -1.20746117e+01</_>
    <_>
      -3.85498500e+00 -1.27463562e+02 -5.05901260e+01 -1.36517239e+01
      -4.46665115e+01 -6.20074158e+01 -1.54417801e+01 -5.06766167e+01
      1.74281921e+01 -5.05158424e+01 2.58351173e+01 -7.50377846e+00
      -1.22761030e+01 -2.27560349e+01</_>
    <_>
      1.17433525e+02 7.51397552e+01 -7.11327515e+01 -5.92799492e+01
      1.90186195e+01 -6.94988632e+01 1.62720165e+01 1.26720009e+01
      -5.52854271e+01 -2.02815666e+01 -4.58857965e+00 -1.01640224e+01
      -8.75647163e+00 -8.14246559e+00</_>
    <_>
      1.93739395e+01 -3.80122681e+01 -5.13626747e+01 3.28749237e+01
      4.39415026e+00 1.19711313e+01 9.00500774e+00 2.13109875e+01
      1.72788346e+00 3.71293678e+01 -3.37591934e+01 -1.15880547e+01
      -6.64016867e+00 -5.90415061e-01</_>
    <_>
      -5.19906960e+01 2.38147812e+01 9.27509880e+00 1.19199991e+01
      1.38831520e+01 -3.68112030e+01 6.06548233e+01 -4.15553474e+01
      -2.04202900e+01 3.07462063e+01 1.05447769e+01 2.29928684e+01
      -4.97608757e+01 2.38072491e+01</_>
    <_>
      3.91144991e+00 -1.24937691e+02 4.99100189e+01 -1.25786232e+02
      -6.33479652e+01 -5.23067398e+01 -1.31538105e+01 -5.91422367e+00
      -1.07453585e+01 2.94914780e+01 -1.84003854e+00 -1.43029242e+01
      -8.82270432e+00 -1.87781887e+01</_>
    <_>
      -3.22620916e+00 -7.27662125e+01 7.62083206e+01 -1.06892197e+02
      -1.96827927e+01 1.26165762e+01 3.86714096e+01 1.32892548e+02
      -3.70428391e+01 5.62072525e+01 8.03530273e+01 -2.04440937e+01
      -1.04939756e+01 -1.17557487e+01</_>
    <_>
      -8.45372620e+01 5.61129036e+01 -2.35417290e+01 1.20641828e+00
      -2.41755943e+01 -5.08134727e+01 -2.87122059e+01 5.81969261e+00
      -1.09694853e+01 2.59205227e+01 1.62537594e+01 1.92858829e+01
      1.06187935e+01 -3.59200592e+01</_>
    <_>
      4.04553509e+00 -1.32593445e+02 -5.53598344e-01 -7.76009445e+01
      -6.28168907e+01 -5.71525612e+01 -1.40367107e+01 -3.56464119e+01
      1.33975565e+00 6.67992783e+00 9.08675957e+00 -1.57583351e+01
      -1.30160112e+01 -1.39286604e+01</_>
    <_>
      -3.61617398e+00 -4.46096754e+00 4.21141672e+00 -4.68586540e+00
      4.50060815e-01 1.45502386e+01 1.88309250e+01 6.26071644e+00
      1.15805092e+01 -2.45438709e+01 -6.36047840e+00 -7.22387266e+00
      1.19391108e+00 3.89993161e-01</_>
    <_>
      1.35036392e+02 6.43293991e+01 4.82561035e+01 7.04488068e+01
      -1.38012589e+02 -5.98765373e+01 2.75435238e+01 2.25446434e+01
      1.01903191e+02 4.19395256e+01 1.25240450e+01 1.19228535e+01
      -4.00492096e+01 -1.79702778e+01</_>
    <_>
      9.81291485e+00 -4.39604425e+00 -1.78280687e+00 -4.06684113e+00
      2.02284069e+01 3.37173462e+01 -5.49075365e+00 -1.98282604e+01
      3.38577271e+01 1.75354881e+01 1.01951056e+01 -1.39092627e+01
      1.78053551e+01 8.74399090e+00</_>
    <_>
      -9.55718155e+01 5.92946777e+01 -2.46954479e+01 2.01561880e+00
      -2.80086632e+01 -6.04098892e+01 -2.53177910e+01 6.03782511e+00
      -3.35778862e-01 1.64005985e+01 2.02321377e+01 -4.02910385e+01
      4.20325470e+00 -4.78074226e+01</_>
    <_>
      1.72047634e+01 -1.23072100e+00 8.90277195e+00 7.88980579e+00
      -4.30070972e+00 1.34898767e+01 -4.68587494e+00 -4.07331610e+00
      -1.52626505e+01 -6.23987579e+00 -5.18039465e-01 -2.27446055e+00
      7.50946426e+00 1.43522024e+00</_>
    <_>
      -6.06707344e+01 3.44525032e+01 -2.19552517e+00 6.85097694e+00
      -4.32250023e+00 -3.65113029e+01 4.81092987e+01 -3.62016525e+01
      -1.79266911e+01 3.45287437e+01 1.54251156e+01 1.32277040e+01
      -9.19050026e+00 -1.11537800e+01</_>
    <_>
      -9.68518555e-01 -1.17284439e+02 4.63560915e+00 -8.10519028e+01
      -6.07655830e+01 -5.20260391e+01 -1.44515772e+01 -2.72887554e+01
      7.26774931e-01 8.76784706e+00 2.46191525e+00 -1.78778191e+01
      -1.35863447e+01 -1.26852217e+01</_>
    <_>
      -3.72586870e+00 -3.88267303e+00 4.75221539e+00 -2.88292313e+00
      2.48351264e+00 1.28065414e+01 1.72897034e+01 5.78863001e+00
      1.07403517e+01 -2.23556480e+01 -6.09478283e+00 -5.11636972e+00
      1.26727545e+00 1.61116719e+00</_>
    <_>
      6.49225159e+01 2.83449249e+01 6.45558319e+01 7.54934235e+01
      -9.96371384e+01 3.01560936e+01 -2.86521645e+01 -2.49818497e+01
      -6.22512856e+01 6.41084731e-01 1.25358315e+01 -2.37655029e+01
      -4.09431992e+01 -5.17580528e+01</_>
    <_>
      9.59366913e+01 4.77776833e+01 4.24161835e+01 6.10895576e+01
      -1.12559952e+02 -2.97774754e+01 1.16678810e+01 7.80363989e+00
      5.92792969e+01 2.78107662e+01 1.16271563e+01 1.56730187e+00
      -3.76948700e+01 -1.95857449e+01</_>
    <_>
      -2.95749092e+01 1.68183517e+01 1.31338816e+01 1.70896969e+01
      2.36639767e+01 -4.41761246e+01 -5.40737000e+01 2.88020954e+01
      1.51563444e+01 -2.55241737e+01 -4.46617842e+00 -3.98892593e+01
      -4.58404961e+01 2.15816345e+01</_>
    <_>
      1.42395920e+02 8.43603592e+01 -8.38778687e+01 -7.15541000e+01
      2.22145500e+01 -8.24424820e+01 2.85837364e+01 1.46616840e+01
      -6.30347557e+01 -2.51059265e+01 -6.95310163e+00 -1.40102062e+01
      1.99163616e+00 -5.47754526e+00</_>
    <_>
      1.51456329e+02 8.28732834e+01 -4.62107353e+01 -2.93401852e+01
      -2.93591213e+01 -1.00311974e+02 4.16465263e+01 2.84852352e+01
      -8.70590591e+00 -1.30132713e+01 -6.40543890e+00 -1.36869001e+01
      2.87316933e+01 7.53969240e+00</_>
    <_>
      -9.10932617e+01 5.21708107e+01 -2.30464764e+01 -5.20433426e+00
      -3.45876999e+01 -3.45276909e+01 5.25359192e+01 -2.90891857e+01
      -1.35305662e+01 3.46799240e+01 1.94623909e+01 -1.24230804e+01
      1.91276588e+01 -4.30219193e+01</_>
    <_>
      -9.24197083e+01 5.23897324e+01 -2.45924244e+01 -8.66321373e+00
      -3.94089432e+01 -3.25668373e+01 5.48732033e+01 -3.11525803e+01
      -1.34711151e+01 3.47553139e+01 1.80246944e+01 -9.29662323e+00
      1.79907017e+01 -4.11494827e+01</_>
    <_>
      -7.47256088e+01 2.17960777e+01 -5.48279190e+00 -7.99776936e+00
      -1.47735310e+01 -4.05454254e+01 4.34747353e+01 -7.16435289e+00
      -6.74707985e+00 4.17630005e+00 8.43328571e+00 -1.19828300e+01
      -3.87758255e+00 -4.58485489e+01</_>
    <_>
      -4.32377863e+00 2.34319065e-02 6.17537403e+00 2.22152686e+00
      8.26301670e+00 5.08637714e+00 1.74524593e+01 -4.71938086e+00
      2.98855090e+00 -1.25687447e+01 -6.19132137e+00 -7.00778198e+00
      4.00934649e+00 9.61059380e+00</_>
    <_>
      -8.19024048e+01 5.91238976e+01 -4.40893707e+01 -1.58589354e+01
      -5.60477638e+01 -2.10205173e+01 -3.84790459e+01 2.31796761e+01
      5.95904493e+00 -9.23397690e-02 3.80462813e+00 -7.11267853e+00
      1.95767899e+01 -2.29029865e+01</_>
    <_>
      -5.21234818e+01 2.91105194e+01 -3.91334176e+00 3.28998983e-01
      -8.91630650e+00 -1.62040005e+01 5.39834900e+01 -2.79543381e+01
      -6.41080666e+00 4.23132324e+00 2.86861706e+00 -1.45644636e+01
      -3.23113213e+01 1.61425896e+01</_>
    <_>
      9.39253235e+00 -1.54315857e+02 -1.44595367e+02 1.00694412e+02
      -1.45223856e+01 -2.34072361e+01 2.26376305e+01 3.77569237e+01
      -1.75909901e+01 2.18205147e+01 2.74023056e+01 -7.23073721e+00
      -1.28630409e+01 -2.21632614e+01</_>
    <_>
      4.37536583e+01 2.09676819e+01 -2.24497604e+01 -2.42344551e+01
      3.39786682e+01 4.26250191e+01 -1.62938004e+01 -3.74387627e+01
      4.30526886e+01 3.59913597e+01 2.69305458e+01 -2.71243134e+01
      5.14352798e+00 -3.28282433e+01</_>
    <_>
      -1.16439219e+01 1.93445377e+01 2.21252556e+01 2.73806267e+01
      -2.34013386e+01 4.90914869e+00 1.74424911e+00 -2.21387386e+01
      -5.14968834e+01 1.97305405e+00 4.77560806e+00 -5.30891037e+00
      -3.29879303e+01 -2.40696836e+00</_>
    <_>
      -3.04802227e+00 -6.38313293e+01 6.68584900e+01 -9.26470566e+01
      -1.60094891e+01 1.35701618e+01 3.66793022e+01 1.18096588e+02
      -3.10526485e+01 4.51221809e+01 6.96753235e+01 -1.61773605e+01
      -9.62737560e+00 -1.20998602e+01</_>
    <_>
      -7.41959686e+01 6.18700638e+01 -7.83688202e+01 -4.38439980e+01
      -1.03607307e+02 3.18582668e+01 -1.36590414e+01 8.60717773e+00
      7.23832941e+00 1.29293127e+01 -5.97031772e-01 -2.90525818e+01
      -8.98690128e+00 2.12908611e+01</_>
    <_>
      4.42077026e+01 2.38469639e+01 -2.61055412e+01 -2.65655155e+01
      3.61501770e+01 3.74182625e+01 -2.10967655e+01 -3.19218826e+01
      2.23366680e+01 2.44766865e+01 2.07708912e+01 -2.27891750e+01
      -1.80565643e+00 -2.79684143e+01</_>
    <_>
      -5.38899536e+01 3.71508331e+01 -8.89576874e+01 -4.55849876e+01
      -8.05643463e+01 1.66071186e+01 -1.50559216e+01 2.42939949e+00
      2.64102173e+00 8.08372784e+00 -7.76378965e+00 1.01993475e+01
      -2.93611240e+01 1.45807791e+01</_>
    <_>
      -2.72063007e+01 -2.90035701e+00 5.47566032e+00 -1.15077095e+01
      -3.93318248e+00 1.48052826e+01 4.38584404e+01 2.42852497e+01
      2.56610184e+01 -7.70746460e+01 -2.17386913e+01 -3.23875809e+01
      -5.69052696e+00 -2.79888077e+01</_>
    <_>
      3.76711464e+01 1.51699123e+01 -1.63626385e+01 -1.62834778e+01
      1.75261192e+01 2.69457874e+01 -1.18069124e+01 -2.18949299e+01
      2.21003857e+01 1.89436703e+01 1.42543135e+01 -1.67991638e+01
      8.32842445e+00 -9.76122570e+00</_>
    <_>
      -4.42637939e+01 3.28057251e+01 -1.84018707e+01 -2.64835882e+00
      -3.35161400e+01 3.22163463e+00 -9.56191158e+00 -7.55700111e+00
      -3.03569107e+01 1.39160089e+01 2.11453700e+00 2.66291637e+01
      -3.44284210e+01 3.74560738e+01</_>
    <_>
      -8.51229172e+01 4.66848831e+01 -3.40083618e+01 -2.76302528e+01
      -6.33574486e+01 1.46100454e+01 8.00630341e+01 -8.28937912e+00
      1.63543777e+01 -3.58634758e+01 -6.33701849e+00 -6.87978745e+01
      -1.00919085e+01 -1.94192886e+01</_>
    <_>
      1.13248665e+02 5.15217400e+01 2.84076920e+01 4.68333168e+01
      -9.31090393e+01 -5.14895935e+01 2.46557770e+01 1.99994545e+01
      1.02018768e+02 3.80225906e+01 9.70505333e+00 1.22452736e+01
      -2.08745937e+01 -5.92939091e+00</_>
    <_>
      3.33533058e+01 2.16006794e+01 -1.66943436e+01 -1.74636478e+01
      6.94545269e+00 1.65871677e+01 1.12815237e+01 -1.30943432e+01
      3.70185089e+01 4.92738342e+00 6.11173201e+00 -3.15547848e+01
      -9.19737041e-01 -1.06634531e+01</_>
    <_>
      -1.04857681e+02 6.02037201e+01 -3.04562607e+01 -5.94323444e+00
      -4.18653755e+01 -3.81091614e+01 6.07577591e+01 -3.53700066e+01
      -1.76994076e+01 4.64417038e+01 2.31175480e+01 -1.50712843e+01
      3.10144100e+01 -5.43495026e+01</_>
    <_>
      4.21851778e+00 -7.25779266e+01 -7.65647278e+01 7.44921570e+01
      1.81298218e+01 2.89218216e+01 3.65044708e+01 9.87326660e+01
      -3.33550110e+01 1.39017120e+02 -2.31666229e+02 -4.69516449e+01
      -1.34952240e+01 -5.19171982e+01</_>
    <_>
      -8.06094208e+01 5.98802795e+01 -4.57055626e+01 -1.67829723e+01
      -5.47241859e+01 -2.26247845e+01 -4.06419411e+01 2.26251850e+01
      3.90203190e+00 2.17669916e+00 5.02322006e+00 -2.52419257e+00
      1.59857311e+01 -2.32505836e+01</_>
    <_>
      1.72297554e+01 -1.93296957e+00 9.33582973e+00 7.69849634e+00
      -3.74347186e+00 1.36019812e+01 -4.00390816e+00 -2.44087625e+00
      -1.40135899e+01 -4.01926708e+00 -1.16778326e+00 -4.15047693e+00
      9.72119713e+00 1.09120619e+00</_>
    <_>
      -1.04577522e+02 6.34094543e+01 -5.31570930e+01 -3.38777504e+01
      -8.53106537e+01 1.07281256e+01 7.11845932e+01 -9.71725559e+00
      1.60960083e+01 -2.52197666e+01 -2.99539661e+00 -8.40675354e+01
      1.32522001e+01 -3.58488808e+01</_>
    <_>
      -9.80638733e+01 5.71737099e+01 -3.67892876e+01 -2.12920189e+01
      -6.20994797e+01 -7.14953518e+00 6.85103531e+01 -1.81385536e+01
      7.53278255e+00 -1.06224852e+01 3.31531048e+00 -7.40821457e+01
      -1.35529394e+01 -1.64446487e+01</_>
    <_>
      1.51667345e+00 -7.76954222e+00 -4.71242619e+00 -1.04529119e+00
      2.96366167e+00 2.12365208e+01 -2.79784083e+00 9.66724336e-01
      1.83989105e+01 3.18280840e+00 -1.43269835e+01 1.74243221e+01
      -3.60121107e+00 8.76783905e+01</_>
    <_>
      1.39543213e+02 6.88577194e+01 -8.28680992e+00 8.36106014e+00
      -6.28798103e+01 -7.82536240e+01 3.27224503e+01 2.02725258e+01
      -2.03264923e+01 -1.31334543e+01 -4.53295755e+00 -1.91963692e+01
      3.32626495e+01 4.27522564e+00</_>
    <_>
      7.65758286e+01 4.02165413e+01 -5.43248482e+01 -5.30192184e+01
      4.65559311e+01 2.74529781e+01 -1.37998905e+01 -3.36828232e+01
      1.72065563e+01 2.90379257e+01 2.62186966e+01 -2.58289108e+01
      -3.59659157e+01 -5.65835686e+01</_>
    <_>
      1.13327942e+02 5.59909210e+01 1.57989693e+01 3.11044254e+01
      -8.06888504e+01 -3.84650459e+01 1.17548962e+01 5.44784164e+00
      -1.00454531e+01 1.31257141e+00 4.17199945e+00 -1.24693546e+01
      -8.13434601e+00 -1.53714190e+01</_>
    <_>
      -2.29756622e+01 8.90900040e+00 9.15431499e+00 1.05158548e+01
      1.90916557e+01 -2.38873138e+01 -4.95658445e+00 1.43184209e+00
      -2.15884447e+00 4.43111038e+00 1.27293682e+00 1.74949055e+01
      8.65182972e+00 -1.44354506e+01</_>
    <_>
      -4.53185310e+01 2.01039257e+01 1.28886204e+01 1.36793995e+01
      2.02011089e+01 -3.43323517e+01 5.07200012e+01 -3.40909500e+01
      -1.67309856e+01 2.18685970e+01 6.14686155e+00 2.10140171e+01
      -2.95130768e+01 1.58654070e+01</_>
    <_>
      2.18849545e+01 1.59050999e+01 -6.87907314e+00 -8.37553120e+00
      2.29148979e+01 3.09162979e+01 -1.70928726e+01 -2.85496807e+01
      3.52788162e+01 2.58770084e+01 1.94123573e+01 -2.42720795e+01
      7.71510601e+00 -9.64200592e+00</_>
    <_>
      7.29152985e+01 5.52877274e+01 -5.28845062e+01 -4.41546516e+01
      1.53135700e+01 -2.88834209e+01 7.37950897e+00 -4.51670122e+00
      -2.08877144e+01 1.98998547e+00 6.72871256e+00 -1.17513504e+01
      -4.93313026e+01 -2.74736576e+01</_>
    <_>
      6.12800674e+01 3.39870644e+01 -4.88213730e+01 -5.20910492e+01
      4.66802139e+01 3.40228233e+01 -1.32410088e+01 -3.51506462e+01
      1.93838367e+01 2.56760235e+01 2.53516579e+01 -2.63754463e+01
      -4.22333260e+01 -5.86055298e+01</_>
    <_>
      -3.38284988e+01 1.64084053e+01 1.27314072e+01 1.66194134e+01
      2.66091919e+01 -4.53302383e+01 -5.11460648e+01 3.23688431e+01
      1.24211197e+01 -2.46272297e+01 -3.01543427e+00 -3.50270348e+01
      -1.86833191e+01 -5.51465368e+00</_>
    <_>
      5.75150261e+01 4.43148117e+01 2.62560329e+01 4.45704689e+01
      -9.86122131e+01 -5.60647106e+00 -1.62914410e+01 3.31147909e+00
      1.30064142e+00 1.32561378e+01 7.21276855e+00 9.78784370e+00
      -2.63371067e+01 -1.16407003e+01</_>
    <_>
      1.02135880e+02 5.51413345e+01 -3.59237337e+00 1.08315754e+01
      -5.34587440e+01 -4.59697418e+01 1.30706291e+01 1.24701462e+01
      3.14130440e+01 1.37250185e+01 6.63001442e+00 -5.66248953e-01
      -2.57468185e+01 -1.46893225e+01</_>
    <_>
      1.58714666e+01 9.65541172e+00 1.88037848e+00 4.03075027e+00
      6.36894751e+00 -1.39412606e+00 -6.35674477e+00 1.75109828e+00
      2.64769821e+01 1.68025219e+00 -3.78142595e+00 -2.61666983e-01
      -5.52374220e+00 1.76429996e+01</_>
    <_>
      1.16803551e+02 6.68962021e+01 -6.48550262e+01 -5.05632973e+01
      7.97938049e-01 -7.89730911e+01 3.54376488e+01 1.98286362e+01
      -2.69333496e+01 -1.60481834e+01 -8.50740337e+00 -1.70649681e+01
      2.04440212e+01 6.11325884e+00</_>
    <_>
      -7.07629852e+01 1.98828220e+01 -9.68787730e-01 -1.21078548e+01
      -1.01746674e+01 -4.70338936e+01 3.08853779e+01 -5.93434763e+00
      -7.78756475e+00 5.72397375e+00 9.55155468e+00 -9.63648510e+00
      -1.06022387e+01 -4.14076462e+01</_>
    <_>
      -6.97178116e+01 4.39903145e+01 -6.70463896e+00 1.10749140e+01
      3.82364482e-01 -6.04690361e+01 -4.46869888e+01 1.99934750e+01
      1.42387378e+00 -2.22208142e+00 8.28940105e+00 -4.11694374e+01
      -2.53996391e+01 -1.45251560e+01</_>
    <_>
      -6.35516815e+01 3.46562080e+01 -2.37578225e+00 5.74221134e+00
      -5.85491419e+00 -3.34420662e+01 6.14282417e+01 -4.25392570e+01
      -1.77585793e+01 3.22338753e+01 1.37777882e+01 2.66385460e+00
      -2.94610729e+01 7.79537439e+00</_>
    <_>
      -6.46719313e+00 -7.20889282e+01 7.39325027e+01 -1.17463211e+02
      -3.57953987e+01 1.42389607e+00 3.40908737e+01 1.08129585e+02
      -3.70611649e+01 6.92500381e+01 7.71144409e+01 -3.46772537e+01
      -1.23334265e+01 -1.16508174e+00</_>
    <_>
      -7.29986877e+01 2.54632339e+01 -3.78371286e+00 -1.67943096e+00
      -8.53026772e+00 -6.46636200e+01 -4.15976181e+01 2.75195675e+01
      4.26503849e+00 -2.16490412e+00 1.07586880e+01 -4.69561462e+01
      -5.02945328e+01 -3.65540385e+00</_>
    <_>
      -3.54777565e+01 1.51004324e+01 1.10672283e+01 1.46001139e+01
      2.27125416e+01 -3.75311279e+01 4.65625334e+00 -5.75534153e+00
      -7.53980827e+00 1.45070248e+01 5.73607445e+00 2.91351452e+01
      1.68769875e+01 -3.10275154e+01</_>
    <_>
      3.96226311e+01 2.00288143e+01 -1.55285749e+01 -1.76015377e+01
      3.04746571e+01 4.13178978e+01 -1.76034203e+01 -3.57459259e+01
      3.26509666e+01 2.96222668e+01 2.26968918e+01 -2.42204094e+01
      6.05079126e+00 -2.28903942e+01</_>
    <_>
      -5.55328140e+01 1.76476345e+01 8.28472042e+00 -7.85422468e+00
      1.16170071e-01 -8.93410015e+00 5.33779144e+01 1.47578411e+01
      1.24545727e+01 -5.21712532e+01 -9.46635532e+00 -1.65781498e+01
      -4.26843796e+01 -2.65780010e+01</_>
    <_>
      2.70124006e+00 -1.20617699e+02 5.44467430e+01 -1.27395882e+02
      -6.08587341e+01 -5.20369606e+01 -1.33258619e+01 -6.83025455e+00
      -1.00691786e+01 3.10263596e+01 -1.08458300e+01 -1.23903666e+01
      -1.00193653e+01 -1.97225857e+01</_>
    <_>
      1.70955887e+01 8.97510242e+00 -1.49367714e+01 -1.81872921e+01
      3.15118427e+01 3.31833839e+01 -2.94863009e+00 -2.70691719e+01
      3.26734085e+01 2.37641220e+01 1.34126272e+01 -2.05536613e+01
      -7.23697042e+00 -7.86858273e+00</_>
    <_>
      -9.84502506e+00 -2.88108563e+00 7.79084587e+00 -3.75029922e-01
      1.34281034e+01 6.20030737e+00 1.33424873e+01 3.40466619e+00
      1.31564445e+01 -1.55814114e+01 -8.09045696e+00 -1.14034948e+01
      -1.46749425e+00 7.19758177e+00</_>
    <_>
      -8.86867905e+01 5.87312164e+01 -3.55364761e+01 -8.15305901e+00
      -3.22437973e+01 -3.95823135e+01 -5.85148048e+01 3.11437359e+01
      4.56077904e-01 5.72229147e+00 4.49018955e+00 4.04139185e+00
      -2.36912899e+01 -3.11052656e+00</_>
    <_>
      -2.42296143e+01 7.99338627e+00 1.17714081e+01 1.06177654e+01
      2.08919601e+01 -2.09370251e+01 1.34785357e+01 -7.54265451e+00
      -1.51788473e+00 6.76499248e-01 -2.36140656e+00 9.49281406e+00
      -1.56448612e+01 8.12229443e+00</_>
    <_>
      -7.28606110e+01 4.71139908e+01 -1.06838722e+01 9.37474251e+00
      -4.20102119e+00 -6.01823387e+01 -5.26392479e+01 2.40775471e+01
      1.96776426e+00 -2.15550733e+00 8.22547150e+00 -3.88283310e+01
      -2.48418827e+01 -1.45752020e+01</_>
    <_>
      3.36608672e+00 -1.45544144e+02 3.64290714e+00 -9.13266983e+01
      -7.09262772e+01 -8.36887817e+01 -3.61913567e+01 -9.51585770e+01
      1.63130627e+01 -1.11555738e+01 -5.43994865e+01 3.22539854e+00
      -1.44078522e+01 -2.58219223e+01</_>
    <_>
      4.24067192e+01 2.31508617e+01 -2.15170460e+01 -2.30267429e+01
      3.29975929e+01 3.64845161e+01 -1.57119627e+01 -3.43631630e+01
      2.41042004e+01 2.65207367e+01 2.13274250e+01 -2.34357777e+01
      7.70369387e+00 -2.13755760e+01</_>
    <_>
      9.67681274e+01 4.70291557e+01 -4.14186592e+01 -3.27932587e+01
      1.19571733e+01 -1.99223461e+01 7.71296549e+00 -3.99148774e+00
      1.74605522e+01 1.81226063e+01 1.23982153e+01 -9.92892647e+00
      -2.46573792e+01 -3.09609470e+01</_>
    <_>
      -8.93234253e+01 6.69702377e+01 -7.36339340e+01 -3.68272438e+01
      -8.80401382e+01 -3.34642363e+00 -6.00259705e+01 3.13101959e+01
      7.65674400e+00 5.70820618e+00 3.41391778e+00 7.57742119e+00
      -1.82842636e+01 1.10125132e+01</_>
    <_>
      1.47629585e+01 -1.34344840e+00 4.43685532e+00 5.24342680e+00
      -1.12721264e+00 1.46256971e+01 -3.06662869e+00 -3.27262998e+00
      -9.55188942e+00 -4.93428421e+00 -2.75970006e+00 -4.83331871e+00
      8.38817883e+00 1.60444832e+00</_>
    <_>
      -7.46534500e+01 4.01592484e+01 3.90796471e+00 1.65167847e+01
      1.16878824e+01 -6.38947525e+01 1.15099030e+01 -1.35935049e+01
      -1.47385492e+01 2.96018600e+01 1.86491051e+01 6.35886002e+00
      2.37902374e+01 -5.37531090e+01</_>
    <_>
      1.21314987e+02 5.48649940e+01 6.48001404e+01 8.51315002e+01
      -1.41042633e+02 -3.59262428e+01 1.24978428e+01 1.22720070e+01
      7.76821594e+01 3.86489830e+01 1.43452826e+01 9.14252281e+00
      -3.88851852e+01 -2.58726978e+01</_>
    <_>
      -9.83364487e+01 6.46460953e+01 -5.40100517e+01 -2.20306778e+01
      -6.71470871e+01 -2.04512253e+01 -3.27155724e+01 2.50037632e+01
      1.09322510e+01 -2.45577574e+00 3.76250648e+00 -1.29521809e+01
      1.77780972e+01 -3.24274254e+01</_>
    <_>
      9.01734467e+01 3.85896149e+01 6.67630310e+01 8.21593857e+01
      -1.22539673e+02 2.51496048e+01 -2.71598873e+01 -2.43367004e+01
      -5.92840767e+01 6.97128439e+00 1.78418026e+01 -2.39345703e+01
      -5.69433479e+01 -7.37282562e+01</_>
    <_>
      -4.14847641e+01 1.70698032e+01 1.27941284e+01 1.56675863e+01
      2.45752945e+01 -3.96584740e+01 2.33290119e+01 -1.56575537e+01
      -1.32548971e+01 2.06466446e+01 6.87437868e+00 3.14464321e+01
      -1.37029588e+00 -1.96894131e+01</_>
    <_>
      5.08672619e+00 -7.98635254e+01 -8.44570007e+01 7.96104889e+01
      1.66459236e+01 2.79017067e+01 3.79659615e+01 9.96529465e+01
      -3.45453720e+01 1.40062424e+02 -2.27602844e+02 -4.75355377e+01
      -1.42223024e+01 -5.31537704e+01</_>
    <_>
      8.27532578e+00 -1.32964142e+02 -1.01674980e+02 5.87706375e+01
      -2.01408081e+01 -2.94691658e+01 1.43180237e+01 5.91624165e+00
      -3.42925096e+00 -2.03320351e+01 5.73136139e+01 1.17671518e+01
      -1.28266068e+01 -1.64055080e+01</_>
    <_>
      -8.63947601e+01 5.20081673e+01 -1.58139884e+00 1.82076702e+01
      1.16606483e+01 -8.38520432e+01 -3.53052864e+01 1.00167437e+01
      -1.05209017e+01 2.15939198e+01 2.02823734e+01 -6.84964657e+00
      1.73732109e+01 -6.49839096e+01</_>
    <_>
      6.55480719e+00 -1.25100830e+02 -6.82073441e+01 1.43794937e+01
      -3.23886948e+01 -3.88709259e+01 -1.85282540e+00 -1.22692413e+01
      -2.69509625e+00 -1.00167112e+01 1.87905598e+01 -7.17835665e+00
      -8.27302074e+00 -1.41422472e+01</_>
    <_>
      -1.02519257e+02 6.10815773e+01 -5.17595482e+01 -3.45323105e+01
      -8.57532043e+01 1.23361235e+01 6.97634659e+01 -7.90318966e+00
      1.71244755e+01 -2.73479500e+01 -3.72194123e+00 -8.38302612e+01
      1.03843498e+01 -3.03041229e+01</_>
    <_>
      -8.93523331e+01 5.32997627e+01 -9.37110126e-01 1.93757496e+01
      1.24265156e+01 -8.73334198e+01 -3.86042061e+01 1.13375750e+01
      -1.01728592e+01 2.17590694e+01 2.08633595e+01 -8.27956104e+00
      1.32602377e+01 -6.24047127e+01</_>
    <_>
      -7.50044861e+01 6.33886757e+01 -7.11942291e+01 -3.69043503e+01
      -7.41219406e+01 8.53465271e+00 -4.56393166e+01 2.09181995e+01
      -2.62305379e+00 1.78257980e+01 -9.15916935e-02 3.62148247e+01
      -3.89704132e+01 3.26403885e+01</_>
    <_>
      -9.74353561e+01 6.49292068e+01 -5.33190002e+01 -2.11904469e+01
      -6.51664734e+01 -2.26755581e+01 -2.68700676e+01 1.87835045e+01
      6.77198648e+00 5.13362694e+00 6.79219246e+00 -6.64724302e+00
      2.05962734e+01 -3.52075005e+01</_>
    <_>
      -5.54722061e+01 2.73236198e+01 1.25155945e+01 1.91574631e+01
      2.47355194e+01 -5.72417259e+01 1.94172204e+00 -6.34135675e+00
      -1.08124456e+01 1.78357716e+01 1.13126497e+01 1.26050663e+01
      3.88789201e+00 -3.19986439e+01</_>
    <_>
      9.99744110e+01 4.86818161e+01 -4.30040855e+01 -3.38440399e+01
      1.13340664e+01 -1.87197170e+01 7.57176113e+00 -5.69868565e+00
      2.02682552e+01 2.11899319e+01 1.42522964e+01 -9.77303696e+00
      -2.97444935e+01 -3.52435036e+01</_>
    <_>
      1.55716057e+01 5.30613279e+00 -1.19734259e+01 -1.70345840e+01
      2.86048336e+01 3.14648590e+01 -3.31654930e+00 -2.87220306e+01
      3.67594528e+01 2.02802238e+01 1.51605320e+01 -2.19853516e+01
      -4.13117051e-01 -6.40502548e+00</_>
    <_>
      -3.67835960e+01 1.56914425e+01 1.64182987e+01 2.18605042e+01
      3.57299614e+01 -5.72519035e+01 -6.82098236e+01 3.94624519e+01
      1.68263435e+01 -2.81833076e+01 -5.10757875e+00 -4.46937981e+01
      -4.22833748e+01 9.50550747e+00</_>
    <_>
      1.10400648e+01 -1.57428131e+02 -1.37655701e+02 7.63528595e+01
      -3.50125542e+01 -3.68592033e+01 9.87243557e+00 -3.32564163e+00
      -2.18803930e+00 -1.16230183e+01 6.17744942e+01 -1.02712069e+01
      -1.35707197e+01 -1.04401331e+01</_>
    <_>
      -3.22344041e+00 -8.46654510e+01 -8.73998184e+01 7.36270523e+01
      5.27567148e+00 1.55093706e+00 3.63367348e+01 5.46967087e+01
      -2.23037910e+01 6.96705017e+01 -9.24476395e+01 -2.42573147e+01
      -1.88375969e+01 -2.92266178e+01</_>
    <_>
      -6.38320236e+01 2.98042431e+01 9.52269077e+00 1.83270607e+01
      2.11794643e+01 -5.70973053e+01 3.07508831e+01 -2.35316219e+01
      -2.13949776e+01 3.97402420e+01 1.72916393e+01 4.56440086e+01
      1.34265623e+01 -4.53927078e+01</_>
    <_>
      -8.99776764e+01 4.67768097e+01 -1.11248732e+01 4.84601080e-01
      -1.67254887e+01 -3.73936462e+01 6.92887878e+01 -3.05088711e+01
      -1.09379110e+01 1.58826351e+01 1.26890383e+01 -2.97533817e+01
      -8.53065109e+00 -2.98385925e+01</_>
    <_>
      -8.33849030e+01 5.54440460e+01 -2.37957211e+01 -1.52769908e-01
      -2.46045418e+01 -4.82777023e+01 -1.90413322e+01 1.74398971e+00
      -1.05803366e+01 2.58265038e+01 1.58045540e+01 1.46822062e+01
      8.54524612e+00 -3.54275246e+01</_>
    <_>
      -1.37306423e+01 1.93826485e+00 1.10507889e+01 6.94981289e+00
      1.76923542e+01 -6.29364586e+00 1.48723774e+01 -1.83752620e+00
      5.11641407e+00 -1.40876884e+01 -7.69332457e+00 -3.53961444e+00
      -8.74753571e+00 1.34079189e+01</_>
    <_>
      -7.17373466e+00 -2.55139828e+00 3.66089749e+00 -1.51512253e+00
      4.07230759e+00 6.07782650e+00 8.65787697e+00 1.13009748e+01
      1.16644020e+01 -2.11368427e+01 -3.75031304e+00 -1.29093065e+01
      4.82899809e+00 -8.83374119e+00</_>
    <_>
      -9.48297577e+01 6.02146454e+01 -2.50989933e+01 1.35117662e+00
      -2.84365044e+01 -5.86264191e+01 -2.52110481e+01 5.46259403e+00
      -1.15900934e+00 1.76097012e+01 1.97264519e+01 -3.95032768e+01
      1.28649747e+00 -4.34408035e+01</_>
    <_>
      -3.61665993e+01 1.54395781e+01 1.58381500e+01 2.11458187e+01
      3.48526421e+01 -5.52621002e+01 -6.58330383e+01 3.79712791e+01
      1.61286831e+01 -2.69996395e+01 -5.15861464e+00 -4.16865349e+01
      -4.13316307e+01 9.95343971e+00</_>
    <_>
      7.25015461e-01 -1.06512177e+02 4.94842224e+01 -1.06135590e+02
      -4.35127220e+01 -2.67783184e+01 7.79998732e+00 5.11814842e+01
      -2.21915970e+01 4.36522255e+01 4.07721214e+01 -1.57870636e+01
      -1.10120335e+01 -1.14353790e+01</_>
    <_>
      -5.84025078e+01 2.24587116e+01 1.03158522e+01 5.71072769e+00
      8.27148819e+00 -4.21356430e+01 6.88589172e+01 -4.67492409e+01
      -2.55566063e+01 4.03804016e+01 1.53969173e+01 2.52889957e+01
      -5.26210823e+01 1.85832577e+01</_>
    <_>
      -6.73681488e+01 4.62364693e+01 -3.60203323e+01 -1.58468981e+01
      -4.38155823e+01 -9.88867188e+00 5.67751455e+00 -9.39380074e+00
      -7.91119337e+00 2.31058311e+01 7.16262054e+00 5.05285788e+00
      -4.90694923e+01 2.97296181e+01</_>
    <_>
      1.65682089e+00 -8.18186760e+00 -3.62526083e+00 -4.09858346e-01
      4.10159969e+00 2.06920700e+01 -2.33500338e+00 8.82114708e-01
      1.82676201e+01 3.41559315e+00 -1.40046158e+01 1.78060093e+01
      -2.97034025e+00 8.79342957e+01</_>
    <_>
      -5.98431625e+01 2.98885708e+01 1.42718439e+01 2.23584347e+01
      3.12446213e+01 -6.90735779e+01 -3.88919563e+01 2.13837490e+01
      3.49130058e+00 -9.01273251e+00 5.07982826e+00 -2.53679829e+01
      -1.37316656e+01 -2.77650318e+01</_>
    <_>
      -3.93301659e+01 -7.35841453e-01 1.51762991e+01 -1.39739037e+01
      2.04861069e+00 3.66800880e+00 5.30034218e+01 2.59264240e+01
      1.57462244e+01 -6.51072311e+01 -1.28510027e+01 2.78324103e+00
      -3.12578259e+01 -3.20587502e+01</_>
    <_>
      -7.36306992e+01 3.65999146e+01 -1.93521709e+01 -1.75214424e+01
      -3.85709686e+01 9.62043345e-01 8.01107101e+01 -1.93990650e+01
      5.68597460e+00 -1.65352116e+01 -7.36780584e-01 -6.56999283e+01
      -2.28235035e+01 -3.13874125e+00</_>
    <_>
      1.49951920e+02 8.14095612e+01 -4.40588036e+01 -2.82294350e+01
      -2.63759823e+01 -1.12608002e+02 5.29766693e+01 3.24946098e+01
      -1.07777472e+01 -2.00530167e+01 -1.10714073e+01 -2.09014225e+01
      5.97812386e+01 2.42646465e+01</_>
    <_>
      5.61465988e+01 2.08639660e+01 6.19228973e+01 6.97840500e+01
      -8.76041946e+01 5.08839951e+01 -3.99997482e+01 -3.72999954e+01
      -1.12533333e+02 -1.79633980e+01 9.13164425e+00 -3.29574852e+01
      -1.05122414e+01 -3.52160149e+01</_>
    <_>
      3.68260918e+01 1.83449345e+01 -1.97857323e+01 -2.18279800e+01
      3.71286011e+01 3.89829369e+01 -1.77969418e+01 -3.46442108e+01
      3.93168488e+01 3.26082535e+01 2.48899479e+01 -2.58699455e+01
      7.02825975e+00 -3.34874802e+01</_>
    <_>
      -3.33563232e+01 1.37607412e+01 1.45210152e+01 1.82372780e+01
      3.16106491e+01 -4.66622009e+01 -4.65991249e+01 2.74744110e+01
      1.12884912e+01 -2.03890553e+01 -4.06206799e+00 -3.03207474e+01
      -4.05887032e+01 1.22821865e+01</_>
    <_>
      5.17361522e-01 -1.11321083e+02 5.42310257e+01 -1.13760406e+02
      -4.59526062e+01 -2.72009087e+01 8.71583939e+00 5.88249359e+01
      -2.50130405e+01 5.08312454e+01 4.69067726e+01 -2.03191013e+01
      -1.13087053e+01 -1.02689714e+01</_>
    <_>
      -3.09118443e+01 1.00123968e+01 1.39964695e+01 1.14507895e+01
      2.33639603e+01 -2.23543892e+01 3.10420856e+01 -1.44228296e+01
      -2.83619332e+00 -3.84606767e+00 -4.19815159e+00 3.41105509e+00
      -3.59901314e+01 2.11783905e+01</_>
    <_>
      7.76459455e+00 -1.34976822e+02 -1.07241104e+02 6.17701035e+01
      -2.17312145e+01 -2.94514484e+01 1.52169542e+01 1.10010128e+01
      -6.31205702e+00 -1.33303728e+01 6.63473892e+01 3.19152308e+00
      -1.19518309e+01 -1.20953541e+01</_>
    <_>
      -2.92235622e+01 1.20754948e+01 6.04502535e+00 9.12456512e+00
      1.93356361e+01 -2.52672749e+01 -1.69222374e+01 1.13305435e+01
      1.65850008e+00 -5.20367813e+00 -4.55811834e+00 7.54409790e+00
      -4.65361900e+01 2.59749794e+01</_>
    <_>
      -5.20086327e+01 4.29468803e+01 -8.68745346e+01 -4.53171463e+01
      -7.41830292e+01 1.70028610e+01 -1.34018984e+01 5.66225719e+00
      -8.07717383e-01 1.27400265e+01 -8.79703426e+00 1.35225105e+01
      -3.10450974e+01 9.38580418e+00</_>
    <_>
      4.06681919e+00 4.63192940e+01 -4.34812164e+01 -3.27070045e+01
      9.87067223e+00 3.36235476e+00 -3.30903578e+00 -2.04141407e+01
      -1.07687311e+01 2.12618942e+01 1.31892681e+01 -2.39940619e+00
      -6.20810013e+01 -1.69424114e+01</_>
    <_>
      -5.06551857e+01 4.43582344e+01 -9.48479919e+01 -5.10193558e+01
      -7.94177628e+01 1.85034275e+01 -1.71246300e+01 4.51889324e+00
      -1.07434046e+00 1.19224014e+01 -7.06619787e+00 1.19490805e+01
      -3.07456551e+01 6.69488478e+00</_>
    <_>
      2.19739552e+01 6.76311922e+00 1.29508333e+01 1.20985088e+01
      -1.15300713e+01 2.70969200e+01 -1.82510815e+01 -1.89562588e+01
      -6.80563354e+01 -2.19558697e+01 -4.08258772e+00 -9.60569382e+00
      3.97889557e+01 3.81905174e+01</_>
    <_>
      -6.06546288e+01 3.47730827e+01 -3.77914429e+00 6.38554287e+00
      -6.94437933e+00 -3.67843628e+01 4.00201454e+01 -3.08561039e+01
      -1.50715799e+01 3.24999123e+01 1.69424915e+01 3.04103661e+00
      -2.55623221e+00 -2.01664028e+01</_>
    <_>
      1.44328262e+02 8.52852173e+01 -8.28455734e+01 -7.03148270e+01
      2.05575142e+01 -8.20172577e+01 2.78545246e+01 1.40122585e+01
      -6.62744980e+01 -2.59255543e+01 -6.76392317e+00 -1.47915478e+01
      2.16527581e+00 -6.51418352e+00</_>
    <_>
      1.36470566e+02 6.60042648e+01 7.39282513e+00 2.49992924e+01
      -7.73817215e+01 -7.55554962e+01 3.49294930e+01 2.58636646e+01
      6.14758759e+01 1.83026295e+01 3.36347437e+00 -2.29289219e-01
      9.68863964e+00 1.14415026e+00</_>
    <_>
      -9.26523514e+01 5.14256401e+01 -7.71043873e+00 1.21454887e+01
      -2.84336567e+00 -6.82165298e+01 1.51380749e+01 -1.66835232e+01
      -1.88944607e+01 4.24810982e+01 2.46695023e+01 9.00688171e+00
      2.38539314e+01 -6.39225845e+01</_>
    <_>
      -7.07584915e+01 5.00638885e+01 -4.12903709e+01 -1.68689499e+01
      -6.20874023e+01 5.12815142e+00 -8.61653042e+00 3.28142190e+00
      -1.15477762e+01 4.05524683e+00 1.98692679e+00 -1.86292229e+01
      -4.54236174e+00 5.48004484e+00</_>
    <_>
      2.21491604e+01 6.65202618e+00 1.37869005e+01 1.27809801e+01
      -1.11662588e+01 2.79520206e+01 -1.92278786e+01 -1.92376251e+01
      -7.01446686e+01 -2.25837402e+01 -4.24502039e+00 -9.89353275e+00
      4.18019524e+01 3.86539612e+01</_>
    <_>
      -6.50332260e+01 3.45392570e+01 6.72028208e+00 1.68177891e+01
      2.20445232e+01 -6.02182007e+01 2.20968609e+01 -2.09226456e+01
      -2.13613586e+01 4.03482437e+01 1.89383240e+01 5.13492622e+01
      2.76233215e+01 -6.20749588e+01</_>
    <_>
      -3.14747286e+00 -7.27502365e+01 7.61801605e+01 -1.06534706e+02
      -1.92719479e+01 1.26147356e+01 3.85400925e+01 1.33176743e+02
      -3.72041435e+01 5.61934128e+01 8.06739044e+01 -1.93703518e+01
      -1.09000158e+01 -1.20827932e+01</_>
    <_>
      -4.82665062e+00 -1.28811569e+02 -5.44309578e+01 -1.18451328e+01
      -4.63777351e+01 -6.16779633e+01 -1.07560053e+01 -5.07711258e+01
      1.47699718e+01 -4.56699409e+01 3.31201134e+01 -8.38329697e+00
      -1.23200569e+01 -2.11943989e+01</_>
    <_>
      1.12965706e+02 6.88596573e+01 -8.79675827e+01 -7.93522110e+01
      3.92104187e+01 -2.41240902e+01 -8.07822645e-01 -1.04407482e+01
      -5.15977211e+01 -1.90261161e+00 8.89840317e+00 -6.34363079e+00
      -5.49488602e+01 -4.20098381e+01</_>
    <_>
      -4.17916336e+01 2.05216312e+01 9.17862988e+00 1.07041454e+01
      1.38448954e+01 -3.04016304e+01 4.34607239e+01 -3.15118198e+01
      -1.39738216e+01 2.11155872e+01 7.34867048e+00 1.51333408e+01
      -4.19411964e+01 1.75673714e+01</_>
    <_>
      -5.47426081e+00 -7.76527786e+01 8.18717117e+01 -1.15066299e+02
      -2.22570381e+01 1.26915598e+00 3.33864861e+01 1.31019867e+02
      -4.32995415e+01 7.30074463e+01 8.53315811e+01 -2.95332947e+01
      -1.00234833e+01 -5.37380648e+00</_>
    <_>
      -8.08415146e+01 5.97660980e+01 -4.40948029e+01 -1.60580311e+01
      -5.43756714e+01 -2.14498596e+01 -3.81959877e+01 2.25818539e+01
      4.22959232e+00 1.71614540e+00 4.14339828e+00 -2.14355898e+00
      1.84426346e+01 -2.37188911e+01</_>
    <_>
      -1.58599367e+01 6.02030897e+00 9.76150703e+00 6.77103901e+00
      1.36387768e+01 -7.06374454e+00 2.25399513e+01 -1.01338406e+01
      2.41379428e+00 -1.17854757e+01 -6.55485773e+00 -8.15649033e+00
      -5.09856224e+00 1.74118710e+01</_>
    <_>
      1.99361706e+01 -5.94244361e-01 -2.68668354e-01 -6.85344219e+00
      3.69043388e+01 4.83945351e+01 -1.65029125e+01 -2.62020321e+01
      4.81797523e+01 2.76995602e+01 1.71898041e+01 -2.02310162e+01
      3.11583939e+01 -9.46804619e+00</_>
    <_>
      2.89290237e+01 9.69072723e+00 -2.34739761e+01 -2.33826180e+01
      2.06246815e+01 3.50023766e+01 -1.66907597e+01 -2.99627647e+01
      2.79571609e+01 2.72636948e+01 1.82773190e+01 -1.84577541e+01
      -8.26946855e-01 -1.75217113e+01</_>
    <_>
      -8.40659332e+01 5.48454971e+01 -2.47737503e+01 -1.22543383e+00
      -2.74019356e+01 -4.57954826e+01 -1.77647476e+01 2.23086143e+00
      -9.83354187e+00 2.37465000e+01 1.49783173e+01 1.66520405e+01
      9.77948093e+00 -3.44864464e+01</_>
    <_>
      -7.06039124e+01 4.23942871e+01 -1.39761276e+01 -3.98425579e-01
      -2.18730679e+01 -2.92500229e+01 5.44450912e+01 -3.81077080e+01
      -1.69450150e+01 3.66291924e+01 1.65039158e+01 1.05209517e+00
      -7.76405907e+00 -1.05760479e+01</_>
    <_>
      1.25386405e+00 -7.82042885e+00 -5.05062056e+00 -9.01023388e-01
      3.01942778e+00 2.10694656e+01 -2.72153974e+00 1.44287455e+00
      1.80798225e+01 3.60742760e+00 -1.49800320e+01 1.66321659e+01
      -4.11833382e+00 8.53594284e+01</_>
    <_>
      -1.79459584e+00 -8.60048981e+01 -8.14851303e+01 6.80136719e+01
      5.54663658e+00 6.96584165e-01 3.33015709e+01 5.60619583e+01
      -2.26038017e+01 7.02259979e+01 -9.19516602e+01 -1.92552147e+01
      -1.92451134e+01 -2.96417503e+01</_>
    <_>
      -9.82301178e+01 4.85991631e+01 -6.98026276e+01 -3.05703468e+01
      -9.11937180e+01 -6.48381090e+00 -1.49813151e+00 1.64548759e+01
      8.52452850e+00 1.85338640e+00 5.99619293e+00 -1.91971207e+01
      2.46748161e+01 -3.58826714e+01</_>
    <_>
      1.44192581e+02 7.75747757e+01 -3.71405945e+01 -2.03410587e+01
      -3.65978584e+01 -8.71666031e+01 3.46190224e+01 2.45202236e+01
      -3.25231647e+00 -7.24590349e+00 -3.59556818e+00 -9.44536877e+00
      1.73772202e+01 2.07059407e+00</_>
    <_>
      -7.37029800e+01 4.04804497e+01 4.51338673e+00 2.01189728e+01
      1.96816292e+01 -7.71945648e+01 -5.71974754e+01 2.80103111e+01
      3.63254666e+00 -3.07401490e+00 9.06216812e+00 -3.09634647e+01
      -1.86007538e+01 -2.85472012e+01</_>
    <_>
      7.67380285e+00 -1.61648132e+02 -1.23263084e+02 5.22670174e+01
      -4.35155029e+01 -4.86517677e+01 2.06526828e+00 -2.36996765e+01
      5.71319532e+00 -2.87231846e+01 5.63348274e+01 -1.14555235e+01
      -1.42358360e+01 -1.54521914e+01</_>
    <_>
      -4.72857513e+01 2.57678337e+01 8.19660759e+00 1.85860424e+01
      2.45719090e+01 -5.91230659e+01 -6.68499603e+01 3.57024498e+01
      1.02610645e+01 -1.52884083e+01 1.39213896e+00 -2.42710686e+01
      2.85879195e-01 -2.51603298e+01</_>
    <_>
      -4.00810738e+01 1.67378693e+01 1.59905233e+01 2.04809208e+01
      3.51304512e+01 -5.39570198e+01 -4.68037987e+01 2.87305756e+01
      8.25952435e+00 -1.79914188e+01 -2.79930449e+00 -2.74416866e+01
      -5.20317268e+01 1.38688774e+01</_>
    <_>
      -3.05871010e+01 1.37326641e+01 1.70948467e+01 2.09288502e+01
      3.73111382e+01 -5.24523201e+01 -5.99781151e+01 3.28095093e+01
      1.28284340e+01 -2.16034317e+01 -2.20223784e+00 -3.26782303e+01
      -1.38126907e+01 -1.11026306e+01</_>
    <_>
      -4.18810368e+00 -4.85326147e+00 2.65571094e+00 -4.19195700e+00
      -5.07803738e-01 1.43537788e+01 1.95342846e+01 6.19219875e+00
      1.20762367e+01 -2.55044308e+01 -6.15649080e+00 -9.07846928e+00
      8.69007945e-01 -5.62702894e-01</_>
    <_>
      -6.71508331e+01 6.40756836e+01 -8.24733658e+01 -4.80582123e+01
      -9.92506790e+01 3.18903427e+01 -1.58241539e+01 8.47819424e+00
      4.38885498e+00 1.22747593e+01 9.52847153e-02 -2.91087418e+01
      -1.32225981e+01 1.55699654e+01</_>
    <_>
      -2.50190964e+01 1.15007534e+01 1.05063486e+01 1.04860382e+01
      1.67686539e+01 -2.24422073e+01 1.57373714e+01 -1.13836164e+01
      -5.06015158e+00 3.86217594e+00 9.48479891e-01 1.41013536e+01
      1.00065899e+01 -8.44976807e+00</_>
    <_>
      -3.11977434e+00 -1.15751984e+02 4.06845207e+01 -1.13379318e+02
      -5.77932816e+01 -7.32113647e+01 -2.84534702e+01 -7.19772568e+01
      8.07125759e+00 1.07964697e+01 -7.06252747e+01 3.91399074e+00
      -1.68216190e+01 -2.49502773e+01</_>
    <_>
      5.56782227e+01 2.03751202e+01 6.31685867e+01 7.10273209e+01
      -8.87316666e+01 5.22268486e+01 -4.12584801e+01 -3.79996605e+01
      -1.15955460e+02 -1.84734802e+01 9.60379410e+00 -3.43973770e+01
      -1.43227234e+01 -4.06847687e+01</_>
    <_>
      -7.19733429e+01 2.72752457e+01 -4.70145178e+00 -2.59303427e+00
      -1.04888525e+01 -6.09353333e+01 -3.65228844e+01 2.13055267e+01
      3.83973336e+00 -7.33610570e-01 7.47106361e+00 -3.88259773e+01
      -4.73740501e+01 -5.30561018e+00</_>
    <_>
      7.60488176e+00 -1.63352722e+02 -1.23314636e+02 5.03068542e+01
      -4.56686211e+01 -5.08972893e+01 8.52530658e-01 -2.79064579e+01
      7.22433233e+00 -3.37698593e+01 6.30555687e+01 -1.07946234e+01
      -1.43257637e+01 -1.44599495e+01</_>
    <_>
      -5.50842514e+01 2.73759232e+01 1.95570393e+01 2.68682556e+01
      4.10230560e+01 -7.64106674e+01 -6.47132721e+01 3.51161156e+01
      9.50362206e+00 -2.04173775e+01 1.71827519e+00 -3.72622261e+01
      -2.55097313e+01 -1.90558662e+01</_>
    <_>
      3.49372940e+01 2.08448181e+01 -1.97072868e+01 -2.05014801e+01
      3.42370186e+01 3.42349510e+01 -2.03452454e+01 -3.17629509e+01
      3.08318615e+01 2.88775272e+01 2.36119022e+01 -2.57782478e+01
      1.35246837e+00 -3.49886246e+01</_>
    <_>
      -6.14852524e+01 3.08242722e+01 4.89605522e+00 1.19392433e+01
      1.13669147e+01 -4.46135712e+01 4.15917244e+01 -3.04120903e+01
      -1.91074581e+01 3.64787979e+01 1.62707920e+01 2.87557392e+01
      5.00657415e+00 -2.81827888e+01</_>
    <_>
      -3.08201065e+01 1.67379951e+01 1.61424847e+01 2.15576286e+01
      3.26990242e+01 -5.58615990e+01 -7.00911484e+01 3.63083344e+01
      1.28063030e+01 -2.16918335e+01 1.43710122e-01 -3.60870667e+01
      2.72748804e+00 -2.18364658e+01</_>
    <_>
      1.10688660e+02 5.25762329e+01 4.65296936e+01 6.62058029e+01
      -1.15623070e+02 -4.62436600e+01 1.61223640e+01 1.81841030e+01
      8.36818695e+01 3.65020218e+01 1.14335184e+01 6.89959621e+00
      -3.71393509e+01 -2.05192738e+01</_>
    <_>
      -4.67426720e+01 1.79039135e+01 1.39287367e+01 1.54918480e+01
      2.65271339e+01 -4.86766624e+01 -7.78215170e+00 8.31956196e+00
      -2.30317384e-01 -4.54312992e+00 3.36397719e+00 -2.81051350e+00
      -4.60912514e+00 -3.10155716e+01</_>
    <_>
      -8.67522507e+01 6.29512825e+01 -5.78469658e+01 -2.29353905e+01
      -6.52054291e+01 -2.25777206e+01 -4.82601662e+01 2.13453064e+01
      3.68308997e+00 1.00469713e+01 7.12898636e+00 -8.78348160e+00
      -1.93055820e+01 -3.62786937e+00</_>
    <_>
      -1.99866982e+01 8.02783203e+00 6.04986382e+00 7.28877258e+00
      1.72787514e+01 -1.77939606e+01 -2.03676739e+01 1.25906391e+01
      4.58041430e+00 -1.04366922e+01 -6.97864485e+00 5.38241005e+00
      -3.07711563e+01 2.16541786e+01</_>
    <_>
      -7.00774612e+01 3.77293015e+01 -3.74000597e+00 5.10782576e+00
      -8.00432014e+00 -4.21969261e+01 3.02297058e+01 -1.60393257e+01
      -1.16104736e+01 2.22484131e+01 1.53404274e+01 -5.82281065e+00
      -5.03424883e+00 -3.08772354e+01</_>
    <_>
      -6.34918642e+00 -8.12605896e+01 8.52828522e+01 -1.21476730e+02
      -2.49740410e+01 -7.65927613e-01 3.40694962e+01 1.33773575e+02
      -4.57638893e+01 7.92732239e+01 8.83472824e+01 -3.39767189e+01
      -1.02484465e+01 -4.25416374e+00</_>
    <_>
      -3.61443949e+00 -1.29789108e+02 -5.33509102e+01 -1.29795027e+01
      -4.63013458e+01 -6.13826675e+01 -1.47416229e+01 -4.91820297e+01
      1.77246895e+01 -5.25899734e+01 3.05206146e+01 -8.58003902e+00
      -1.12878742e+01 -2.36853752e+01</_>
    <_>
      8.42793579e+01 4.91703911e+01 -7.08881454e+01 -6.47257919e+01
      4.42026138e+01 1.22675409e+01 -1.27758179e+01 -2.50448952e+01
      -9.21325207e+00 1.84504795e+01 1.95594959e+01 -1.61798992e+01
      -4.80508728e+01 -5.25628548e+01</_>
    <_>
      -5.70219078e+01 2.79903355e+01 6.03034163e+00 1.44004946e+01
      1.60391197e+01 -4.88192520e+01 2.06314831e+01 -1.78185310e+01
      -1.70530262e+01 3.07302990e+01 1.35394459e+01 3.63103867e+01
      5.26014137e+00 -3.31139450e+01</_>
    <_>
      -6.60404434e+01 3.11942081e+01 6.83403063e+00 1.48961763e+01
      1.98214550e+01 -6.05689812e+01 -3.18036270e+01 2.40106392e+01
      5.57487011e+00 -1.93895226e+01 -2.46800512e-01 -2.99969101e+01
      -4.84137764e+01 -5.49872112e+00</_>
    <_>
      1.36716888e+02 8.21504974e+01 -8.05577621e+01 -6.83806534e+01
      2.09448338e+01 -7.55696182e+01 2.48494263e+01 1.08402719e+01
      -6.98189240e+01 -2.43524570e+01 -5.54349136e+00 -1.33819151e+01
      -4.65143204e+00 -8.92562294e+00</_>
    <_>
      1.12644119e+01 -1.54862106e+02 -1.38274933e+02 8.00947418e+01
      -3.17789612e+01 -3.34732285e+01 1.16404781e+01 2.67937589e+00
      -4.51278591e+00 -5.79517031e+00 5.61309471e+01 -1.00835457e+01
      -1.32522306e+01 -1.05450344e+01</_>
    <_>
      -2.14329948e+01 6.04312181e+00 1.55467415e+01 1.08198433e+01
      2.50101414e+01 -1.56213684e+01 1.80989456e+01 -5.71684837e+00
      2.81907415e+00 -1.49343109e+01 -8.55275917e+00 -2.82508278e+00
      -1.32400217e+01 1.61012001e+01</_>
    <_>
      7.93191671e+00 -1.36148254e+02 -1.07524971e+02 6.15102882e+01
      -2.22172546e+01 -3.04475613e+01 1.46591825e+01 9.57030487e+00
      -6.16671896e+00 -1.40951910e+01 6.73319321e+01 4.22658920e+00
      -1.20933485e+01 -1.20597506e+01</_>
    <_>
      -6.01846199e+01 3.91898766e+01 -3.57591362e+01 -2.01501083e+01
      -1.94639111e+01 -1.51819782e+01 2.63617229e+00 -1.82265913e+00
      2.36023068e+00 8.13234901e+00 7.36893272e+00 -1.95782223e+01
      -3.49884834e+01 -8.42739105e+00</_>
    <_>
      4.53735771e+01 1.68815575e+01 4.51694221e+01 5.01783409e+01
      -5.95257225e+01 4.03250465e+01 -3.27995071e+01 -2.92365608e+01
      -9.92423477e+01 -2.11454716e+01 3.39217186e+00 -2.45043831e+01
      5.04457235e+00 -1.10353069e+01</_>
    <_>
      4.76284075e+00 -1.29745132e+02 -5.12404394e+00 -7.28386536e+01
      -6.10594711e+01 -5.51217842e+01 -1.62588730e+01 -3.46987762e+01
      2.04089904e+00 5.53144169e+00 3.45137453e+00 -1.56736021e+01
      -1.21415272e+01 -1.48028641e+01</_>
    <_>
      2.21960697e+01 4.38070440e+00 -9.73285294e+00 -1.05324869e+01
      3.14551830e+01 2.47375584e+01 -5.89868498e+00 -1.32025270e+01
      2.66046162e+01 1.60586739e+01 7.04920101e+00 -1.31503429e+01
      5.20106125e+00 -9.10524273e+00</_>
    <_>
      -2.28754177e+01 8.35075855e+00 1.52782326e+01 1.72448235e+01
      3.06375446e+01 -3.82033043e+01 -3.25286446e+01 1.80804462e+01
      4.94456434e+00 -7.36810637e+00 1.02646780e+00 -4.84369850e+00
      1.65421391e+01 -2.82267590e+01</_>
    <_>
      -8.38627396e+01 5.54391060e+01 -2.43286266e+01 -9.34926569e-02
      -2.63300247e+01 -4.78437195e+01 -2.14850349e+01 2.48286200e+00
      -1.15513086e+01 2.72791538e+01 1.63853474e+01 2.03623066e+01
      1.30697079e+01 -3.74508629e+01</_>
    <_>
      -5.32070732e+00 -1.24227737e+02 -4.61352005e+01 -1.79139538e+01
      -4.53987083e+01 -6.18806190e+01 -1.03475580e+01 -5.08506012e+01
      1.24705105e+01 -3.99233704e+01 3.20023460e+01 -6.98080587e+00
      -1.30611982e+01 -1.92730904e+01</_>
    <_>
      -1.00470901e+02 6.05292549e+01 -4.93580475e+01 -3.30068054e+01
      -8.20140152e+01 1.14179668e+01 6.93208084e+01 -9.03398609e+00
      1.53670931e+01 -2.41924953e+01 -3.30040240e+00 -8.07936020e+01
      6.98822832e+00 -2.70267372e+01</_>
    <_>
      -4.32751389e+01 4.41185684e+01 5.34897268e-01 1.98737583e+01
